<?xml version='1.0' encoding='UTF-8'?>
<BIF VERSION="0.3">
  <NETWORK>
    <NAME>UNTITLED</NAME>
    <VARIABLE TYPE="nature">
      <NAME>d01_myalgia_day</NAME>
      <OUTCOME>_inf_0_5_</OUTCOME>
      <OUTCOME>_0_5_1_5_</OUTCOME>
      <OUTCOME>_1_5_2_5_</OUTCOME>
      <OUTCOME>_2_5_3_5_</OUTCOME>
      <OUTCOME>_3_5_4_5_</OUTCOME>
      <OUTCOME>_4_5_inf_</OUTCOME>
      <PROPERTY/>
    </VARIABLE>
    <VARIABLE TYPE="nature">
      <NAME>d03_hct_avg</NAME>
      <OUTCOME>_inf_35_5_</OUTCOME>
      <OUTCOME>_35_5_36_5_</OUTCOME>
      <OUTCOME>_36_5_37_85_</OUTCOME>
      <OUTCOME>_37_85_39_583_</OUTCOME>
      <OUTCOME>_39_583_40_253_</OUTCOME>
      <OUTCOME>_40_253_43_5_</OUTCOME>
      <OUTCOME>_43_5_46_5_</OUTCOME>
      <OUTCOME>_46_5_48_5_</OUTCOME>
      <OUTCOME>_48_5_inf_</OUTCOME>
      <PROPERTY/>
    </VARIABLE>
    <VARIABLE TYPE="nature">
      <NAME>d03_intake_diff</NAME>
      <OUTCOME>_inf_37_5_</OUTCOME>
      <OUTCOME>_37_5_325_0_</OUTCOME>
      <OUTCOME>_325_0_375_0_</OUTCOME>
      <OUTCOME>_375_0_472_5_</OUTCOME>
      <OUTCOME>_472_5_605_0_</OUTCOME>
      <OUTCOME>_605_0_1010_0_</OUTCOME>
      <OUTCOME>_1010_0_1175_0_</OUTCOME>
      <OUTCOME>_1175_0_1575_0_</OUTCOME>
      <OUTCOME>_1575_0_inf_</OUTCOME>
      <PROPERTY/>
    </VARIABLE>
    <VARIABLE TYPE="nature">
      <NAME>d03_pulse_rate_max</NAME>
      <OUTCOME>_inf_89_0_</OUTCOME>
      <OUTCOME>_89_0_91_0_</OUTCOME>
      <OUTCOME>_91_0_95_0_</OUTCOME>
      <OUTCOME>_95_0_97_0_</OUTCOME>
      <OUTCOME>_97_0_99_0_</OUTCOME>
      <OUTCOME>_99_0_105_5_</OUTCOME>
      <OUTCOME>_105_5_109_5_</OUTCOME>
      <OUTCOME>_109_5_135_0_</OUTCOME>
      <OUTCOME>_135_0_inf_</OUTCOME>
      <PROPERTY/>
    </VARIABLE>
    <VARIABLE TYPE="nature">
      <NAME>d03_temp_min</NAME>
      <OUTCOME>_inf_36_25_</OUTCOME>
      <OUTCOME>_36_25_36_593_</OUTCOME>
      <OUTCOME>_36_593_36_75_</OUTCOME>
      <OUTCOME>_36_75_36_85_</OUTCOME>
      <OUTCOME>_36_85_37_15_</OUTCOME>
      <OUTCOME>_37_15_37_25_</OUTCOME>
      <OUTCOME>_37_25_38_35_</OUTCOME>
      <OUTCOME>_38_35_38_55_</OUTCOME>
      <OUTCOME>_38_55_inf_</OUTCOME>
      <PROPERTY/>
    </VARIABLE>
    <VARIABLE TYPE="nature">
      <NAME>d04_ab_circum</NAME>
      <OUTCOME>_inf_45_25_</OUTCOME>
      <OUTCOME>_45_25_49_75_</OUTCOME>
      <OUTCOME>_49_75_54_922_</OUTCOME>
      <OUTCOME>_54_922_58_25_</OUTCOME>
      <OUTCOME>_58_25_59_091_</OUTCOME>
      <OUTCOME>_59_091_59_865_</OUTCOME>
      <OUTCOME>_59_865_60_75_</OUTCOME>
      <OUTCOME>_60_75_69_75_</OUTCOME>
      <OUTCOME>_69_75_inf_</OUTCOME>
      <PROPERTY/>
    </VARIABLE>
    <VARIABLE TYPE="nature">
      <NAME>d04_abdominal</NAME>
      <OUTCOME>1</OUTCOME>
      <OUTCOME>2</OUTCOME>
      <PROPERTY/>
    </VARIABLE>
    <VARIABLE TYPE="nature">
      <NAME>d04_clear</NAME>
      <OUTCOME>1</OUTCOME>
      <OUTCOME>2</OUTCOME>
      <PROPERTY/>
    </VARIABLE>
    <VARIABLE TYPE="nature">
      <NAME>d04_diarrhea</NAME>
      <OUTCOME>1</OUTCOME>
      <OUTCOME>2</OUTCOME>
      <PROPERTY/>
    </VARIABLE>
    <VARIABLE TYPE="nature">
      <NAME>d04_injected</NAME>
      <OUTCOME>1</OUTCOME>
      <OUTCOME>2</OUTCOME>
      <PROPERTY/>
    </VARIABLE>
    <VARIABLE TYPE="nature">
      <NAME>d04_itching</NAME>
      <OUTCOME>1</OUTCOME>
      <OUTCOME>2</OUTCOME>
      <PROPERTY/>
    </VARIABLE>
    <VARIABLE TYPE="nature">
      <NAME>d05_ast_alt</NAME>
      <OUTCOME>_inf_0_974_</OUTCOME>
      <OUTCOME>_0_974_1_185_</OUTCOME>
      <OUTCOME>_1_185_1_251_</OUTCOME>
      <OUTCOME>_1_251_1_343_</OUTCOME>
      <OUTCOME>_1_343_1_392_</OUTCOME>
      <OUTCOME>_1_392_1_631_</OUTCOME>
      <OUTCOME>_1_631_1_717_</OUTCOME>
      <OUTCOME>_1_717_1_941_</OUTCOME>
      <OUTCOME>_1_941_inf_</OUTCOME>
      <PROPERTY/>
    </VARIABLE>
    <VARIABLE TYPE="nature">
      <NAME>d05_atyp</NAME>
      <OUTCOME>_inf_0_974_</OUTCOME>
      <OUTCOME>_0_974_1_423_</OUTCOME>
      <OUTCOME>_1_423_1_732_</OUTCOME>
      <OUTCOME>_1_732_2_041_</OUTCOME>
      <OUTCOME>_2_041_2_493_</OUTCOME>
      <OUTCOME>_2_493_2_728_</OUTCOME>
      <OUTCOME>_2_728_2_991_</OUTCOME>
      <OUTCOME>_2_991_3_568_</OUTCOME>
      <OUTCOME>_3_568_inf_</OUTCOME>
      <PROPERTY/>
    </VARIABLE>
    <VARIABLE TYPE="nature">
      <NAME>d05_band</NAME>
      <OUTCOME>_inf_1_295_</OUTCOME>
      <OUTCOME>_1_295_2_008_</OUTCOME>
      <OUTCOME>_2_008_2_643_</OUTCOME>
      <OUTCOME>_2_643_3_435_</OUTCOME>
      <OUTCOME>_3_435_inf_</OUTCOME>
      <PROPERTY/>
    </VARIABLE>
    <VARIABLE TYPE="nature">
      <NAME>d05_eosin</NAME>
      <OUTCOME>_inf_0_644_</OUTCOME>
      <OUTCOME>_0_644_0_25_</OUTCOME>
      <OUTCOME>_0_25_0_768_</OUTCOME>
      <OUTCOME>_0_768_1_209_</OUTCOME>
      <OUTCOME>_1_209_1_816_</OUTCOME>
      <OUTCOME>_1_816_inf_</OUTCOME>
      <PROPERTY/>
    </VARIABLE>
    <VARIABLE TYPE="nature">
      <NAME>d05_lft_protein</NAME>
      <OUTCOME>_inf_5_05_</OUTCOME>
      <OUTCOME>_5_05_5_55_</OUTCOME>
      <OUTCOME>_5_55_5_918_</OUTCOME>
      <OUTCOME>_5_918_6_15_</OUTCOME>
      <OUTCOME>_6_15_6_25_</OUTCOME>
      <OUTCOME>_6_25_6_95_</OUTCOME>
      <OUTCOME>_6_95_7_15_</OUTCOME>
      <OUTCOME>_7_15_7_55_</OUTCOME>
      <OUTCOME>_7_55_inf_</OUTCOME>
      <PROPERTY/>
    </VARIABLE>
    <VARIABLE TYPE="nature">
      <NAME>d05_lymp</NAME>
      <OUTCOME>_inf_3_445_</OUTCOME>
      <OUTCOME>_3_445_3_716_</OUTCOME>
      <OUTCOME>_3_716_3_903_</OUTCOME>
      <OUTCOME>_3_903_4_401_</OUTCOME>
      <OUTCOME>_4_401_4_573_</OUTCOME>
      <OUTCOME>_4_573_4_833_</OUTCOME>
      <OUTCOME>_4_833_5_039_</OUTCOME>
      <OUTCOME>_5_039_5_19_</OUTCOME>
      <OUTCOME>_5_19_inf_</OUTCOME>
      <PROPERTY/>
    </VARIABLE>
    <VARIABLE TYPE="nature">
      <NAME>d05_pmn</NAME>
      <OUTCOME>_inf_3_938_</OUTCOME>
      <OUTCOME>_3_938_4_463_</OUTCOME>
      <OUTCOME>_4_463_4_718_</OUTCOME>
      <OUTCOME>_4_718_4_96_</OUTCOME>
      <OUTCOME>_4_96_4_997_</OUTCOME>
      <OUTCOME>_4_997_5_98_</OUTCOME>
      <OUTCOME>_5_98_6_106_</OUTCOME>
      <OUTCOME>_6_106_6_446_</OUTCOME>
      <OUTCOME>_6_446_inf_</OUTCOME>
      <PROPERTY/>
    </VARIABLE>
    <VARIABLE TYPE="nature">
      <NAME>d05_sgot_platelet_ratio</NAME>
      <OUTCOME>_inf_0_195_</OUTCOME>
      <OUTCOME>_0_195_0_285_</OUTCOME>
      <OUTCOME>_0_285_0_431_</OUTCOME>
      <OUTCOME>_0_431_0_729_</OUTCOME>
      <OUTCOME>_0_729_0_983_</OUTCOME>
      <OUTCOME>_0_983_1_689_</OUTCOME>
      <OUTCOME>_1_689_2_768_</OUTCOME>
      <OUTCOME>_2_768_12_064_</OUTCOME>
      <OUTCOME>_12_064_inf_</OUTCOME>
      <PROPERTY/>
    </VARIABLE>
    <VARIABLE TYPE="nature">
      <NAME>dhf_dx</NAME>
      <OUTCOME>0</OUTCOME>
      <OUTCOME>1</OUTCOME>
      <PROPERTY/>
    </VARIABLE>
    <VARIABLE TYPE="nature">
      <NAME>fever_day</NAME>
      <OUTCOME>_inf_1_5_</OUTCOME>
      <OUTCOME>_1_5_2_5_</OUTCOME>
      <OUTCOME>_2_5_3_5_</OUTCOME>
      <OUTCOME>_3_5_4_5_</OUTCOME>
      <OUTCOME>_4_5_inf_</OUTCOME>
      <PROPERTY/>
    </VARIABLE>
    <DEFINITION>
      <FOR>d01_myalgia_day</FOR>
      <GIVEN>dhf_dx</GIVEN>
      <TABLE>0.5709490110687716 0.06033387769914717 0.09952821629468339 0.12456904373072042 0.09517328978406825 0.049446561422609336 0.5044742729306488 0.03345535895871467 0.10178970917225953 0.16402277811673785 0.15792149684767134 0.03833638397396787 </TABLE>
    </DEFINITION>
    <DEFINITION>
      <FOR>d03_hct_avg</FOR>
      <GIVEN>dhf_dx</GIVEN>
      <TABLE>0.16578963285550108 0.080868565898506 0.10264319845158165 0.2224036774934978 0.15599104820661702 0.17776568075969268 0.07760237101554464 0.013367204983971448 0.0035686203350874 0.11992407294420716 0.05036946647684903 0.04060741644634262 0.176055860619619 0.14066842925903328 0.23096739204121755 0.1479899667819131 0.05647074774591553 0.03694664768490272 </TABLE>
    </DEFINITION>
    <DEFINITION>
      <FOR>d03_intake_diff</FOR>
      <GIVEN>dhf_dx</GIVEN>
      <TABLE>0.41184298070525605 0.17885441238734648 0.019899594749894146 0.080868565898506 0.08848968729208247 0.17123329099377 0.012278473356317666 0.02860944777112441 0.007923546845702532 0.41888685512846574 0.14676971052809973 0.03694664768490271 0.04304792895396921 0.09795946037556773 0.13090637922852683 0.04304792895396921 0.04304792895396921 0.03938716019252931 </TABLE>
    </DEFINITION>
    <DEFINITION>
      <FOR>d03_pulse_rate_max</FOR>
      <GIVEN>dhf_dx</GIVEN>
      <TABLE>0.05038408032420009 0.029698179398778203 0.04494042218593117 0.03949676404766225 0.03840803242000847 0.186475533780923 0.06562632311135305 0.5207161434706344 0.024254521260509285 0.05525049149210223 0.04060741644634262 0.04182767270015592 0.05525049149210223 0.04426818520778252 0.1748356043658057 0.07233407904548844 0.4786794115653176 0.03694664768490272 </TABLE>
    </DEFINITION>
    <DEFINITION>
      <FOR>d03_temp_min</FOR>
      <GIVEN>dhf_dx</GIVEN>
      <TABLE>0.03840803242000847 0.05800520171777657 0.05800520171777657 0.055827738462469 0.16796709611080868 0.03187564265408577 0.40966551744994856 0.03731930079235469 0.14292626867477165 0.04548844146159582 0.05403023523828893 0.04792895396922243 0.03328587892346282 0.10284048539082095 0.04182767270015592 0.41644634262083924 0.07721510406074164 0.1809368856348722 </TABLE>
    </DEFINITION>
    <DEFINITION>
      <FOR>d04_ab_circum</FOR>
      <GIVEN>dhf_dx</GIVEN>
      <TABLE>0.06344885985604547 0.17123329099377 0.2474445049295348 0.1385713421641565 0.07215871287727572 0.0013911570797798339 0.025343252888163064 0.13530514728119514 0.1451037319300792 0.03450613517727612 0.12236458545183376 0.2029014982035116 0.14066842925903328 0.03450613517727612 0.07965561656836824 0.05036946647684903 0.1931394481730052 0.14188868551284659 </TABLE>
    </DEFINITION>
    <DEFINITION>
      <FOR>d04_abdominal</FOR>
      <GIVEN>dhf_dx</GIVEN>
      <GIVEN>fever_day</GIVEN>
      <TABLE>0.9673366834170855 0.032663316582914576 0.9277286135693216 0.07227138643067847 0.857032457496136 0.14296754250386398 0.8326732673267326 0.16732673267326734 0.8197278911564626 0.18027210884353742 0.9965986394557823 0.003401360544217687 0.8951367781155015 0.10486322188449848 0.8153724247226625 0.18462757527733756 0.6678486997635934 0.3321513002364066 0.6284403669724771 0.37155963302752293 </TABLE>
    </DEFINITION>
    <DEFINITION>
      <FOR>d04_clear</FOR>
      <GIVEN>dhf_dx</GIVEN>
      <TABLE>0.9409363091997822 0.05906369080021775 0.9874923733984137 0.012507626601586334 </TABLE>
    </DEFINITION>
    <DEFINITION>
      <FOR>d04_diarrhea</FOR>
      <GIVEN>dhf_dx</GIVEN>
      <TABLE>0.9278715296679368 0.07212847033206314 0.8825503355704698 0.1174496644295302 </TABLE>
    </DEFINITION>
    <DEFINITION>
      <FOR>d04_injected</FOR>
      <GIVEN>dhf_dx</GIVEN>
      <GIVEN>fever_day</GIVEN>
      <TABLE>0.9371859296482412 0.06281407035175879 0.8746312684365781 0.12536873156342182 0.8910355486862442 0.10896445131375579 0.8683168316831683 0.1316831683168317 0.8061224489795918 0.19387755102040816 0.95578231292517 0.04421768707482993 0.9316109422492401 0.06838905775075987 0.8946117274167987 0.10538827258320127 0.8664302600472813 0.13356973995271867 0.8669724770642202 0.13302752293577982 </TABLE>
    </DEFINITION>
    <DEFINITION>
      <FOR>d04_itching</FOR>
      <GIVEN>dhf_dx</GIVEN>
      <GIVEN>fever_day</GIVEN>
      <TABLE>0.9974874371859297 0.002512562814070352 0.9985250737463127 0.0014749262536873156 0.999227202472952 0.0007727975270479134 0.9712871287128713 0.028712871287128714 0.9149659863945578 0.08503401360544217 0.9965986394557823 0.003401360544217687 0.9984802431610942 0.001519756838905775 0.9960380348652932 0.003961965134706815 0.9846335697399528 0.015366430260047281 0.9770642201834863 0.022935779816513763 </TABLE>
    </DEFINITION>
    <DEFINITION>
      <FOR>d05_ast_alt</FOR>
      <GIVEN>dhf_dx</GIVEN>
      <TABLE>0.10373193007923547 0.09937700356862032 0.05365027520716144 0.06671505473900684 0.013367204983971452 0.12224036774934978 0.05147281195185387 0.07324744450492952 0.4161979072158713 0.03206562266964952 0.06501254152260864 0.04548844146159582 0.03206562266964952 0.03450613517727612 0.11870381669039387 0.03206562266964952 0.12968612297471357 0.5104060741644634 </TABLE>
    </DEFINITION>
    <DEFINITION>
      <FOR>d05_atyp</FOR>
      <GIVEN>dhf_dx</GIVEN>
      <TABLE>0.6448315490231655 0.049295348696546275 0.029698179398778186 0.04385169055827736 0.062360128228391674 0.044940422185931146 0.03078691102643197 0.07106998124962192 0.02316578963285549 0.6238899057691002 0.03450613517727611 0.03938716019252931 0.03938716019252931 0.09551894786794113 0.03694664768490271 0.03572639143108941 0.049149210223035714 0.045488441461595815 </TABLE>
    </DEFINITION>
    <DEFINITION>
      <FOR>d05_band</FOR>
      <GIVEN>dhf_dx</GIVEN>
      <TABLE>0.8856831790963527 0.01905280348394121 0.03647250952640174 0.04300489929232444 0.015786608600979857 0.8340451494813911 0.056741915802318486 0.03843807199511898 0.03233679072605247 0.03843807199511898 </TABLE>
    </DEFINITION>
    <DEFINITION>
      <FOR>d05_eosin</FOR>
      <GIVEN>dhf_dx</GIVEN>
      <TABLE>0.017873344220649616 0.7963164579931049 0.017873344220649616 0.040736708401379065 0.0450916349119942 0.08210851025222285 0.034675615212527974 0.7814724425462682 0.04443766524303438 0.03711612772015458 0.05175920276591418 0.050538946512100884 </TABLE>
    </DEFINITION>
    <DEFINITION>
      <FOR>d05_lft_protein</FOR>
      <GIVEN>dhf_dx</GIVEN>
      <TABLE>0.001391157079779834 0.010101010101010102 0.04820661706889252 0.04602915381358495 0.03840803242000847 0.45539224581140747 0.11788544123873465 0.16905582773846245 0.11353051472811951 0.04304792895396922 0.04792895396922243 0.07477459155311504 0.09063792285268794 0.04914921022303573 0.38960070503694666 0.12236458545183376 0.11748356043658056 0.06501254152260864 </TABLE>
    </DEFINITION>
    <DEFINITION>
      <FOR>d05_lymp</FOR>
      <GIVEN>dhf_dx</GIVEN>
      <TABLE>0.014455936611625236 0.03187564265408577 0.029698179398778203 0.2594205528337265 0.14401500030242545 0.2006290449404222 0.11897417286638842 0.06998124962196818 0.13095022077058005 0.03450613517727612 0.04060741644634262 0.06745305403023524 0.3163853298081486 0.1492102230357264 0.1492102230357264 0.11626330418276726 0.03694664768490272 0.08941766659887465 </TABLE>
    </DEFINITION>
    <DEFINITION>
      <FOR>d05_pmn</FOR>
      <GIVEN>dhf_dx</GIVEN>
      <TABLE>0.02643198451581685 0.11679670961108085 0.0874009556644287 0.14401500030242542 0.014455936611625234 0.47172322022621416 0.02643198451581685 0.06127139660073791 0.05147281195185386 0.04548844146159582 0.060131516507355424 0.10650125415226085 0.10772151040607414 0.040607416446342616 0.5189478679411564 0.04670869771540912 0.03450613517727611 0.039387160192529316 </TABLE>
    </DEFINITION>
    <DEFINITION>
      <FOR>d05_sgot_platelet_ratio</FOR>
      <GIVEN>dhf_dx</GIVEN>
      <GIVEN>fever_day</GIVEN>
      <TABLE>0.503070910106086 0.20156337241764377 0.19151312116136235 0.08096035734226688 0.0005583472920156336 0.01060859854829704 0.01060859854829704 0.0005583472920156336 0.0005583472920156336 0.30711242215667006 0.18911832186168476 0.22451655195018036 0.14192068174369066 0.04162569649295314 0.029826286463454615 0.04162569649295314 0.02392658144870535 0.0003277613897082925 0.14236647776060454 0.16709599862613778 0.23201099089816252 0.19491670959986265 0.11454576678687964 0.07126910527219647 0.04653958440666324 0.027992443757513315 0.0032629228919800798 0.10319031903190322 0.11507150715071511 0.1546754675467547 0.2378437843784379 0.11111111111111115 0.13487348734873492 0.09922992299229925 0.043784378437843795 0.00022002200220022007 0.12320483749055178 0.08238851095993953 0.164021164021164 0.15041572184429328 0.15041572184429328 0.06878306878306878 0.12320483749055178 0.1368102796674225 0.0007558578987150415 0.23204837490551775 0.24565381708238848 0.20483749055177622 0.16402116402116398 0.05517762660619802 0.05517762660619802 0.0007558578987150414 0.04157218442932727 0.0007558578987150414 0.04896994258696387 0.1097602161431949 0.25565687267814935 0.27997298210064175 0.07328605200945627 0.1219182708544411 0.04896994258696387 0.06112799729821007 0.00033772374197906115 0.0001760873393203029 0.057228385279098445 0.13646768797323475 0.24423313963726012 0.09209367846451842 0.21570699066737106 0.08575453424898752 0.15231554851206203 0.016023947878147562 0.014447071184659837 0.004990806409246125 0.01917520357236669 0.11846598371421067 0.047543997898607825 0.2224848962437615 0.13265038087733125 0.3548726030995535 0.08536905700026268 0.019367991845056064 0.001019367991845056 0.001019367991845056 0.07441386340468908 0.03771661569826707 0.23955147808358818 0.0927624872579001 0.4230377166156983 0.1111111111111111 </TABLE>
    </DEFINITION>
    <DEFINITION>
      <FOR>dhf_dx</FOR>
      <TABLE>0.5284810126582279 0.47151898734177217 </TABLE>
    </DEFINITION>
    <DEFINITION>
      <FOR>fever_day</FOR>
      <GIVEN>dhf_dx</GIVEN>
      <TABLE>0.10832879695155144 0.18454001088731628 0.35220468154599893 0.2749047359825803 0.08002177463255307 0.0896888346552776 0.20073215375228798 0.3849908480780964 0.25808419768151314 0.06650396583282489 </TABLE>
    </DEFINITION>
  </NETWORK>
</BIF>
