<?xml version='1.0' encoding='UTF-8'?>
<BIF VERSION="0.3">
  <NETWORK>
    <NAME>UNTITLED</NAME>
    <VARIABLE TYPE="nature">
      <NAME>d03_hct_avg_2</NAME>
      <OUTCOME>_inf_36_944_</OUTCOME>
      <OUTCOME>_36_944_37_75_</OUTCOME>
      <OUTCOME>_37_75_38_25_</OUTCOME>
      <OUTCOME>_38_25_40_25_</OUTCOME>
      <OUTCOME>_40_25_41_25_</OUTCOME>
      <OUTCOME>_41_25_42_25_</OUTCOME>
      <OUTCOME>_42_25_44_75_</OUTCOME>
      <OUTCOME>_44_75_46_25_</OUTCOME>
      <OUTCOME>_46_25_inf_</OUTCOME>
      <PROPERTY/>
    </VARIABLE>
    <VARIABLE TYPE="nature">
      <NAME>d03_hct_avg_d</NAME>
      <OUTCOME>_inf_3_25_</OUTCOME>
      <OUTCOME>_3_25_2_25_</OUTCOME>
      <OUTCOME>_2_25_1_625_</OUTCOME>
      <OUTCOME>_1_625_1_25_</OUTCOME>
      <OUTCOME>_1_25_0_297_</OUTCOME>
      <OUTCOME>_0_297_2_75_</OUTCOME>
      <OUTCOME>_2_75_3_25_</OUTCOME>
      <OUTCOME>_3_25_4_25_</OUTCOME>
      <OUTCOME>_4_25_inf_</OUTCOME>
      <PROPERTY/>
    </VARIABLE>
    <VARIABLE TYPE="nature">
      <NAME>d03_intake_diff_1</NAME>
      <OUTCOME>_inf_325_0_</OUTCOME>
      <OUTCOME>_325_0_385_0_</OUTCOME>
      <OUTCOME>_385_0_472_5_</OUTCOME>
      <OUTCOME>_472_5_552_5_</OUTCOME>
      <OUTCOME>_552_5_605_0_</OUTCOME>
      <OUTCOME>_605_0_807_5_</OUTCOME>
      <OUTCOME>_807_5_1010_0_</OUTCOME>
      <OUTCOME>_1010_0_1175_0_</OUTCOME>
      <OUTCOME>_1175_0_inf_</OUTCOME>
      <PROPERTY/>
    </VARIABLE>
    <VARIABLE TYPE="nature">
      <NAME>d03_intake_diff_2</NAME>
      <OUTCOME>_inf_16_5_</OUTCOME>
      <OUTCOME>_16_5_20_0_</OUTCOME>
      <OUTCOME>_20_0_297_5_</OUTCOME>
      <OUTCOME>_297_5_542_5_</OUTCOME>
      <OUTCOME>_542_5_605_0_</OUTCOME>
      <OUTCOME>_605_0_1525_0_</OUTCOME>
      <OUTCOME>_1525_0_1905_0_</OUTCOME>
      <OUTCOME>_1905_0_2275_0_</OUTCOME>
      <OUTCOME>_2275_0_inf_</OUTCOME>
      <PROPERTY/>
    </VARIABLE>
    <VARIABLE TYPE="nature">
      <NAME>d03_intake_diff_d</NAME>
      <OUTCOME>_inf_615_0_</OUTCOME>
      <OUTCOME>_615_0_667_5_</OUTCOME>
      <OUTCOME>_667_5_745_0_</OUTCOME>
      <OUTCOME>_745_0_910_0_</OUTCOME>
      <OUTCOME>_910_0_1060_0_</OUTCOME>
      <OUTCOME>_1060_0_1205_0_</OUTCOME>
      <OUTCOME>_1205_0_1570_0_</OUTCOME>
      <OUTCOME>_1570_0_1790_0_</OUTCOME>
      <OUTCOME>_1790_0_inf_</OUTCOME>
      <PROPERTY/>
    </VARIABLE>
    <VARIABLE TYPE="nature">
      <NAME>d03_pulse_pre_min_1</NAME>
      <OUTCOME>_inf_40_5_</OUTCOME>
      <OUTCOME>_40_5_46_5_</OUTCOME>
      <OUTCOME>_46_5_inf_</OUTCOME>
      <PROPERTY/>
    </VARIABLE>
    <VARIABLE TYPE="nature">
      <NAME>d03_pulse_pre_min_2</NAME>
      <OUTCOME>_inf_25_5_</OUTCOME>
      <OUTCOME>_25_5_35_5_</OUTCOME>
      <OUTCOME>_35_5_38_5_</OUTCOME>
      <OUTCOME>_38_5_inf_</OUTCOME>
      <PROPERTY/>
    </VARIABLE>
    <VARIABLE TYPE="nature">
      <NAME>d03_pulse_pre_min_d</NAME>
      <OUTCOME>_inf_15_5_</OUTCOME>
      <OUTCOME>_15_5_10_5_</OUTCOME>
      <OUTCOME>_10_5_6_5_</OUTCOME>
      <OUTCOME>_6_5_4_5_</OUTCOME>
      <OUTCOME>_4_5_2_5_</OUTCOME>
      <OUTCOME>_2_5_0_5_</OUTCOME>
      <OUTCOME>_0_5_1_5_</OUTCOME>
      <OUTCOME>_1_5_6_5_</OUTCOME>
      <OUTCOME>_6_5_inf_</OUTCOME>
      <PROPERTY/>
    </VARIABLE>
    <VARIABLE TYPE="nature">
      <NAME>d03_pulse_rate_range_1</NAME>
      <OUTCOME>_inf_5_0_</OUTCOME>
      <OUTCOME>_5_0_7_5_</OUTCOME>
      <OUTCOME>_7_5_13_0_</OUTCOME>
      <OUTCOME>_13_0_14_5_</OUTCOME>
      <OUTCOME>_14_5_17_5_</OUTCOME>
      <OUTCOME>_17_5_19_5_</OUTCOME>
      <OUTCOME>_19_5_24_5_</OUTCOME>
      <OUTCOME>_24_5_35_0_</OUTCOME>
      <OUTCOME>_35_0_inf_</OUTCOME>
      <PROPERTY/>
    </VARIABLE>
    <VARIABLE TYPE="nature">
      <NAME>d03_pulse_rate_range_2</NAME>
      <OUTCOME>_inf_9_0_</OUTCOME>
      <OUTCOME>_9_0_12_5_</OUTCOME>
      <OUTCOME>_12_5_19_5_</OUTCOME>
      <OUTCOME>_19_5_21_5_</OUTCOME>
      <OUTCOME>_21_5_23_0_</OUTCOME>
      <OUTCOME>_23_0_25_0_</OUTCOME>
      <OUTCOME>_25_0_35_5_</OUTCOME>
      <OUTCOME>_35_5_39_0_</OUTCOME>
      <OUTCOME>_39_0_inf_</OUTCOME>
      <PROPERTY/>
    </VARIABLE>
    <VARIABLE TYPE="nature">
      <NAME>d03_temp_min_1</NAME>
      <OUTCOME>_inf_36_593_</OUTCOME>
      <OUTCOME>_36_593_36_85_</OUTCOME>
      <OUTCOME>_36_85_37_15_</OUTCOME>
      <OUTCOME>_37_15_37_45_</OUTCOME>
      <OUTCOME>_37_45_37_75_</OUTCOME>
      <OUTCOME>_37_75_37_85_</OUTCOME>
      <OUTCOME>_37_85_38_35_</OUTCOME>
      <OUTCOME>_38_35_38_55_</OUTCOME>
      <OUTCOME>_38_55_inf_</OUTCOME>
      <PROPERTY/>
    </VARIABLE>
    <VARIABLE TYPE="nature">
      <NAME>d03_temp_min_2</NAME>
      <OUTCOME>_inf_36_65_</OUTCOME>
      <OUTCOME>_36_65_36_75_</OUTCOME>
      <OUTCOME>_36_75_36_95_</OUTCOME>
      <OUTCOME>_36_95_37_15_</OUTCOME>
      <OUTCOME>_37_15_37_45_</OUTCOME>
      <OUTCOME>_37_45_37_55_</OUTCOME>
      <OUTCOME>_37_55_37_75_</OUTCOME>
      <OUTCOME>_37_75_38_15_</OUTCOME>
      <OUTCOME>_38_15_inf_</OUTCOME>
      <PROPERTY/>
    </VARIABLE>
    <VARIABLE TYPE="nature">
      <NAME>d03_temp_min_d</NAME>
      <OUTCOME>_inf_2_35_</OUTCOME>
      <OUTCOME>_2_35_1_95_</OUTCOME>
      <OUTCOME>_1_95_1_75_</OUTCOME>
      <OUTCOME>_1_75_1_45_</OUTCOME>
      <OUTCOME>_1_45_1_35_</OUTCOME>
      <OUTCOME>_1_35_0_85_</OUTCOME>
      <OUTCOME>_0_85_0_35_</OUTCOME>
      <OUTCOME>_0_35_0_95_</OUTCOME>
      <OUTCOME>_0_95_inf_</OUTCOME>
      <PROPERTY/>
    </VARIABLE>
    <VARIABLE TYPE="nature">
      <NAME>d04_ab_circum_1</NAME>
      <OUTCOME>_inf_46_25_</OUTCOME>
      <OUTCOME>_46_25_54_269_</OUTCOME>
      <OUTCOME>_54_269_57_576_</OUTCOME>
      <OUTCOME>_57_576_59_091_</OUTCOME>
      <OUTCOME>_59_091_59_865_</OUTCOME>
      <OUTCOME>_59_865_61_108_</OUTCOME>
      <OUTCOME>_61_108_65_75_</OUTCOME>
      <OUTCOME>_65_75_69_75_</OUTCOME>
      <OUTCOME>_69_75_inf_</OUTCOME>
      <PROPERTY/>
    </VARIABLE>
    <VARIABLE TYPE="nature">
      <NAME>d04_ab_circum_d</NAME>
      <OUTCOME>_inf_0_132_</OUTCOME>
      <OUTCOME>_0_132_0_404_</OUTCOME>
      <OUTCOME>_0_404_0_786_</OUTCOME>
      <OUTCOME>_0_786_1_25_</OUTCOME>
      <OUTCOME>_1_25_2_369_</OUTCOME>
      <OUTCOME>_2_369_inf_</OUTCOME>
      <PROPERTY/>
    </VARIABLE>
    <VARIABLE TYPE="nature">
      <NAME>d04_abdominal_1</NAME>
      <OUTCOME>1</OUTCOME>
      <OUTCOME>2</OUTCOME>
      <PROPERTY/>
    </VARIABLE>
    <VARIABLE TYPE="nature">
      <NAME>d04_abdominal_2</NAME>
      <OUTCOME>1</OUTCOME>
      <OUTCOME>2</OUTCOME>
      <PROPERTY/>
    </VARIABLE>
    <VARIABLE TYPE="nature">
      <NAME>d04_clear_1</NAME>
      <OUTCOME>1</OUTCOME>
      <OUTCOME>2</OUTCOME>
      <PROPERTY/>
    </VARIABLE>
    <VARIABLE TYPE="nature">
      <NAME>d04_diarrhea_1</NAME>
      <OUTCOME>1</OUTCOME>
      <OUTCOME>2</OUTCOME>
      <PROPERTY/>
    </VARIABLE>
    <VARIABLE TYPE="nature">
      <NAME>d04_injected_1</NAME>
      <OUTCOME>1</OUTCOME>
      <OUTCOME>2</OUTCOME>
      <PROPERTY/>
    </VARIABLE>
    <VARIABLE TYPE="nature">
      <NAME>d04_injected_2</NAME>
      <OUTCOME>1</OUTCOME>
      <OUTCOME>2</OUTCOME>
      <PROPERTY/>
    </VARIABLE>
    <VARIABLE TYPE="nature">
      <NAME>d05_ast_alt_1</NAME>
      <OUTCOME>_inf_0_974_</OUTCOME>
      <OUTCOME>_0_974_1_123_</OUTCOME>
      <OUTCOME>_1_123_1_248_</OUTCOME>
      <OUTCOME>_1_248_1_343_</OUTCOME>
      <OUTCOME>_1_343_1_392_</OUTCOME>
      <OUTCOME>_1_392_1_63_</OUTCOME>
      <OUTCOME>_1_63_1_717_</OUTCOME>
      <OUTCOME>_1_717_1_771_</OUTCOME>
      <OUTCOME>_1_771_inf_</OUTCOME>
      <PROPERTY/>
    </VARIABLE>
    <VARIABLE TYPE="nature">
      <NAME>d05_ast_alt_d</NAME>
      <OUTCOME>_inf_3_5_</OUTCOME>
      <OUTCOME>_3_5_12_5_</OUTCOME>
      <OUTCOME>_12_5_28_5_</OUTCOME>
      <OUTCOME>_28_5_40_5_</OUTCOME>
      <OUTCOME>_40_5_47_5_</OUTCOME>
      <OUTCOME>_47_5_63_5_</OUTCOME>
      <OUTCOME>_63_5_94_5_</OUTCOME>
      <OUTCOME>_94_5_279_0_</OUTCOME>
      <OUTCOME>_279_0_inf_</OUTCOME>
      <PROPERTY/>
    </VARIABLE>
    <VARIABLE TYPE="nature">
      <NAME>d05_atyp_2</NAME>
      <OUTCOME>_inf_0_0912_</OUTCOME>
      <OUTCOME>_0_0912_0_974_</OUTCOME>
      <OUTCOME>_0_974_1_374_</OUTCOME>
      <OUTCOME>_1_374_1_705_</OUTCOME>
      <OUTCOME>_1_705_3_364_</OUTCOME>
      <OUTCOME>_3_364_3_735_</OUTCOME>
      <OUTCOME>_3_735_3_954_</OUTCOME>
      <OUTCOME>_3_954_4_473_</OUTCOME>
      <OUTCOME>_4_473_inf_</OUTCOME>
      <PROPERTY/>
    </VARIABLE>
    <VARIABLE TYPE="nature">
      <NAME>d05_band_1</NAME>
      <OUTCOME>_inf_1_321_</OUTCOME>
      <OUTCOME>_1_321_2_008_</OUTCOME>
      <OUTCOME>_2_008_3_443_</OUTCOME>
      <OUTCOME>_3_443_inf_</OUTCOME>
      <PROPERTY/>
    </VARIABLE>
    <VARIABLE TYPE="nature">
      <NAME>d05_eosin_1</NAME>
      <OUTCOME>_inf_0_644_</OUTCOME>
      <OUTCOME>_0_644_0_25_</OUTCOME>
      <OUTCOME>_0_25_0_768_</OUTCOME>
      <OUTCOME>_0_768_1_447_</OUTCOME>
      <OUTCOME>_1_447_1_864_</OUTCOME>
      <OUTCOME>_1_864_inf_</OUTCOME>
      <PROPERTY/>
    </VARIABLE>
    <VARIABLE TYPE="nature">
      <NAME>d05_eosin_2</NAME>
      <OUTCOME>_inf_0_574_</OUTCOME>
      <OUTCOME>_0_574_0_886_</OUTCOME>
      <OUTCOME>_0_886_1_558_</OUTCOME>
      <OUTCOME>_1_558_2_24_</OUTCOME>
      <OUTCOME>_2_24_inf_</OUTCOME>
      <PROPERTY/>
    </VARIABLE>
    <VARIABLE TYPE="nature">
      <NAME>d05_lft_alt_1</NAME>
      <OUTCOME>_inf_18_5_</OUTCOME>
      <OUTCOME>_18_5_21_5_</OUTCOME>
      <OUTCOME>_21_5_32_5_</OUTCOME>
      <OUTCOME>_32_5_34_5_</OUTCOME>
      <OUTCOME>_34_5_37_5_</OUTCOME>
      <OUTCOME>_37_5_45_5_</OUTCOME>
      <OUTCOME>_45_5_47_5_</OUTCOME>
      <OUTCOME>_47_5_245_0_</OUTCOME>
      <OUTCOME>_245_0_inf_</OUTCOME>
      <PROPERTY/>
    </VARIABLE>
    <VARIABLE TYPE="nature">
      <NAME>d05_lft_alt_d</NAME>
      <OUTCOME>_inf_14_5_</OUTCOME>
      <OUTCOME>_14_5_3_5_</OUTCOME>
      <OUTCOME>_3_5_0_5_</OUTCOME>
      <OUTCOME>_0_5_0_5_</OUTCOME>
      <OUTCOME>_0_5_2_5_</OUTCOME>
      <OUTCOME>_2_5_8_5_</OUTCOME>
      <OUTCOME>_8_5_29_5_</OUTCOME>
      <OUTCOME>_29_5_63_5_</OUTCOME>
      <OUTCOME>_63_5_inf_</OUTCOME>
      <PROPERTY/>
    </VARIABLE>
    <VARIABLE TYPE="nature">
      <NAME>d05_lft_ast_1</NAME>
      <OUTCOME>_inf_34_5_</OUTCOME>
      <OUTCOME>_34_5_40_5_</OUTCOME>
      <OUTCOME>_40_5_46_5_</OUTCOME>
      <OUTCOME>_46_5_52_5_</OUTCOME>
      <OUTCOME>_52_5_61_5_</OUTCOME>
      <OUTCOME>_61_5_75_5_</OUTCOME>
      <OUTCOME>_75_5_134_5_</OUTCOME>
      <OUTCOME>_134_5_407_0_</OUTCOME>
      <OUTCOME>_407_0_inf_</OUTCOME>
      <PROPERTY/>
    </VARIABLE>
    <VARIABLE TYPE="nature">
      <NAME>d05_lft_protein_1</NAME>
      <OUTCOME>_inf_5_45_</OUTCOME>
      <OUTCOME>_5_45_5_918_</OUTCOME>
      <OUTCOME>_5_918_6_05_</OUTCOME>
      <OUTCOME>_6_05_6_15_</OUTCOME>
      <OUTCOME>_6_15_6_25_</OUTCOME>
      <OUTCOME>_6_25_6_95_</OUTCOME>
      <OUTCOME>_6_95_7_15_</OUTCOME>
      <OUTCOME>_7_15_7_55_</OUTCOME>
      <OUTCOME>_7_55_inf_</OUTCOME>
      <PROPERTY/>
    </VARIABLE>
    <VARIABLE TYPE="nature">
      <NAME>d05_lft_protein_2</NAME>
      <OUTCOME>_inf_4_95_</OUTCOME>
      <OUTCOME>_4_95_5_35_</OUTCOME>
      <OUTCOME>_5_35_5_55_</OUTCOME>
      <OUTCOME>_5_55_5_865_</OUTCOME>
      <OUTCOME>_5_865_6_15_</OUTCOME>
      <OUTCOME>_6_15_6_25_</OUTCOME>
      <OUTCOME>_6_25_6_45_</OUTCOME>
      <OUTCOME>_6_45_7_15_</OUTCOME>
      <OUTCOME>_7_15_inf_</OUTCOME>
      <PROPERTY/>
    </VARIABLE>
    <VARIABLE TYPE="nature">
      <NAME>d05_lft_protein_d</NAME>
      <OUTCOME>_inf_1_45_</OUTCOME>
      <OUTCOME>_1_45_1_15_</OUTCOME>
      <OUTCOME>_1_15_0_95_</OUTCOME>
      <OUTCOME>_0_95_0_75_</OUTCOME>
      <OUTCOME>_0_75_0_625_</OUTCOME>
      <OUTCOME>_0_625_0_45_</OUTCOME>
      <OUTCOME>_0_45_0_25_</OUTCOME>
      <OUTCOME>_0_25_0_0616_</OUTCOME>
      <OUTCOME>_0_0616_inf_</OUTCOME>
      <PROPERTY/>
    </VARIABLE>
    <VARIABLE TYPE="nature">
      <NAME>d05_lymp_1</NAME>
      <OUTCOME>_inf_3_547_</OUTCOME>
      <OUTCOME>_3_547_3_78_</OUTCOME>
      <OUTCOME>_3_78_3_903_</OUTCOME>
      <OUTCOME>_3_903_4_353_</OUTCOME>
      <OUTCOME>_4_353_4_401_</OUTCOME>
      <OUTCOME>_4_401_4_573_</OUTCOME>
      <OUTCOME>_4_573_4_833_</OUTCOME>
      <OUTCOME>_4_833_5_238_</OUTCOME>
      <OUTCOME>_5_238_inf_</OUTCOME>
      <PROPERTY/>
    </VARIABLE>
    <VARIABLE TYPE="nature">
      <NAME>d05_lymp_2</NAME>
      <OUTCOME>_inf_3_674_</OUTCOME>
      <OUTCOME>_3_674_3_855_</OUTCOME>
      <OUTCOME>_3_855_4_374_</OUTCOME>
      <OUTCOME>_4_374_4_427_</OUTCOME>
      <OUTCOME>_4_427_4_461_</OUTCOME>
      <OUTCOME>_4_461_4_772_</OUTCOME>
      <OUTCOME>_4_772_4_82_</OUTCOME>
      <OUTCOME>_4_82_5_615_</OUTCOME>
      <OUTCOME>_5_615_inf_</OUTCOME>
      <PROPERTY/>
    </VARIABLE>
    <VARIABLE TYPE="nature">
      <NAME>d05_lymp_d</NAME>
      <OUTCOME>_inf_0_388_</OUTCOME>
      <OUTCOME>_0_388_0_294_</OUTCOME>
      <OUTCOME>_0_294_0_196_</OUTCOME>
      <OUTCOME>_0_196_0_139_</OUTCOME>
      <OUTCOME>_0_139_0_0904_</OUTCOME>
      <OUTCOME>_0_0904_0_509_</OUTCOME>
      <OUTCOME>_0_509_0_762_</OUTCOME>
      <OUTCOME>_0_762_0_844_</OUTCOME>
      <OUTCOME>_0_844_inf_</OUTCOME>
      <PROPERTY/>
    </VARIABLE>
    <VARIABLE TYPE="nature">
      <NAME>d05_pmn_1</NAME>
      <OUTCOME>_inf_3_938_</OUTCOME>
      <OUTCOME>_3_938_4_388_</OUTCOME>
      <OUTCOME>_4_388_4_727_</OUTCOME>
      <OUTCOME>_4_727_4_96_</OUTCOME>
      <OUTCOME>_4_96_4_997_</OUTCOME>
      <OUTCOME>_4_997_5_98_</OUTCOME>
      <OUTCOME>_5_98_6_106_</OUTCOME>
      <OUTCOME>_6_106_6_446_</OUTCOME>
      <OUTCOME>_6_446_inf_</OUTCOME>
      <PROPERTY/>
    </VARIABLE>
    <VARIABLE TYPE="nature">
      <NAME>d05_pmn_2</NAME>
      <OUTCOME>_inf_3_418_</OUTCOME>
      <OUTCOME>_3_418_3_862_</OUTCOME>
      <OUTCOME>_3_862_4_162_</OUTCOME>
      <OUTCOME>_4_162_4_298_</OUTCOME>
      <OUTCOME>_4_298_4_862_</OUTCOME>
      <OUTCOME>_4_862_5_35_</OUTCOME>
      <OUTCOME>_5_35_5_567_</OUTCOME>
      <OUTCOME>_5_567_5_862_</OUTCOME>
      <OUTCOME>_5_862_inf_</OUTCOME>
      <PROPERTY/>
    </VARIABLE>
    <VARIABLE TYPE="nature">
      <NAME>d05_pmn_d</NAME>
      <OUTCOME>_inf_1_289_</OUTCOME>
      <OUTCOME>_1_289_1_122_</OUTCOME>
      <OUTCOME>_1_122_0_976_</OUTCOME>
      <OUTCOME>_0_976_0_886_</OUTCOME>
      <OUTCOME>_0_886_0_848_</OUTCOME>
      <OUTCOME>_0_848_0_415_</OUTCOME>
      <OUTCOME>_0_415_0_118_</OUTCOME>
      <OUTCOME>_0_118_0_298_</OUTCOME>
      <OUTCOME>_0_298_inf_</OUTCOME>
      <PROPERTY/>
    </VARIABLE>
    <VARIABLE TYPE="nature">
      <NAME>dhf_dx</NAME>
      <OUTCOME>0</OUTCOME>
      <OUTCOME>1</OUTCOME>
      <PROPERTY/>
    </VARIABLE>
    <VARIABLE TYPE="nature">
      <NAME>fever_day</NAME>
      <OUTCOME>_inf_2_5_</OUTCOME>
      <OUTCOME>_2_5_3_5_</OUTCOME>
      <OUTCOME>_3_5_4_5_</OUTCOME>
      <OUTCOME>_4_5_5_5_</OUTCOME>
      <OUTCOME>_5_5_inf_</OUTCOME>
      <PROPERTY/>
    </VARIABLE>
    <DEFINITION>
      <FOR>d03_hct_avg_2</FOR>
      <GIVEN>dhf_dx</GIVEN>
      <GIVEN>fever_day</GIVEN>
      <TABLE>0.30206588498045783 0.10106085985482968 0.11111111111111109 0.30206588498045783 0.040759352317141256 0.06085985482970407 0.07091010608598547 0.0005583472920156336 0.01060859854829704 0.37572649572649586 0.14188034188034193 0.11111111111111116 0.2157264957264958 0.08649572649572652 0.01880341880341881 0.043418803418803435 0.000341880341880342 0.006495726495726498 0.34701962902935357 0.08770034215739242 0.08770034215739242 0.23680893210877008 0.07473437781379437 0.06176841347019631 0.07797586889969388 0.013146047181703585 0.013146047181703585 0.4020112828059849 0.12386558744174642 0.08413048810399806 0.18126073092960515 0.08854549914152567 0.044395388766249703 0.062055432916360086 0.009075300466028944 0.0046602894285013505 0.49667616334282993 0.03513770180436846 0.137701804368471 0.06932573599240265 0.03513770180436846 0.06932573599240265 0.10351377018043682 0.03513770180436846 0.018043684710351372 0.3136810279667422 0.08238851095993951 0.02796674225245653 0.25925925925925924 0.13681027966742249 0.05517762660619802 0.06878306878306877 0.04157218442932727 0.014361300075585788 0.2252617359000338 0.09760216143194868 0.061127997298210064 0.18878757176629518 0.09152313407632556 0.10976021614319488 0.14015535292131037 0.04289091523134076 0.04289091523134076 0.23235673484429709 0.10300350101345129 0.05325225723235675 0.19255573981942145 0.09637000184263868 0.09305325225723238 0.1394877464529206 0.043302008476137833 0.04661875806154414 0.14895080839353286 0.09322325421396628 0.025111799105607156 0.24183006535947713 0.09941520467836258 0.07464740282077743 0.2665978672170623 0.03130374957000344 0.01891984864121087 0.24809741248097408 0.13850837138508368 0.028919330289193298 0.22070015220700148 0.0015220700152206999 0.16590563165905628 0.08371385083713849 0.05631659056316589 0.05631659056316589 </TABLE>
    </DEFINITION>
    <DEFINITION>
      <FOR>d03_hct_avg_d</FOR>
      <GIVEN>dhf_dx</GIVEN>
      <TABLE>0.037729722709266826 0.07045912072212479 0.07981037729722706 0.06344567829079809 0.4035976362101434 0.29605818559646724 0.022533930774725628 0.01552048834339892 0.01084486005584778 0.06681732580037662 0.045122410546139344 0.042410546139359684 0.042410546139359684 0.3366478342749528 0.32037664783427483 0.05054613935969867 0.043766478342749514 0.0519020715630885 </TABLE>
    </DEFINITION>
    <DEFINITION>
      <FOR>d03_intake_diff_1</FOR>
      <GIVEN>dhf_dx</GIVEN>
      <TABLE>0.5929605818559645 0.022533930774725628 0.0774725631534515 0.06344567829079809 0.02604065199038898 0.11370868238197282 0.05409442171569581 0.012013767127735565 0.037729722709266826 0.5780037664783426 0.041054613935969854 0.042410546139359684 0.05868173258003765 0.05054613935969867 0.07359698681732578 0.05596986817325799 0.036986817325800364 0.06274952919020714 </TABLE>
    </DEFINITION>
    <DEFINITION>
      <FOR>d03_intake_diff_2</FOR>
      <GIVEN>dhf_dx</GIVEN>
      <TABLE>0.1148775894538606 0.2142346905643223 0.10435742580687055 0.1441002662510552 0.02604065199038898 0.33112539775310074 0.03539190856549126 0.01084486005584778 0.019027209559062272 0.06139359698681732 0.23495291902071558 0.07630885122410545 0.07224105461393596 0.03969868173258003 0.32444444444444437 0.06681732580037664 0.06274952919020715 0.06139359698681732 </TABLE>
    </DEFINITION>
    <DEFINITION>
      <FOR>d03_intake_diff_d</FOR>
      <GIVEN>dhf_dx</GIVEN>
      <TABLE>0.09149944801610489 0.6969933112539772 0.01902720955906227 0.06578349243457364 0.03772972270926682 0.020196116630950053 0.04123644392493017 0.005000324696408855 0.02253393077472562 0.03969868173258002 0.6471563088512238 0.035630885122410534 0.04376647834274951 0.047834274952919 0.036986817325800364 0.04105461393596985 0.03834274952919019 0.06952919020715628 </TABLE>
    </DEFINITION>
    <DEFINITION>
      <FOR>d03_pulse_pre_min_1</FOR>
      <GIVEN>dhf_dx</GIVEN>
      <TABLE>0.8788233002142996 0.05357490746152347 0.06760179232417689 0.879774011299435 0.06892655367231637 0.05129943502824858 </TABLE>
    </DEFINITION>
    <DEFINITION>
      <FOR>d03_pulse_pre_min_2</FOR>
      <GIVEN>dhf_dx</GIVEN>
      <TABLE>0.017095265926358856 0.6880479251899474 0.0919053185271771 0.20295149035651666 0.05508474576271186 0.6896610169491525 0.06593220338983051 0.1893220338983051 </TABLE>
    </DEFINITION>
    <DEFINITION>
      <FOR>d03_pulse_pre_min_d</FOR>
      <GIVEN>dhf_dx</GIVEN>
      <TABLE>0.05058770050003247 0.02253393077472563 0.23761283200207806 0.04123644392493019 0.03772972270926683 0.06812130657834925 0.4035976362101435 0.06929021365023703 0.06929021365023703 0.03969868173258004 0.03698681732580038 0.2552919020715631 0.055969868173258004 0.057325800376647834 0.049190207156308854 0.4085122410546139 0.054613935969868174 0.0424105461393597 </TABLE>
    </DEFINITION>
    <DEFINITION>
      <FOR>d03_pulse_rate_range_1</FOR>
      <GIVEN>dhf_dx</GIVEN>
      <TABLE>0.18968764205467886 0.03656081563737905 0.2352750178583025 0.06110786414702254 0.04941879342814469 0.04357425806870576 0.17799857133580102 0.14410026625105526 0.06227677121891032 0.18613935969868173 0.06817325800376647 0.215969868173258 0.04376647834274953 0.08715630885122409 0.046478342749529195 0.17122410546139358 0.11020715630885121 0.07088512241054613 </TABLE>
    </DEFINITION>
    <DEFINITION>
      <FOR>d03_pulse_rate_range_2</FOR>
      <GIVEN>dhf_dx</GIVEN>
      <TABLE>0.05877005000324696 0.09968179751931942 0.24813299564906813 0.11370868238197285 0.0716280277940126 0.07981037729722709 0.2574842522241704 0.030716280277940128 0.04006753685304241 0.04105461393596987 0.09935969868173257 0.22410546139359697 0.09122410546139359 0.08851224105461393 0.06410546139359699 0.25122410546139357 0.07088512241054613 0.06952919020715631 </TABLE>
    </DEFINITION>
    <DEFINITION>
      <FOR>d03_temp_min_1</FOR>
      <GIVEN>dhf_dx</GIVEN>
      <TABLE>0.0774725631534515 0.0996817975193194 0.16397168647314755 0.10318851873498276 0.15929605818559642 0.027209559062276765 0.1768296642639132 0.03889862978115461 0.15345152282615748 0.07088512241054613 0.06410546139359699 0.09529190207156309 0.11291902071563088 0.14817325800376646 0.04105461393596987 0.1847834274952919 0.08444444444444445 0.1983427495291902 </TABLE>
    </DEFINITION>
    <DEFINITION>
      <FOR>d03_temp_min_2</FOR>
      <GIVEN>dhf_dx</GIVEN>
      <TABLE>0.4258068705760113 0.08214819144100263 0.12656666017273846 0.11838431066952396 0.09383726215988047 0.030716280277940117 0.03539190856549126 0.04708097928436911 0.040067536853042394 0.32986817325800366 0.042410546139359684 0.10885122410546136 0.1156308851224105 0.11020715630885118 0.047834274952919004 0.05732580037664782 0.11156308851224102 0.07630885122410544 </TABLE>
    </DEFINITION>
    <DEFINITION>
      <FOR>d03_temp_min_d</FOR>
      <GIVEN>dhf_dx</GIVEN>
      <TABLE>0.07045912072212482 0.038898629781154624 0.038898629781154624 0.08799272680044158 0.020196116630950063 0.20722124813299564 0.2037145269173323 0.3182674199623352 0.014351581271511139 0.06410546139359699 0.054613935969868174 0.049190207156308854 0.06546139359698681 0.03969868173258004 0.1752919020715631 0.18613935969868173 0.3285122410546139 0.03698681732580038 </TABLE>
    </DEFINITION>
    <DEFINITION>
      <FOR>d04_ab_circum_1</FOR>
      <GIVEN>dhf_dx</GIVEN>
      <TABLE>0.08916163387232934 0.3965841937788167 0.10669523995064611 0.09734398337554383 0.0014936034807455025 0.04240535099681796 0.0622767712189103 0.05175660757192024 0.1522826157542697 0.050546139359698684 0.3108851224105461 0.12105461393596986 0.060037664783427494 0.06681732580037665 0.060037664783427494 0.12241054613935969 0.06410546139359699 0.14410546139359698 </TABLE>
    </DEFINITION>
    <DEFINITION>
      <FOR>d04_ab_circum_d</FOR>
      <GIVEN>dhf_dx</GIVEN>
      <TABLE>0.14075589323982082 0.6235145139294761 0.02386518605104228 0.10802649522696282 0.05191895577634913 0.05191895577634913 0.07649717514124295 0.6500564971751414 0.08598870056497177 0.06971751412429379 0.050734463276836166 0.06700564971751413 </TABLE>
    </DEFINITION>
    <DEFINITION>
      <FOR>d04_abdominal_1</FOR>
      <GIVEN>dhf_dx</GIVEN>
      <GIVEN>fever_day</GIVEN>
      <TABLE>0.9673366834170855 0.032663316582914576 0.9246153846153846 0.07538461538461538 0.8695299837925445 0.13047001620745544 0.8311258278145696 0.16887417218543047 0.8418803418803419 0.1581196581196581 0.9965986394557823 0.003401360544217687 0.8951367781155015 0.10486322188449848 0.8366500829187397 0.16334991708126037 0.7198142414860681 0.2801857585139319 0.7191780821917808 0.2808219178082192 </TABLE>
    </DEFINITION>
    <DEFINITION>
      <FOR>d04_abdominal_2</FOR>
      <GIVEN>dhf_dx</GIVEN>
      <GIVEN>fever_day</GIVEN>
      <TABLE>0.8768844221105527 0.12311557788944724 0.7830769230769231 0.2169230769230769 0.7820097244732577 0.2179902755267423 0.760485651214128 0.23951434878587197 0.7222222222222222 0.2777777777777778 0.8333333333333334 0.16666666666666666 0.6884498480243161 0.31155015197568386 0.6044776119402985 0.39552238805970147 0.4040247678018576 0.5959752321981424 0.5 0.5 </TABLE>
    </DEFINITION>
    <DEFINITION>
      <FOR>d04_clear_1</FOR>
      <GIVEN>dhf_dx</GIVEN>
      <TABLE>0.9436002337814143 0.056399766218585626 0.9888135593220339 0.011186440677966102 </TABLE>
    </DEFINITION>
    <DEFINITION>
      <FOR>d04_diarrhea_1</FOR>
      <GIVEN>dhf_dx</GIVEN>
      <TABLE>0.9342489772063121 0.0657510227936879 0.8884745762711864 0.11152542372881356 </TABLE>
    </DEFINITION>
    <DEFINITION>
      <FOR>d04_injected_1</FOR>
      <GIVEN>fever_day</GIVEN>
      <TABLE>0.9450867052023122 0.05491329479768786 0.9036697247706422 0.0963302752293578 0.8926229508196721 0.10737704918032787 0.8621134020618557 0.13788659793814434 0.8473684210526315 0.15263157894736842 </TABLE>
    </DEFINITION>
    <DEFINITION>
      <FOR>d04_injected_2</FOR>
      <GIVEN>dhf_dx</GIVEN>
      <TABLE>0.8886616014026885 0.11133839859731151 0.8179661016949152 0.18203389830508473 </TABLE>
    </DEFINITION>
    <DEFINITION>
      <FOR>d05_ast_alt_1</FOR>
      <GIVEN>dhf_dx</GIVEN>
      <TABLE>0.09734398337554385 0.05877005000324696 0.09149944801610493 0.07045912072212482 0.013182674199623353 0.1265666601727385 0.05058770050003247 0.01785830248717449 0.4737320605234106 0.03563088512241055 0.051902071563088514 0.061393596986817324 0.03698681732580038 0.03698681732580038 0.12241054613935969 0.03563088512241055 0.0424105461393597 0.5766478342749529 </TABLE>
    </DEFINITION>
    <DEFINITION>
      <FOR>d05_ast_alt_d</FOR>
      <GIVEN>fever_day</GIVEN>
      <TABLE>0.18561335902376364 0.15671162491971738 0.34746307000642257 0.11624919717405265 0.041104688503532424 0.05844572896596017 0.02954399486191393 0.05266538214515092 0.01220295439948619 0.14712878015630312 0.12266394835202178 0.2572205232755692 0.15936119605844382 0.06455997281685356 0.09819911654774043 0.06455997281685356 0.07373428474345907 0.012572205232755693 0.0690346083788707 0.07887067395264119 0.20510018214936251 0.12805100182149365 0.07559198542805103 0.12805100182149365 0.12149362477231332 0.1591985428051002 0.03460837887067396 0.0982245131729668 0.0827605956471936 0.1497709049255441 0.10853379152348225 0.04667812142038946 0.14719358533791524 0.12142038946162659 0.17812142038946163 0.06729667812142039 0.1485380116959064 0.11695906432748536 0.23274853801169587 0.095906432748538 0.05380116959064326 0.04327485380116958 0.06432748538011694 0.1590643274853801 0.0853801169590643 </TABLE>
    </DEFINITION>
    <DEFINITION>
      <FOR>d05_atyp_2</FOR>
      <GIVEN>dhf_dx</GIVEN>
      <TABLE>0.42113124228846016 0.020196116630950056 0.03305409442171569 0.04824988635625689 0.3124228846028962 0.07162802779401257 0.022533930774725628 0.05292551464380803 0.017858302487174488 0.3217325800376647 0.05054613935969867 0.035630885122410534 0.039698681732580024 0.3813935969868172 0.05868173258003765 0.041054613935969854 0.035630885122410534 0.035630885122410534 </TABLE>
    </DEFINITION>
    <DEFINITION>
      <FOR>d05_band_1</FOR>
      <GIVEN>dhf_dx</GIVEN>
      <TABLE>0.8926066627703098 0.02060198714202221 0.07203389830508475 0.014757451782583284 0.8455932203389831 0.05508474576271186 0.06186440677966102 0.03745762711864407 </TABLE>
    </DEFINITION>
    <DEFINITION>
      <FOR>d05_eosin_1</FOR>
      <GIVEN>dhf_dx</GIVEN>
      <TABLE>0.01918955776349114 0.8000194817845316 0.01918955776349114 0.06243911942333919 0.027371907266705638 0.07179037599844147 0.038531073446327696 0.7775141242937855 0.04259887005649719 0.05887005649717516 0.035819209039548036 0.046666666666666676 </TABLE>
    </DEFINITION>
    <DEFINITION>
      <FOR>d05_eosin_2</FOR>
      <GIVEN>dhf_dx</GIVEN>
      <TABLE>0.7147866744593805 0.03565166569257744 0.09877264757451783 0.07071887784921099 0.08007013442431327 0.8074576271186441 0.03728813559322034 0.0576271186440678 0.06169491525423729 0.03593220338983051 </TABLE>
    </DEFINITION>
    <DEFINITION>
      <FOR>d05_lft_alt_1</FOR>
      <GIVEN>dhf_dx</GIVEN>
      <TABLE>0.15111370868238197 0.038898629781154624 0.23644392493019026 0.04591207221248133 0.08448600558477823 0.1405935450353919 0.021365023702837847 0.2726800441587116 0.008507045912072212 0.051902071563088514 0.03698681732580038 0.12376647834274952 0.04512241054613936 0.053258003766478344 0.13868173258003766 0.051902071563088514 0.45461393596986815 0.04376647834274953 </TABLE>
    </DEFINITION>
    <DEFINITION>
      <FOR>d05_lft_alt_d</FOR>
      <GIVEN>dhf_dx</GIVEN>
      <TABLE>0.016689395415286704 0.06578349243457365 0.11721540359763617 0.5123059938957074 0.07864147022533928 0.1008507045912072 0.06812130657834922 0.020196116630950056 0.020196116630950056 0.047834274952919004 0.05325800376647833 0.036986817325800364 0.5780037664783426 0.043766478342749514 0.07630885122410544 0.08580037664783426 0.042410546139359684 0.035630885122410534 </TABLE>
    </DEFINITION>
    <DEFINITION>
      <FOR>d05_lft_ast_1</FOR>
      <GIVEN>dhf_dx</GIVEN>
      <GIVEN>fever_day</GIVEN>
      <TABLE>0.39251814628699044 0.09101060859854829 0.17141261864879956 0.06085985482970407 0.06085985482970407 0.10106085985482968 0.09101060859854829 0.030709101060859847 0.0005583472920156336 0.2095726495726496 0.12341880341880343 0.14803418803418805 0.10495726495726497 0.10495726495726497 0.11726495726495728 0.12341880341880343 0.06188034188034188 0.006495726495726496 0.12335674410228709 0.06176841347019631 0.11687376193048805 0.10066630650099048 0.10066630650099048 0.1687376193048803 0.23356744102287058 0.08121735998559339 0.013146047181703585 0.05322541084130488 0.048810399803777285 0.10620554329163602 0.062055432916360065 0.11062055432916361 0.1856757419671327 0.2651459406426294 0.15918567574196715 0.009075300466028943 0.1547958214624881 0.08641975308641973 0.06932573599240265 0.06932573599240265 0.10351377018043684 0.08641975308641973 0.1718898385565052 0.25735992402659064 0.0009496676163342828 0.12320483749055178 0.10959939531368103 0.08238851095993953 0.08238851095993953 0.164021164021164 0.10959939531368103 0.164021164021164 0.10959939531368103 0.05517762660619803 0.03681188787571766 0.09760216143194868 0.09152313407632556 0.061127997298210064 0.09760216143194868 0.15231340763255657 0.3164471462343803 0.12191827085444108 0.02465383316447146 0.036668509305325225 0.02340151096370002 0.033351759719918925 0.06983600515938825 0.12622074811129538 0.10300350101345127 0.29537497696701676 0.2622074811129538 0.049935507646950435 0.012727898176814583 0.012727898176814583 0.0003439972480220158 0.037495700034399726 0.043687650498796006 0.09322325421396628 0.28517371861025115 0.40901272789817683 0.10560715514275887 0.028919330289193305 0.0015220700152207 0.0015220700152207 0.028919330289193305 0.028919330289193305 0.0015220700152207 0.3576864535768645 0.3850837138508371 0.1659056316590563 </TABLE>
    </DEFINITION>
    <DEFINITION>
      <FOR>d05_lft_protein_1</FOR>
      <GIVEN>dhf_dx</GIVEN>
      <TABLE>0.009675952983959998 0.05058770050003247 0.02253393077472563 0.02253393077472563 0.04006753685304241 0.45502954737320606 0.11955321774141177 0.16514059354503538 0.11487758945386063 0.06410546139359699 0.07766478342749529 0.04512241054613936 0.049190207156308854 0.049190207156308854 0.3976647834274953 0.12783427495291902 0.12241054613935969 0.06681732580037665 </TABLE>
    </DEFINITION>
    <DEFINITION>
      <FOR>d05_lft_protein_2</FOR>
      <GIVEN>dhf_dx</GIVEN>
      <TABLE>0.002662510552633288 0.008507045912072212 0.013182674199623353 0.05058770050003247 0.10552633287875836 0.047080979284369114 0.1557893369699331 0.45502954737320606 0.16163387232937204 0.04376647834274953 0.061393596986817324 0.03969868173258004 0.08173258003766479 0.13461393596986818 0.07766478342749529 0.09935969868173257 0.37054613935969866 0.09122410546139359 </TABLE>
    </DEFINITION>
    <DEFINITION>
      <FOR>d05_lft_protein_d</FOR>
      <GIVEN>dhf_dx</GIVEN>
      <GIVEN>fever_day</GIVEN>
      <TABLE>0.0005583472920156337 0.010608598548297042 0.030709101060859854 0.020658849804578445 0.0005583472920156337 0.030709101060859854 0.060859854829704074 0.010608598548297042 0.8347292015633724 0.012649572649572649 0.0003418803418803419 0.018803418803418803 0.043418803418803414 0.024957264957264955 0.043418803418803414 0.12957264957264958 0.07418803418803419 0.6526495726495727 0.00990455609580407 0.006663065009904556 0.03583648478300018 0.04556095804069872 0.022870520439402124 0.09418332432919144 0.07473437781379436 0.0877003421573924 0.6225463713308121 0.009075300466028943 0.022320333578611722 0.048810399803777285 0.10179053225410842 0.022320333578611722 0.09296051017905323 0.1150355653666912 0.08413048810399805 0.5035565366691195 0.0009496676163342829 0.03513770180436847 0.052231718898385564 0.018043684710351376 0.018043684710351376 0.052231718898385564 0.2060778727445394 0.08641975308641975 0.5308641975308642 0.0007558578987150415 0.0007558578987150415 0.0007558578987150415 0.0007558578987150415 0.01436130007558579 0.06878306878306878 0.01436130007558579 0.01436130007558579 0.8851095993953138 0.03681188787571766 0.04289091523134076 0.01249577845322526 0.01857480580884836 0.01857480580884836 0.04896994258696386 0.02465383316447146 0.05504896994258696 0.7419790611279973 0.013451262207481112 0.05656900681776304 0.05656900681776304 0.039985258890731526 0.04330200847613783 0.04330200847613783 0.049935507646950435 0.039985258890731526 0.6569006817763037 0.09941520467836258 0.08083935328517372 0.03130374957000344 0.05607155142758858 0.04987960096319229 0.08703130374957001 0.037495700034399726 0.043687650498796006 0.5142758857929136 0.1659056316590563 0.028919330289193305 0.0563165905631659 0.0563165905631659 0.0563165905631659 0.0563165905631659 0.0015220700152207 0.028919330289193305 0.5494672754946728 </TABLE>
    </DEFINITION>
    <DEFINITION>
      <FOR>d05_lymp_1</FOR>
      <GIVEN>dhf_dx</GIVEN>
      <TABLE>0.01902720955906228 0.038898629781154624 0.021365023702837847 0.23761283200207806 0.027209559062276772 0.14526917332294303 0.20488343398922007 0.19436327034223 0.11137086823819728 0.046478342749529195 0.053258003766478344 0.047834274952919024 0.28376647834274954 0.04376647834274953 0.15630885122410546 0.14817325800376646 0.17122410546139358 0.049190207156308854 </TABLE>
    </DEFINITION>
    <DEFINITION>
      <FOR>d05_lymp_2</FOR>
      <GIVEN>dhf_dx</GIVEN>
      <TABLE>0.015520488343398923 0.009675952983959998 0.1253977531008507 0.028378466134164556 0.01785830248717449 0.23176829664263912 0.01902720955906228 0.48074550295473734 0.0716280277940126 0.03563088512241055 0.03834274952919021 0.2430885122410546 0.03563088512241055 0.04376647834274953 0.20512241054613936 0.04512241054613936 0.2946139359698682 0.058681732580037664 </TABLE>
    </DEFINITION>
    <DEFINITION>
      <FOR>d05_lymp_d</FOR>
      <GIVEN>dhf_dx</GIVEN>
      <TABLE>0.08448600558477823 0.016689395415286707 0.04123644392493019 0.015520488343398923 0.016689395415286707 0.5064614585362686 0.16630950061692318 0.021365023702837847 0.13124228846028962 0.11020715630885121 0.03698681732580038 0.03563088512241055 0.04105461393596987 0.03563088512241055 0.455969868173258 0.10613935969868173 0.03969868173258004 0.13868173258003766 </TABLE>
    </DEFINITION>
    <DEFINITION>
      <FOR>d05_pmn_1</FOR>
      <GIVEN>dhf_dx</GIVEN>
      <TABLE>0.021365023702837844 0.09033054094421714 0.10786414702253391 0.13474900967595296 0.014351581271511137 0.4842522241704006 0.028378466134164552 0.06461458536268588 0.05409442171569582 0.04376647834274952 0.0383427495291902 0.11969868173258001 0.09935969868173256 0.0383427495291902 0.5332580037664783 0.04783427495291902 0.0383427495291902 0.04105461393596986 </TABLE>
    </DEFINITION>
    <DEFINITION>
      <FOR>d05_pmn_2</FOR>
      <GIVEN>dhf_dx</GIVEN>
      <GIVEN>fever_day</GIVEN>
      <TABLE>0.0005583472920156336 0.0005583472920156336 0.0005583472920156336 0.030709101060859847 0.1312116136236739 0.22166387493020656 0.19151312116136235 0.19151312116136235 0.23171412618648798 0.01880341880341881 0.024957264957264965 0.07418803418803421 0.0618803418803419 0.35111111111111126 0.26495726495726507 0.104957264957265 0.043418803418803435 0.055726495726495746 0.029353502611201156 0.10390779758688999 0.12659823518818658 0.10714928867278951 0.3275706825139565 0.19791103907797591 0.04556095804069873 0.026112011525301643 0.03583648478300019 0.06647044395388768 0.07971547706647047 0.1415256315918568 0.07088545499141528 0.34020112828059856 0.16801569781702236 0.0488103998037773 0.017905322541084134 0.06647044395388768 0.06932573599240265 0.05223171889838556 0.12060778727445393 0.10351377018043684 0.25735992402659064 0.1547958214624881 0.12060778727445393 0.06932573599240265 0.05223171889838556 0.0007558578987150415 0.0007558578987150415 0.04157218442932729 0.0007558578987150415 0.10959939531368103 0.327286470143613 0.164021164021164 0.12320483749055178 0.23204837490551777 0.012495778453225265 0.006416751097602163 0.10976021614319491 0.055048969942586984 0.3590003377237421 0.3346842283012497 0.055048969942586984 0.042890915231340775 0.02465383316447147 0.04661875806154414 0.04993550764695044 0.1129537497696702 0.04993550764695044 0.37829371660217437 0.2688409802837664 0.05325225723235675 0.03666850930532523 0.003501013451262208 0.062263501891984874 0.05607155142758859 0.11799105607155146 0.04368765049879601 0.3780529755761955 0.2232542139662883 0.0498796009631923 0.0498796009631923 0.018919848641210872 0.028919330289193298 0.13850837138508368 0.13850837138508368 0.028919330289193298 0.24809741248097408 0.22070015220700148 0.08371385083713849 0.08371385083713849 0.028919330289193298 </TABLE>
    </DEFINITION>
    <DEFINITION>
      <FOR>d05_pmn_d</FOR>
      <GIVEN>dhf_dx</GIVEN>
      <GIVEN>fever_day</GIVEN>
      <TABLE>0.06085985482970407 0.020658849804578442 0.040759352317141256 0.08096035734226688 0.020658849804578442 0.4829704075935231 0.281965382467895 0.0005583472920156336 0.01060859854829704 0.09880341880341881 0.06188034188034188 0.06803418803418804 0.09880341880341881 0.018803418803418803 0.3141880341880342 0.29572649572649573 0.006495726495726496 0.037264957264957266 0.07149288672789483 0.07473437781379436 0.06176841347019629 0.06825139564199532 0.019629029353502612 0.2465334053664686 0.35998559337295155 0.039077975868899696 0.058526922384296784 0.08854549914152564 0.04439538876624969 0.022320333578611722 0.035565366691194505 0.01790532254108413 0.269560951680157 0.37993622761834683 0.04439538876624969 0.09737552121658083 0.03513770180436847 0.018043684710351376 0.03513770180436847 0.052231718898385564 0.018043684710351376 0.15479582146248813 0.4453941120607788 0.08641975308641975 0.15479582146248813 0.1368102796674225 0.08238851095993953 0.10959939531368103 0.05517762660619803 0.027966742252456534 0.381708238851096 0.20483749055177627 0.0007558578987150415 0.0007558578987150415 0.10976021614319488 0.04289091523134076 0.07936507936507936 0.05504896994258696 0.08544410672070246 0.2921310368118879 0.2678149273893955 0.02465383316447146 0.04289091523134076 0.06983600515938825 0.02671826054910632 0.049935507646950435 0.020084761378293715 0.016768011792887415 0.38492721577298694 0.3451262207481113 0.04661875806154413 0.039985258890731526 0.04987960096319229 0.025111799105607156 0.04987960096319229 0.037495700034399726 0.037495700034399726 0.24183006535947713 0.39662882696938423 0.11799105607155144 0.043687650498796006 0.1385083713850837 0.028919330289193305 0.0015220700152207 0.0837138508371385 0.0015220700152207 0.0563165905631659 0.3576864535768645 0.1385083713850837 0.1933028919330289 </TABLE>
    </DEFINITION>
    <DEFINITION>
      <FOR>dhf_dx</FOR>
      <TABLE>0.5370370370370371 0.46296296296296297 </TABLE>
    </DEFINITION>
    <DEFINITION>
      <FOR>fever_day</FOR>
      <TABLE>0.10860012554927809 0.20527306967984935 0.38292529817953547 0.24356559949780288 0.05963590709353421 </TABLE>
    </DEFINITION>
  </NETWORK>
</BIF>
