<?xml version='1.0' encoding='UTF-8'?>
<BIF VERSION="0.3">
  <NETWORK>
    <NAME>UNTITLED</NAME>
    <VARIABLE TYPE="nature">
      <NAME>d03_hct_avg_2</NAME>
      <OUTCOME>_inf_35_25_</OUTCOME>
      <OUTCOME>_35_25_37_25_</OUTCOME>
      <OUTCOME>_37_25_38_25_</OUTCOME>
      <OUTCOME>_38_25_39_979_</OUTCOME>
      <OUTCOME>_39_979_40_25_</OUTCOME>
      <OUTCOME>_40_25_40_75_</OUTCOME>
      <OUTCOME>_40_75_43_25_</OUTCOME>
      <OUTCOME>_43_25_44_75_</OUTCOME>
      <OUTCOME>_44_75_inf_</OUTCOME>
      <PROPERTY/>
    </VARIABLE>
    <VARIABLE TYPE="nature">
      <NAME>d03_hct_avg_3</NAME>
      <OUTCOME>_inf_35_25_</OUTCOME>
      <OUTCOME>_35_25_37_073_</OUTCOME>
      <OUTCOME>_37_073_38_25_</OUTCOME>
      <OUTCOME>_38_25_40_75_</OUTCOME>
      <OUTCOME>_40_75_41_75_</OUTCOME>
      <OUTCOME>_41_75_43_25_</OUTCOME>
      <OUTCOME>_43_25_44_75_</OUTCOME>
      <OUTCOME>_44_75_47_25_</OUTCOME>
      <OUTCOME>_47_25_inf_</OUTCOME>
      <PROPERTY/>
    </VARIABLE>
    <VARIABLE TYPE="nature">
      <NAME>d03_hct_avg_d</NAME>
      <OUTCOME>_inf_1_5_</OUTCOME>
      <OUTCOME>_1_5_0_146_</OUTCOME>
      <OUTCOME>_0_146_0_718_</OUTCOME>
      <OUTCOME>_0_718_1_292_</OUTCOME>
      <OUTCOME>_1_292_2_5_</OUTCOME>
      <OUTCOME>_2_5_3_167_</OUTCOME>
      <OUTCOME>_3_167_5_65_</OUTCOME>
      <OUTCOME>_5_65_7_5_</OUTCOME>
      <OUTCOME>_7_5_inf_</OUTCOME>
      <PROPERTY/>
    </VARIABLE>
    <VARIABLE TYPE="nature">
      <NAME>d03_intake_diff_1</NAME>
      <OUTCOME>_inf_25_0_</OUTCOME>
      <OUTCOME>_25_0_45_0_</OUTCOME>
      <OUTCOME>_45_0_165_0_</OUTCOME>
      <OUTCOME>_165_0_295_0_</OUTCOME>
      <OUTCOME>_295_0_385_0_</OUTCOME>
      <OUTCOME>_385_0_532_5_</OUTCOME>
      <OUTCOME>_532_5_605_0_</OUTCOME>
      <OUTCOME>_605_0_1035_0_</OUTCOME>
      <OUTCOME>_1035_0_inf_</OUTCOME>
      <PROPERTY/>
    </VARIABLE>
    <VARIABLE TYPE="nature">
      <NAME>d03_intake_diff_2</NAME>
      <OUTCOME>_inf_2_5_</OUTCOME>
      <OUTCOME>_2_5_20_0_</OUTCOME>
      <OUTCOME>_20_0_267_5_</OUTCOME>
      <OUTCOME>_267_5_532_5_</OUTCOME>
      <OUTCOME>_532_5_605_0_</OUTCOME>
      <OUTCOME>_605_0_805_0_</OUTCOME>
      <OUTCOME>_805_0_1045_0_</OUTCOME>
      <OUTCOME>_1045_0_1845_0_</OUTCOME>
      <OUTCOME>_1845_0_inf_</OUTCOME>
      <PROPERTY/>
    </VARIABLE>
    <VARIABLE TYPE="nature">
      <NAME>d03_intake_diff_3</NAME>
      <OUTCOME>_inf_35_0_</OUTCOME>
      <OUTCOME>_35_0_30_0_</OUTCOME>
      <OUTCOME>_30_0_242_5_</OUTCOME>
      <OUTCOME>_242_5_505_0_</OUTCOME>
      <OUTCOME>_505_0_1035_0_</OUTCOME>
      <OUTCOME>_1035_0_1327_5_</OUTCOME>
      <OUTCOME>_1327_5_1525_0_</OUTCOME>
      <OUTCOME>_1525_0_2020_0_</OUTCOME>
      <OUTCOME>_2020_0_inf_</OUTCOME>
      <PROPERTY/>
    </VARIABLE>
    <VARIABLE TYPE="nature">
      <NAME>d03_pulse_pre_min_1</NAME>
      <OUTCOME>_inf_30_5_</OUTCOME>
      <OUTCOME>_30_5_34_5_</OUTCOME>
      <OUTCOME>_34_5_37_5_</OUTCOME>
      <OUTCOME>_37_5_40_5_</OUTCOME>
      <OUTCOME>_40_5_46_5_</OUTCOME>
      <OUTCOME>_46_5_inf_</OUTCOME>
      <PROPERTY/>
    </VARIABLE>
    <VARIABLE TYPE="nature">
      <NAME>d03_pulse_pre_min_3</NAME>
      <OUTCOME>_inf_26_5_</OUTCOME>
      <OUTCOME>_26_5_29_5_</OUTCOME>
      <OUTCOME>_29_5_30_5_</OUTCOME>
      <OUTCOME>_30_5_32_5_</OUTCOME>
      <OUTCOME>_32_5_34_5_</OUTCOME>
      <OUTCOME>_34_5_38_5_</OUTCOME>
      <OUTCOME>_38_5_inf_</OUTCOME>
      <PROPERTY/>
    </VARIABLE>
    <VARIABLE TYPE="nature">
      <NAME>d03_pulse_rate_range_1</NAME>
      <OUTCOME>_inf_0_5_</OUTCOME>
      <OUTCOME>_0_5_5_0_</OUTCOME>
      <OUTCOME>_5_0_11_0_</OUTCOME>
      <OUTCOME>_11_0_14_5_</OUTCOME>
      <OUTCOME>_14_5_19_5_</OUTCOME>
      <OUTCOME>_19_5_21_0_</OUTCOME>
      <OUTCOME>_21_0_24_5_</OUTCOME>
      <OUTCOME>_24_5_35_0_</OUTCOME>
      <OUTCOME>_35_0_inf_</OUTCOME>
      <PROPERTY/>
    </VARIABLE>
    <VARIABLE TYPE="nature">
      <NAME>d03_pulse_rate_range_2</NAME>
      <OUTCOME>_inf_11_0_</OUTCOME>
      <OUTCOME>_11_0_17_0_</OUTCOME>
      <OUTCOME>_17_0_19_5_</OUTCOME>
      <OUTCOME>_19_5_21_5_</OUTCOME>
      <OUTCOME>_21_5_26_5_</OUTCOME>
      <OUTCOME>_26_5_29_0_</OUTCOME>
      <OUTCOME>_29_0_35_5_</OUTCOME>
      <OUTCOME>_35_5_39_0_</OUTCOME>
      <OUTCOME>_39_0_inf_</OUTCOME>
      <PROPERTY/>
    </VARIABLE>
    <VARIABLE TYPE="nature">
      <NAME>d03_temp_min_1</NAME>
      <OUTCOME>_inf_36_65_</OUTCOME>
      <OUTCOME>_36_65_37_15_</OUTCOME>
      <OUTCOME>_37_15_37_35_</OUTCOME>
      <OUTCOME>_37_35_37_65_</OUTCOME>
      <OUTCOME>_37_65_37_85_</OUTCOME>
      <OUTCOME>_37_85_38_35_</OUTCOME>
      <OUTCOME>_38_35_38_55_</OUTCOME>
      <OUTCOME>_38_55_39_05_</OUTCOME>
      <OUTCOME>_39_05_inf_</OUTCOME>
      <PROPERTY/>
    </VARIABLE>
    <VARIABLE TYPE="nature">
      <NAME>d03_temp_min_3</NAME>
      <OUTCOME>_inf_36_05_</OUTCOME>
      <OUTCOME>_36_05_36_35_</OUTCOME>
      <OUTCOME>_36_35_36_75_</OUTCOME>
      <OUTCOME>_36_75_36_95_</OUTCOME>
      <OUTCOME>_36_95_37_15_</OUTCOME>
      <OUTCOME>_37_15_37_55_</OUTCOME>
      <OUTCOME>_37_55_38_15_</OUTCOME>
      <OUTCOME>_38_15_inf_</OUTCOME>
      <PROPERTY/>
    </VARIABLE>
    <VARIABLE TYPE="nature">
      <NAME>d03_temp_min_d</NAME>
      <OUTCOME>_inf_40_4_</OUTCOME>
      <OUTCOME>_40_4_38_85_</OUTCOME>
      <OUTCOME>_38_85_38_6_</OUTCOME>
      <OUTCOME>_38_6_38_35_</OUTCOME>
      <OUTCOME>_38_35_38_1_</OUTCOME>
      <OUTCOME>_38_1_37_7_</OUTCOME>
      <OUTCOME>_37_7_37_2_</OUTCOME>
      <OUTCOME>_37_2_36_6_</OUTCOME>
      <OUTCOME>_36_6_inf_</OUTCOME>
      <PROPERTY/>
    </VARIABLE>
    <VARIABLE TYPE="nature">
      <NAME>d04_ab_circum_1</NAME>
      <OUTCOME>_inf_46_25_</OUTCOME>
      <OUTCOME>_46_25_54_269_</OUTCOME>
      <OUTCOME>_54_269_56_613_</OUTCOME>
      <OUTCOME>_56_613_59_091_</OUTCOME>
      <OUTCOME>_59_091_59_865_</OUTCOME>
      <OUTCOME>_59_865_62_25_</OUTCOME>
      <OUTCOME>_62_25_71_1_</OUTCOME>
      <OUTCOME>_71_1_80_5_</OUTCOME>
      <OUTCOME>_80_5_inf_</OUTCOME>
      <PROPERTY/>
    </VARIABLE>
    <VARIABLE TYPE="nature">
      <NAME>d04_ab_circum_2</NAME>
      <OUTCOME>_inf_49_75_</OUTCOME>
      <OUTCOME>_49_75_53_25_</OUTCOME>
      <OUTCOME>_53_25_56_75_</OUTCOME>
      <OUTCOME>_56_75_59_091_</OUTCOME>
      <OUTCOME>_59_091_59_865_</OUTCOME>
      <OUTCOME>_59_865_62_75_</OUTCOME>
      <OUTCOME>_62_75_71_1_</OUTCOME>
      <OUTCOME>_71_1_81_5_</OUTCOME>
      <OUTCOME>_81_5_inf_</OUTCOME>
      <PROPERTY/>
    </VARIABLE>
    <VARIABLE TYPE="nature">
      <NAME>d04_ab_circum_d</NAME>
      <OUTCOME>_inf_75_5_</OUTCOME>
      <OUTCOME>_75_5_70_5_</OUTCOME>
      <OUTCOME>_70_5_58_776_</OUTCOME>
      <OUTCOME>_58_776_58_206_</OUTCOME>
      <OUTCOME>_58_206_56_75_</OUTCOME>
      <OUTCOME>_56_75_54_75_</OUTCOME>
      <OUTCOME>_54_75_49_347_</OUTCOME>
      <OUTCOME>_49_347_44_75_</OUTCOME>
      <OUTCOME>_44_75_inf_</OUTCOME>
      <PROPERTY/>
    </VARIABLE>
    <VARIABLE TYPE="nature">
      <NAME>d04_abdominal_2</NAME>
      <OUTCOME>1</OUTCOME>
      <OUTCOME>2</OUTCOME>
      <PROPERTY/>
    </VARIABLE>
    <VARIABLE TYPE="nature">
      <NAME>d04_abdominal_3</NAME>
      <OUTCOME>1</OUTCOME>
      <OUTCOME>2</OUTCOME>
      <PROPERTY/>
    </VARIABLE>
    <VARIABLE TYPE="nature">
      <NAME>d04_abdominal_d</NAME>
      <OUTCOME>_inf_1_5_</OUTCOME>
      <OUTCOME>_1_5_0_5_</OUTCOME>
      <OUTCOME>_0_5_inf_</OUTCOME>
      <PROPERTY/>
    </VARIABLE>
    <VARIABLE TYPE="nature">
      <NAME>d04_clear_1</NAME>
      <OUTCOME>1</OUTCOME>
      <OUTCOME>2</OUTCOME>
      <PROPERTY/>
    </VARIABLE>
    <VARIABLE TYPE="nature">
      <NAME>d04_diarrhea_1</NAME>
      <OUTCOME>1</OUTCOME>
      <OUTCOME>2</OUTCOME>
      <PROPERTY/>
    </VARIABLE>
    <VARIABLE TYPE="nature">
      <NAME>d04_diarrhea_3</NAME>
      <OUTCOME>1</OUTCOME>
      <OUTCOME>2</OUTCOME>
      <PROPERTY/>
    </VARIABLE>
    <VARIABLE TYPE="nature">
      <NAME>d04_injected_1</NAME>
      <OUTCOME>1</OUTCOME>
      <OUTCOME>2</OUTCOME>
      <PROPERTY/>
    </VARIABLE>
    <VARIABLE TYPE="nature">
      <NAME>d04_injected_2</NAME>
      <OUTCOME>1</OUTCOME>
      <OUTCOME>2</OUTCOME>
      <PROPERTY/>
    </VARIABLE>
    <VARIABLE TYPE="nature">
      <NAME>d04_injected_3</NAME>
      <OUTCOME>1</OUTCOME>
      <OUTCOME>2</OUTCOME>
      <PROPERTY/>
    </VARIABLE>
    <VARIABLE TYPE="nature">
      <NAME>d04_itching_2</NAME>
      <OUTCOME>1</OUTCOME>
      <OUTCOME>2</OUTCOME>
      <PROPERTY/>
    </VARIABLE>
    <VARIABLE TYPE="nature">
      <NAME>d05_ast_alt_2</NAME>
      <OUTCOME>_inf_1_067_</OUTCOME>
      <OUTCOME>_1_067_1_272_</OUTCOME>
      <OUTCOME>_1_272_1_504_</OUTCOME>
      <OUTCOME>_1_504_1_662_</OUTCOME>
      <OUTCOME>_1_662_1_83_</OUTCOME>
      <OUTCOME>_1_83_1_942_</OUTCOME>
      <OUTCOME>_1_942_2_022_</OUTCOME>
      <OUTCOME>_2_022_2_17_</OUTCOME>
      <OUTCOME>_2_17_inf_</OUTCOME>
      <PROPERTY/>
    </VARIABLE>
    <VARIABLE TYPE="nature">
      <NAME>d05_ast_alt_3</NAME>
      <OUTCOME>_inf_1_156_</OUTCOME>
      <OUTCOME>_1_156_1_435_</OUTCOME>
      <OUTCOME>_1_435_1_716_</OUTCOME>
      <OUTCOME>_1_716_1_852_</OUTCOME>
      <OUTCOME>_1_852_1_971_</OUTCOME>
      <OUTCOME>_1_971_2_081_</OUTCOME>
      <OUTCOME>_2_081_2_569_</OUTCOME>
      <OUTCOME>_2_569_2_852_</OUTCOME>
      <OUTCOME>_2_852_inf_</OUTCOME>
      <PROPERTY/>
    </VARIABLE>
    <VARIABLE TYPE="nature">
      <NAME>d05_ast_alt_d</NAME>
      <OUTCOME>_inf_1_5_</OUTCOME>
      <OUTCOME>_1_5_13_5_</OUTCOME>
      <OUTCOME>_13_5_34_5_</OUTCOME>
      <OUTCOME>_34_5_40_5_</OUTCOME>
      <OUTCOME>_40_5_48_5_</OUTCOME>
      <OUTCOME>_48_5_54_5_</OUTCOME>
      <OUTCOME>_54_5_94_5_</OUTCOME>
      <OUTCOME>_94_5_130_5_</OUTCOME>
      <OUTCOME>_130_5_inf_</OUTCOME>
      <PROPERTY/>
    </VARIABLE>
    <VARIABLE TYPE="nature">
      <NAME>d05_atyp_2</NAME>
      <OUTCOME>_inf_0_0912_</OUTCOME>
      <OUTCOME>_0_0912_0_936_</OUTCOME>
      <OUTCOME>_0_936_1_47_</OUTCOME>
      <OUTCOME>_1_47_2_214_</OUTCOME>
      <OUTCOME>_2_214_2_389_</OUTCOME>
      <OUTCOME>_2_389_2_606_</OUTCOME>
      <OUTCOME>_2_606_2_791_</OUTCOME>
      <OUTCOME>_2_791_3_445_</OUTCOME>
      <OUTCOME>_3_445_inf_</OUTCOME>
      <PROPERTY/>
    </VARIABLE>
    <VARIABLE TYPE="nature">
      <NAME>d05_band_1</NAME>
      <OUTCOME>_inf_1_321_</OUTCOME>
      <OUTCOME>_1_321_2_151_</OUTCOME>
      <OUTCOME>_2_151_inf_</OUTCOME>
      <PROPERTY/>
    </VARIABLE>
    <VARIABLE TYPE="nature">
      <NAME>d05_band_2</NAME>
      <OUTCOME>_inf_0_35_</OUTCOME>
      <OUTCOME>_0_35_1_547_</OUTCOME>
      <OUTCOME>_1_547_2_001_</OUTCOME>
      <OUTCOME>_2_001_3_188_</OUTCOME>
      <OUTCOME>_3_188_inf_</OUTCOME>
      <PROPERTY/>
    </VARIABLE>
    <VARIABLE TYPE="nature">
      <NAME>d05_band_3</NAME>
      <OUTCOME>_inf_1_267_</OUTCOME>
      <OUTCOME>_1_267_2_646_</OUTCOME>
      <OUTCOME>_2_646_inf_</OUTCOME>
      <PROPERTY/>
    </VARIABLE>
    <VARIABLE TYPE="nature">
      <NAME>d05_eosin_2</NAME>
      <OUTCOME>_inf_0_42_</OUTCOME>
      <OUTCOME>_0_42_0_886_</OUTCOME>
      <OUTCOME>_0_886_1_458_</OUTCOME>
      <OUTCOME>_1_458_inf_</OUTCOME>
      <PROPERTY/>
    </VARIABLE>
    <VARIABLE TYPE="nature">
      <NAME>d05_eosin_3</NAME>
      <OUTCOME>_inf_0_5_</OUTCOME>
      <OUTCOME>_0_5_1_417_</OUTCOME>
      <OUTCOME>_1_417_1_783_</OUTCOME>
      <OUTCOME>_1_783_inf_</OUTCOME>
      <PROPERTY/>
    </VARIABLE>
    <VARIABLE TYPE="nature">
      <NAME>d05_lft_alt_1</NAME>
      <OUTCOME>_inf_18_5_</OUTCOME>
      <OUTCOME>_18_5_26_5_</OUTCOME>
      <OUTCOME>_26_5_31_5_</OUTCOME>
      <OUTCOME>_31_5_33_5_</OUTCOME>
      <OUTCOME>_33_5_38_5_</OUTCOME>
      <OUTCOME>_38_5_41_5_</OUTCOME>
      <OUTCOME>_41_5_45_5_</OUTCOME>
      <OUTCOME>_45_5_69_5_</OUTCOME>
      <OUTCOME>_69_5_inf_</OUTCOME>
      <PROPERTY/>
    </VARIABLE>
    <VARIABLE TYPE="nature">
      <NAME>d05_lft_alt_d</NAME>
      <OUTCOME>_inf_138_5_</OUTCOME>
      <OUTCOME>_138_5_72_5_</OUTCOME>
      <OUTCOME>_72_5_63_5_</OUTCOME>
      <OUTCOME>_63_5_54_5_</OUTCOME>
      <OUTCOME>_54_5_39_5_</OUTCOME>
      <OUTCOME>_39_5_24_5_</OUTCOME>
      <OUTCOME>_24_5_21_167_</OUTCOME>
      <OUTCOME>_21_167_13_5_</OUTCOME>
      <OUTCOME>_13_5_inf_</OUTCOME>
      <PROPERTY/>
    </VARIABLE>
    <VARIABLE TYPE="nature">
      <NAME>d05_lft_ast_1</NAME>
      <OUTCOME>_inf_35_5_</OUTCOME>
      <OUTCOME>_35_5_40_5_</OUTCOME>
      <OUTCOME>_40_5_46_5_</OUTCOME>
      <OUTCOME>_46_5_52_5_</OUTCOME>
      <OUTCOME>_52_5_55_5_</OUTCOME>
      <OUTCOME>_55_5_74_5_</OUTCOME>
      <OUTCOME>_74_5_106_5_</OUTCOME>
      <OUTCOME>_106_5_160_5_</OUTCOME>
      <OUTCOME>_160_5_inf_</OUTCOME>
      <PROPERTY/>
    </VARIABLE>
    <VARIABLE TYPE="nature">
      <NAME>d05_lft_protein_1</NAME>
      <OUTCOME>_inf_5_45_</OUTCOME>
      <OUTCOME>_5_45_6_05_</OUTCOME>
      <OUTCOME>_6_05_6_25_</OUTCOME>
      <OUTCOME>_6_25_6_45_</OUTCOME>
      <OUTCOME>_6_45_6_55_</OUTCOME>
      <OUTCOME>_6_55_6_696_</OUTCOME>
      <OUTCOME>_6_696_7_15_</OUTCOME>
      <OUTCOME>_7_15_7_55_</OUTCOME>
      <OUTCOME>_7_55_inf_</OUTCOME>
      <PROPERTY/>
    </VARIABLE>
    <VARIABLE TYPE="nature">
      <NAME>d05_lft_protein_2</NAME>
      <OUTCOME>_inf_5_35_</OUTCOME>
      <OUTCOME>_5_35_5_75_</OUTCOME>
      <OUTCOME>_5_75_6_05_</OUTCOME>
      <OUTCOME>_6_05_6_25_</OUTCOME>
      <OUTCOME>_6_25_6_35_</OUTCOME>
      <OUTCOME>_6_35_6_45_</OUTCOME>
      <OUTCOME>_6_45_6_775_</OUTCOME>
      <OUTCOME>_6_775_7_05_</OUTCOME>
      <OUTCOME>_7_05_inf_</OUTCOME>
      <PROPERTY/>
    </VARIABLE>
    <VARIABLE TYPE="nature">
      <NAME>d05_lft_protein_3</NAME>
      <OUTCOME>_inf_4_95_</OUTCOME>
      <OUTCOME>_4_95_5_25_</OUTCOME>
      <OUTCOME>_5_25_5_55_</OUTCOME>
      <OUTCOME>_5_55_5_85_</OUTCOME>
      <OUTCOME>_5_85_5_95_</OUTCOME>
      <OUTCOME>_5_95_6_133_</OUTCOME>
      <OUTCOME>_6_133_6_45_</OUTCOME>
      <OUTCOME>_6_45_6_65_</OUTCOME>
      <OUTCOME>_6_65_inf_</OUTCOME>
      <PROPERTY/>
    </VARIABLE>
    <VARIABLE TYPE="nature">
      <NAME>d05_lft_protein_d</NAME>
      <OUTCOME>_inf_8_3_</OUTCOME>
      <OUTCOME>_8_3_7_949999999999999_</OUTCOME>
      <OUTCOME>_7_949999999999999_7_200000000000001_</OUTCOME>
      <OUTCOME>_7_200000000000001_6_800000000000001_</OUTCOME>
      <OUTCOME>_6_800000000000001_6_799999999999999_</OUTCOME>
      <OUTCOME>_6_799999999999999_6_6_</OUTCOME>
      <OUTCOME>_6_6_6_5_</OUTCOME>
      <OUTCOME>_6_5_5_449999999999999_</OUTCOME>
      <OUTCOME>_5_449999999999999_inf_</OUTCOME>
      <PROPERTY/>
    </VARIABLE>
    <VARIABLE TYPE="nature">
      <NAME>d05_lymp_2</NAME>
      <OUTCOME>_inf_3_855_</OUTCOME>
      <OUTCOME>_3_855_4_334_</OUTCOME>
      <OUTCOME>_4_334_4_427_</OUTCOME>
      <OUTCOME>_4_427_4_461_</OUTCOME>
      <OUTCOME>_4_461_4_563_</OUTCOME>
      <OUTCOME>_4_563_4_655_</OUTCOME>
      <OUTCOME>_4_655_4_939_</OUTCOME>
      <OUTCOME>_4_939_5_11_</OUTCOME>
      <OUTCOME>_5_11_inf_</OUTCOME>
      <PROPERTY/>
    </VARIABLE>
    <VARIABLE TYPE="nature">
      <NAME>d05_lymp_3</NAME>
      <OUTCOME>_inf_3_842_</OUTCOME>
      <OUTCOME>_3_842_4_055_</OUTCOME>
      <OUTCOME>_4_055_4_195_</OUTCOME>
      <OUTCOME>_4_195_4_512_</OUTCOME>
      <OUTCOME>_4_512_4_583_</OUTCOME>
      <OUTCOME>_4_583_5_09_</OUTCOME>
      <OUTCOME>_5_09_5_246_</OUTCOME>
      <OUTCOME>_5_246_5_397_</OUTCOME>
      <OUTCOME>_5_397_inf_</OUTCOME>
      <PROPERTY/>
    </VARIABLE>
    <VARIABLE TYPE="nature">
      <NAME>d05_lymp_d</NAME>
      <OUTCOME>_inf_5_304_</OUTCOME>
      <OUTCOME>_5_304_4_981_</OUTCOME>
      <OUTCOME>_4_981_4_757_</OUTCOME>
      <OUTCOME>_4_757_4_021_</OUTCOME>
      <OUTCOME>_4_021_3_917_</OUTCOME>
      <OUTCOME>_3_917_3_732_</OUTCOME>
      <OUTCOME>_3_732_3_653_</OUTCOME>
      <OUTCOME>_3_653_3_269_</OUTCOME>
      <OUTCOME>_3_269_inf_</OUTCOME>
      <PROPERTY/>
    </VARIABLE>
    <VARIABLE TYPE="nature">
      <NAME>d05_pmn_1</NAME>
      <OUTCOME>_inf_4_182_</OUTCOME>
      <OUTCOME>_4_182_4_593_</OUTCOME>
      <OUTCOME>_4_593_5_047_</OUTCOME>
      <OUTCOME>_5_047_5_154_</OUTCOME>
      <OUTCOME>_5_154_5_283_</OUTCOME>
      <OUTCOME>_5_283_5_928_</OUTCOME>
      <OUTCOME>_5_928_6_094_</OUTCOME>
      <OUTCOME>_6_094_6_446_</OUTCOME>
      <OUTCOME>_6_446_inf_</OUTCOME>
      <PROPERTY/>
    </VARIABLE>
    <VARIABLE TYPE="nature">
      <NAME>d05_pmn_2</NAME>
      <OUTCOME>_inf_3_854_</OUTCOME>
      <OUTCOME>_3_854_4_083_</OUTCOME>
      <OUTCOME>_4_083_4_298_</OUTCOME>
      <OUTCOME>_4_298_4_921_</OUTCOME>
      <OUTCOME>_4_921_5_102_</OUTCOME>
      <OUTCOME>_5_102_5_226_</OUTCOME>
      <OUTCOME>_5_226_5_35_</OUTCOME>
      <OUTCOME>_5_35_5_644_</OUTCOME>
      <OUTCOME>_5_644_inf_</OUTCOME>
      <PROPERTY/>
    </VARIABLE>
    <VARIABLE TYPE="nature">
      <NAME>d05_pmn_3</NAME>
      <OUTCOME>_inf_3_665_</OUTCOME>
      <OUTCOME>_3_665_4_045_</OUTCOME>
      <OUTCOME>_4_045_4_14_</OUTCOME>
      <OUTCOME>_4_14_4_324_</OUTCOME>
      <OUTCOME>_4_324_4_4_</OUTCOME>
      <OUTCOME>_4_4_4_596_</OUTCOME>
      <OUTCOME>_4_596_4_877_</OUTCOME>
      <OUTCOME>_4_877_4_987_</OUTCOME>
      <OUTCOME>_4_987_inf_</OUTCOME>
      <PROPERTY/>
    </VARIABLE>
    <VARIABLE TYPE="nature">
      <NAME>dhf_dx</NAME>
      <OUTCOME>0</OUTCOME>
      <OUTCOME>1</OUTCOME>
      <PROPERTY/>
    </VARIABLE>
    <VARIABLE TYPE="nature">
      <NAME>fever_day</NAME>
      <OUTCOME>_inf_3_5_</OUTCOME>
      <OUTCOME>_3_5_4_5_</OUTCOME>
      <OUTCOME>_4_5_5_5_</OUTCOME>
      <OUTCOME>_5_5_inf_</OUTCOME>
      <PROPERTY/>
    </VARIABLE>
    <DEFINITION>
      <FOR>d03_hct_avg_2</FOR>
      <GIVEN>dhf_dx</GIVEN>
      <TABLE>0.229804873116975 0.19886765746638357 0.15337175209786674 0.15155191588312605 0.06237994136083308 0.02416338085127894 0.13881306237994134 0.02416338085127894 0.01688403599231625 0.14327191513121162 0.167392518146287 0.08699050809603574 0.16538246789503072 0.0588498045784478 0.0588498045784478 0.19151312116136238 0.0689000558347292 0.0588498045784478 </TABLE>
    </DEFINITION>
    <DEFINITION>
      <FOR>d03_hct_avg_3</FOR>
      <GIVEN>dhf_dx</GIVEN>
      <GIVEN>fever_day</GIVEN>
      <TABLE>0.1262164124909223 0.10530137981118375 0.11575889615105303 0.4294843863471315 0.09484386347131447 0.08438634713144519 0.032098765432098775 0.011183732752360205 0.0007262164124909224 0.15247441173367096 0.20565579824839078 0.16766909359501947 0.25883718476311063 0.09169568428827686 0.06890366149625407 0.03851429777355703 0.008124934050859975 0.008124934050859975 0.12057329715438665 0.15563904543240795 0.11055451193209485 0.345995964655952 0.07548876365407359 0.08049815626521947 0.06546997843178179 0.035413622764906415 0.010366659709176928 0.18813002605051535 0.16366519424623402 0.15551025031147356 0.2125948578547967 0.09842564276815043 0.08211575489862953 0.04134103522482728 0.05765092309434818 0.0005663155510250312 0.12318430484814186 0.15034899075646105 0.08243727598566308 0.2590077343897378 0.08243727598566308 0.09601961893982268 0.09601961893982268 0.06885493303150349 0.04169024712318431 0.05393112410656271 0.12076487515084006 0.07398124941984591 0.2611157523438225 0.08066462452427364 0.1274482502552678 0.13413162535969553 0.08734799962870138 0.06061449921099044 0.04896994258696386 0.0878757176629517 0.07814927389395473 0.262951705504897 0.1121918270854441 0.1365079365079365 0.11705504896994258 0.10732860520094561 0.04896994258696386 0.07387168589354381 0.07387168589354381 0.0301558388990083 0.24873507387168586 0.07387168589354381 0.08844363489172233 0.16130337988261487 0.19044727787897187 0.059299736895365315 </TABLE>
    </DEFINITION>
    <DEFINITION>
      <FOR>d03_hct_avg_d</FOR>
      <GIVEN>dhf_dx</GIVEN>
      <TABLE>0.21160651096956823 0.13699322616520065 0.23344454554645633 0.12243453644727527 0.09877666565564652 0.09331715701142451 0.08603781215246181 0.015064199777575572 0.0023253462743908597 0.07694025683975433 0.07493020658849806 0.15131211613623674 0.11915131211613625 0.1452819653824679 0.08297040759352318 0.18548297040759354 0.09704075935231715 0.06689000558347293 </TABLE>
    </DEFINITION>
    <DEFINITION>
      <FOR>d03_intake_diff_1</FOR>
      <GIVEN>dhf_dx</GIVEN>
      <TABLE>0.051460924072389044 0.4008694773025983 0.07693863107875847 0.08785764836720251 0.05328076028712971 0.13153371752097864 0.035082398139722984 0.1424527348094227 0.020523708421797595 0.06286990508096037 0.41261864879955334 0.0588498045784478 0.07895030709101061 0.0809603573422669 0.0809603573422669 0.06085985482970408 0.10709101060859856 0.05683975432719152 </TABLE>
    </DEFINITION>
    <DEFINITION>
      <FOR>d03_intake_diff_2</FOR>
      <GIVEN>dhf_dx</GIVEN>
      <TABLE>0.12971388130623798 0.20796683854008693 0.1024163380851279 0.1479122434536447 0.02234354463653827 0.0951369932261652 0.07329895864927712 0.18794864017793952 0.03326256192498231 0.08900055834729202 0.24980457844779455 0.08297040759352318 0.08297040759352318 0.05482970407593524 0.09101060859854831 0.11312116136236741 0.15734226689000558 0.07895030709101061 </TABLE>
    </DEFINITION>
    <DEFINITION>
      <FOR>d03_intake_diff_3</FOR>
      <GIVEN>dhf_dx</GIVEN>
      <TABLE>0.17338995046001415 0.19158831260742087 0.12607420887675663 0.14063289859468203 0.23526438176119704 0.04600141542816702 0.015064199777575575 0.05328076028712971 0.018703872207056924 0.05683975432719152 0.22769402568397545 0.05281965382467896 0.07493020658849806 0.22769402568397545 0.09503070910106087 0.06286990508096037 0.103070910106086 0.09905080960357343 </TABLE>
    </DEFINITION>
    <DEFINITION>
      <FOR>d03_pulse_pre_min_1</FOR>
      <GIVEN>dhf_dx</GIVEN>
      <TABLE>0.32286927509857444 0.07537154989384288 0.08629056718228692 0.37018501668183196 0.06445253260539885 0.08083105853806491 0.3184254606365159 0.09530988274706867 0.0711892797319933 0.3686767169179229 0.0812395309882747 0.06515912897822446 </TABLE>
    </DEFINITION>
    <DEFINITION>
      <FOR>d03_pulse_pre_min_3</FOR>
      <GIVEN>dhf_dx</GIVEN>
      <TABLE>0.02248797608215261 0.047965683088522046 0.5138437540621345 0.0643442090211881 0.0643442090211881 0.10256076953074225 0.18445339919407258 0.0650394831299354 0.054989231873653996 0.5293610911701365 0.07106963388370424 0.07508973438621681 0.05900933237616656 0.14544149318018668 </TABLE>
    </DEFINITION>
    <DEFINITION>
      <FOR>d03_pulse_rate_range_1</FOR>
      <GIVEN>dhf_dx</GIVEN>
      <GIVEN>fever_day</GIVEN>
      <TABLE>0.2726216412490923 0.14713144517066087 0.1262164124909223 0.1994190268700073 0.032098765432098775 0.0739288307915759 0.04255628177196805 0.09484386347131447 0.011183732752360205 0.08409834335760262 0.061306320565579824 0.2740318666244592 0.11448770708029968 0.06890366149625408 0.13727972987232245 0.061306320565579824 0.13727972987232245 0.061306320565579824 0.09051694148751127 0.11055451193209485 0.17567661587699152 0.15563904543240795 0.11556390454324075 0.08049815626521947 0.10053572670980307 0.11556390454324075 0.055451193209490005 0.08211575489862953 0.12289047457243177 0.18813002605051535 0.17997508211575491 0.06580586702910862 0.05765092309434818 0.09842564276815043 0.13920036244195266 0.06580586702910862 0.16393133371062063 0.15034899075646105 0.17751367666478024 0.10960196189398227 0.12318430484814186 0.0552725900773439 0.06885493303150349 0.0552725900773439 0.09601961893982268 0.12076487515084006 0.05393112410656271 0.26779912744825024 0.147498375568551 0.12076487515084006 0.03388099879327949 0.06729787431541817 0.10739812494198459 0.08066462452427364 0.08787571766295167 0.09760216143194864 0.23863559608240453 0.10246538331644711 0.14137115839243494 0.09760216143194864 0.0830124957784532 0.0830124957784532 0.06842283012495777 0.11758753288807934 0.059299736895365315 0.13215948188625784 0.10301558388990083 0.11758753288807934 0.07387168589354381 0.10301558388990083 0.2195911758753289 0.07387168589354381 </TABLE>
    </DEFINITION>
    <DEFINITION>
      <FOR>d03_pulse_rate_range_2</FOR>
      <GIVEN>dhf_dx</GIVEN>
      <TABLE>0.10423617429986858 0.20796683854008693 0.08421797593772117 0.12425437266201596 0.21524618339904963 0.04964108785764837 0.14609240723890404 0.035082398139722984 0.03326256192498231 0.08297040759352318 0.20357342266890008 0.07694025683975433 0.09101060859854831 0.20357342266890008 0.0689000558347292 0.13724176437744276 0.0709101060859855 0.06487995533221665 </TABLE>
    </DEFINITION>
    <DEFINITION>
      <FOR>d03_temp_min_1</FOR>
      <GIVEN>dhf_dx</GIVEN>
      <TABLE>0.07511879486401779 0.21342634718430895 0.05328076028712971 0.1479122434536447 0.06056010514609241 0.20978667475482762 0.05510059650187039 0.08421797593772117 0.10059650187038723 0.07493020658849806 0.08900055834729202 0.07292015633724178 0.13925181462869907 0.08699050809603574 0.1975432719151312 0.11111111111111112 0.12518146286990509 0.103070910106086 </TABLE>
    </DEFINITION>
    <DEFINITION>
      <FOR>d03_temp_min_3</FOR>
      <GIVEN>dhf_dx</GIVEN>
      <TABLE>0.15161510464058234 0.12431756141947224 0.29538216560509556 0.147975432211101 0.10247952684258417 0.10611919927206552 0.047884440400363965 0.024226569608735215 0.15540201005025125 0.10314070351758794 0.29811557788944726 0.10113065326633165 0.08907035175879396 0.10917085427135678 0.08907035175879396 0.054899497487437186 </TABLE>
    </DEFINITION>
    <DEFINITION>
      <FOR>d03_temp_min_d</FOR>
      <GIVEN>dhf_dx</GIVEN>
      <TABLE>0.04600141542816702 0.2170660196137903 0.06965928621979578 0.05328076028712971 0.10605601051460924 0.12425437266201596 0.12607420887675663 0.1424527348094227 0.11515519158831261 0.05281965382467896 0.31613623673925184 0.08297040759352318 0.0930206588498046 0.09704075935231715 0.09704075935231715 0.11915131211613625 0.05281965382467896 0.08900055834729202 </TABLE>
    </DEFINITION>
    <DEFINITION>
      <FOR>d04_ab_circum_1</FOR>
      <GIVEN>dhf_dx</GIVEN>
      <GIVEN>fever_day</GIVEN>
      <TABLE>0.0739288307915759 0.4294843863471315 0.08438634713144519 0.11575889615105303 0.0007262164124909224 0.0739288307915759 0.0739288307915759 0.10530137981118375 0.04255628177196805 0.09929302521895114 0.35000527593120184 0.09929302521895114 0.10689036614962541 0.0005275931201857128 0.01572227498153424 0.14487707080299672 0.12968238894164819 0.05370897963490556 0.0604605858206359 0.396089890767411 0.045432407987198206 0.13560147498782435 0.005357267098031028 0.055451193209490005 0.13059208237667844 0.10053572670980307 0.07047937104292769 0.10658058670291087 0.4409332880280893 0.05765092309434818 0.17997508211575491 0.0005663155510250312 0.03318609129006683 0.10658058670291087 0.04134103522482728 0.03318609129006683 0.0824372759856631 0.3405017921146954 0.12318430484814188 0.16393133371062066 0.0009432182607055275 0.0009432182607055275 0.16393133371062066 0.04169024712318432 0.0824372759856631 0.03388099879327949 0.3546830038058108 0.12076487515084006 0.040564373897707236 0.06061449921099044 0.10071474983755685 0.1675485008818342 0.06729787431541817 0.05393112410656271 0.058696386355960826 0.29213103681188785 0.08301249577845322 0.07328605200945626 0.08301249577845322 0.11705504896994258 0.15596082404593042 0.0878757176629517 0.04896994258696386 0.05929973689536533 0.336166767860757 0.10301558388990086 0.05929973689536533 0.13215948188625787 0.11758753288807937 0.13215948188625787 0.030155838899008306 0.030155838899008306 </TABLE>
    </DEFINITION>
    <DEFINITION>
      <FOR>d04_ab_circum_2</FOR>
      <GIVEN>dhf_dx</GIVEN>
      <TABLE>0.22070569204327165 0.21524618339904963 0.11151551915883126 0.12243453644727528 0.00232534627439086 0.06601961379031443 0.11333535537357194 0.09877666565564655 0.04964108785764837 0.15734226689000558 0.1774427694025684 0.14327191513121162 0.07493020658849806 0.06286990508096037 0.11513121161362369 0.1452819653824679 0.0709101060859855 0.05281965382467896 </TABLE>
    </DEFINITION>
    <DEFINITION>
      <FOR>d04_ab_circum_d</FOR>
      <GIVEN>dhf_dx</GIVEN>
      <TABLE>0.10423617429986858 0.06419977757557375 0.19886765746638357 0.00778485491861288 0.0678394500050551 0.06419977757557375 0.23526438176119704 0.20614700232534627 0.051460924072389044 0.07292015633724178 0.05281965382467896 0.2558347292015634 0.06487995533221665 0.0588498045784478 0.08699050809603574 0.20357342266890008 0.14729201563372418 0.05683975432719152 </TABLE>
    </DEFINITION>
    <DEFINITION>
      <FOR>d04_abdominal_2</FOR>
      <GIVEN>dhf_dx</GIVEN>
      <TABLE>0.775705186533212 0.22429481346678798 0.6819095477386935 0.31809045226130656 </TABLE>
    </DEFINITION>
    <DEFINITION>
      <FOR>d04_abdominal_3</FOR>
      <GIVEN>dhf_dx</GIVEN>
      <TABLE>0.8266606005459509 0.17333939945404914 0.5452261306532663 0.4547738693467337 </TABLE>
    </DEFINITION>
    <DEFINITION>
      <FOR>d04_abdominal_d</FOR>
      <GIVEN>dhf_dx</GIVEN>
      <TABLE>0.18531998786775855 0.7494692144373672 0.06521079769487413 0.15644891122278057 0.6368509212730319 0.20670016750418763 </TABLE>
    </DEFINITION>
    <DEFINITION>
      <FOR>d04_clear_1</FOR>
      <GIVEN>dhf_dx</GIVEN>
      <TABLE>0.964968152866242 0.03503184713375796 0.9874371859296482 0.01256281407035176 </TABLE>
    </DEFINITION>
    <DEFINITION>
      <FOR>d04_diarrhea_1</FOR>
      <GIVEN>dhf_dx</GIVEN>
      <TABLE>0.954049135577798 0.045950864422202004 0.907035175879397 0.09296482412060302 </TABLE>
    </DEFINITION>
    <DEFINITION>
      <FOR>d04_diarrhea_3</FOR>
      <GIVEN>dhf_dx</GIVEN>
      <GIVEN>fever_day</GIVEN>
      <TABLE>0.8294117647058824 0.17058823529411765 0.9216524216524217 0.07834757834757834 0.8631809643080777 0.13681903569192236 0.8506625891946993 0.14933741080530072 0.7920203735144312 0.20797962648556875 0.6637426900584795 0.3362573099415205 0.7699088145896656 0.23009118541033435 0.7768670309653917 0.22313296903460839 </TABLE>
    </DEFINITION>
    <DEFINITION>
      <FOR>d04_injected_1</FOR>
      <GIVEN>dhf_dx</GIVEN>
      <GIVEN>fever_day</GIVEN>
      <TABLE>0.9549019607843138 0.045098039215686274 0.8912630579297246 0.1087369420702754 0.893237319974953 0.10676268002504696 0.8751274209989807 0.12487257900101936 0.9550084889643463 0.04499151103565365 0.9243943191311612 0.07560568086883876 0.9060790273556231 0.0939209726443769 0.7768670309653917 0.22313296903460839 </TABLE>
    </DEFINITION>
    <DEFINITION>
      <FOR>d04_injected_2</FOR>
      <GIVEN>dhf_dx</GIVEN>
      <TABLE>0.8666969972702456 0.13330300272975432 0.778391959798995 0.22160804020100502 </TABLE>
    </DEFINITION>
    <DEFINITION>
      <FOR>d04_injected_3</FOR>
      <GIVEN>dhf_dx</GIVEN>
      <GIVEN>fever_day</GIVEN>
      <TABLE>0.9339869281045752 0.06601307189542484 0.845679012345679 0.15432098765432098 0.9733876017532874 0.026612398246712587 0.9322120285423038 0.06778797145769623 0.7784380305602716 0.22156196943972836 0.8575605680868839 0.14243943191311612 0.9012158054711246 0.09878419452887538 0.9225865209471766 0.07741347905282331 </TABLE>
    </DEFINITION>
    <DEFINITION>
      <FOR>d04_itching_2</FOR>
      <GIVEN>dhf_dx</GIVEN>
      <TABLE>0.9449499545040946 0.05505004549590537 0.9733668341708542 0.026633165829145728 </TABLE>
    </DEFINITION>
    <DEFINITION>
      <FOR>d05_ast_alt_2</FOR>
      <GIVEN>dhf_dx</GIVEN>
      <GIVEN>fever_day</GIVEN>
      <TABLE>0.1994190268700073 0.16804647785039942 0.09484386347131447 0.02164124909222949 0.05301379811183734 0.06347131445170662 0.04255628177196805 0.0739288307915759 0.2830791575889615 0.1676690935950195 0.11448770708029968 0.11448770708029968 0.061306320565579824 0.12968238894164819 0.038514297773557034 0.01572227498153424 0.05370897963490556 0.30442123034715624 0.0855075488763654 0.06046058582063592 0.1606484380435539 0.0955263340986572 0.1155639045432408 0.025394837542614627 0.04042301537605232 0.0855075488763654 0.33096778682251443 0.12289047457243177 0.11473553063767132 0.15551025031147356 0.04949597915958773 0.07396081096386908 0.05765092309434818 0.02503114735530638 0.07396081096386908 0.326764072941443 0.10960196189398227 0.16393133371062063 0.08243727598566308 0.10960196189398227 0.10960196189398227 0.09601961893982268 0.01452556121486512 0.06885493303150349 0.24542539143557818 0.12076487515084006 0.07398124941984591 0.15418175067297873 0.08066462452427364 0.06729787431541817 0.040564373897707236 0.06061449921099044 0.04724774900213497 0.3546830038058108 0.019790611279972982 0.12678149273893954 0.07328605200945626 0.07814927389395473 0.06355960824045931 0.058696386355960826 0.058696386355960826 0.04896994258696386 0.47207024653833163 0.015583889900829791 0.10301558388990083 0.059299736895365315 0.13215948188625784 0.0301558388990083 0.059299736895365315 0.059299736895365315 0.10301558388990083 0.43817041084800645 </TABLE>
    </DEFINITION>
    <DEFINITION>
      <FOR>d05_ast_alt_3</FOR>
      <GIVEN>dhf_dx</GIVEN>
      <TABLE>0.17884945910423616 0.16611060560105145 0.16793044181579211 0.051460924072389044 0.06237994136083308 0.04964108785764837 0.11879486401779395 0.06419977757557375 0.14063289859468203 0.05683975432719152 0.09905080960357343 0.17342266890005584 0.08699050809603574 0.05281965382467896 0.05281965382467896 0.18749302065884982 0.06286990508096037 0.22769402568397545 </TABLE>
    </DEFINITION>
    <DEFINITION>
      <FOR>d05_ast_alt_d</FOR>
      <GIVEN>dhf_dx</GIVEN>
      <TABLE>0.13335355373571933 0.1479122434536447 0.36447275300778487 0.04964108785764837 0.07693863107875847 0.031442725710241634 0.11515519158831261 0.02234354463653827 0.05874026893135174 0.0588498045784478 0.12518146286990509 0.2236739251814629 0.07493020658849806 0.05482970407593524 0.0709101060859855 0.16136236739251816 0.0809603573422669 0.14930206588498046 </TABLE>
    </DEFINITION>
    <DEFINITION>
      <FOR>d05_atyp_2</FOR>
      <GIVEN>dhf_dx</GIVEN>
      <GIVEN>fever_day</GIVEN>
      <TABLE>0.7118373275236021 0.011183732752360205 0.06347131445170662 0.09484386347131447 0.032098765432098775 0.02164124909222949 0.011183732752360205 0.032098765432098775 0.02164124909222949 0.6159122085048011 0.038514297773557034 0.06890366149625408 0.11448770708029968 0.03091695684288277 0.05370897963490556 0.0005275931201857128 0.05370897963490556 0.023319615912208505 0.45119320949001585 0.02038544493146872 0.0604605858206359 0.11055451193209485 0.045432407987198206 0.10053572670980307 0.035413622764906415 0.08550754887636537 0.09051694148751127 0.36753879261524525 0.01687620342054593 0.08211575489862953 0.13920036244195266 0.02503114735530638 0.04949597915958773 0.02503114735530638 0.10658058670291087 0.18813002605051535 0.6936427089228449 0.04169024712318432 0.02810790416902472 0.09601961893982269 0.0009432182607055275 0.04169024712318432 0.02810790416902472 0.02810790416902472 0.04169024712318432 0.5017172561032208 0.10739812494198454 0.08734799962870135 0.13413162535969547 0.033880998793279486 0.053931124106562686 0.02719762368885175 0.033880998793279486 0.020514248584424015 0.3310368118878756 0.04410672070246537 0.06842283012495777 0.13650793650793647 0.06842283012495777 0.058696386355960806 0.07328605200945625 0.14623438027693342 0.07328605200945625 0.27787897186804295 0.0010119409026512853 0.044727787897186816 0.1613033798826149 0.13215948188625787 0.044727787897186816 0.07387168589354383 0.11758753288807937 0.14673143088443638 </TABLE>
    </DEFINITION>
    <DEFINITION>
      <FOR>d05_band_1</FOR>
      <GIVEN>dhf_dx</GIVEN>
      <TABLE>0.9077949651198058 0.025174400970579314 0.0670306339096148 0.8619765494137354 0.057956448911222785 0.0800670016750419 </TABLE>
    </DEFINITION>
    <DEFINITION>
      <FOR>d05_band_2</FOR>
      <GIVEN>dhf_dx</GIVEN>
      <TABLE>0.8343949044585988 0.04094631483166515 0.020928116469517744 0.07734303912647862 0.026387625113739762 0.7587939698492462 0.053266331658291456 0.053266331658291456 0.07939698492462312 0.05527638190954774 </TABLE>
    </DEFINITION>
    <DEFINITION>
      <FOR>d05_band_3</FOR>
      <GIVEN>fever_day</GIVEN>
      <TABLE>0.8709995076317086 0.06745445593303792 0.061546036435253575 0.8228148148148148 0.1045925925925926 0.0725925925925926 0.8424840633353896 0.08739461237918979 0.07012132428542052 0.901525054466231 0.0701525054466231 0.028322440087145975 </TABLE>
    </DEFINITION>
    <DEFINITION>
      <FOR>d05_eosin_2</FOR>
      <GIVEN>dhf_dx</GIVEN>
      <GIVEN>fever_day</GIVEN>
      <TABLE>0.723202614379085 0.0434640522875817 0.10620915032679738 0.12712418300653594 0.7305318138651472 0.0543684710351377 0.09235517568850903 0.12274453941120608 0.7822479649342517 0.035848465873512834 0.07091421415153412 0.11098935504070132 0.7759938837920489 0.025739041794087664 0.06651376146788991 0.1317533129459735 0.7491511035653651 0.0700339558573854 0.12436332767402376 0.056451612903225805 0.856516290726817 0.06787802840434419 0.027777777777777776 0.04782790309106098 0.851823708206687 0.04452887537993921 0.05425531914893617 0.04939209726443769 0.7891621129326047 0.06056466302367942 0.031420765027322405 0.11885245901639344 </TABLE>
    </DEFINITION>
    <DEFINITION>
      <FOR>d05_eosin_3</FOR>
      <GIVEN>dhf_dx</GIVEN>
      <TABLE>0.6326205641492265 0.1339854413102821 0.0502729754322111 0.18312101910828024 0.7349246231155779 0.10175879396984924 0.059547738693467335 0.10376884422110552 </TABLE>
    </DEFINITION>
    <DEFINITION>
      <FOR>d05_lft_alt_1</FOR>
      <GIVEN>dhf_dx</GIVEN>
      <TABLE>0.1624709331715701 0.1479122434536447 0.11515519158831261 0.051460924072389044 0.11333535537357194 0.06237994136083308 0.06237994136083308 0.14427257102416338 0.14063289859468203 0.058849804578447795 0.11111111111111112 0.06286990508096035 0.056839754327191516 0.08900055834729202 0.08096035734226689 0.056839754327191516 0.27794528196538243 0.20558347292015633 </TABLE>
    </DEFINITION>
    <DEFINITION>
      <FOR>d05_lft_alt_d</FOR>
      <GIVEN>dhf_dx</GIVEN>
      <TABLE>0.04418157921342635 0.0678394500050551 0.020523708421797595 0.05510059650187039 0.12425437266201596 0.31169750278030534 0.047821251642907694 0.31169750278030534 0.01688403599231625 0.0930206588498046 0.08900055834729202 0.05281965382467896 0.05683975432719152 0.17945281965382467 0.2196538246789503 0.05683975432719152 0.18548297040759354 0.06689000558347293 </TABLE>
    </DEFINITION>
    <DEFINITION>
      <FOR>d05_lft_ast_1</FOR>
      <GIVEN>fever_day</GIVEN>
      <TABLE>0.29033316921056956 0.08944690628590188 0.12489742327260793 0.06581322829476449 0.05990480879698015 0.14262268176596096 0.1071721647792549 0.05990480879698015 0.05990480879698015 0.12849382716049382 0.09293827160493827 0.1142716049382716 0.09649382716049383 0.025382716049382716 0.20316049382716048 0.18182716049382716 0.08938271604938272 0.06804938271604938 0.07437110151483994 0.04475975049694976 0.07683871409966413 0.09164438960860923 0.04722736308177394 0.2051545685105216 0.1780108300774556 0.12372335321132359 0.15826992939886214 0.04778503994190269 0.06347131445170662 0.06870007262164125 0.06870007262164125 0.03732752360203341 0.14713144517066085 0.18896151053013796 0.15758896151053015 0.2203340595497458 </TABLE>
    </DEFINITION>
    <DEFINITION>
      <FOR>d05_lft_protein_1</FOR>
      <GIVEN>dhf_dx</GIVEN>
      <TABLE>0.011424527348094227 0.08421797593772117 0.051460924072389044 0.1424527348094227 0.0678394500050551 0.05874026893135174 0.3262561924982307 0.15883126074208875 0.09877666565564655 0.058849804578447795 0.10910106085985483 0.09704075935231714 0.09905080960357343 0.060859854829704074 0.08297040759352317 0.31010608598548295 0.12920156337241764 0.05281965382467895 </TABLE>
    </DEFINITION>
    <DEFINITION>
      <FOR>d05_lft_protein_2</FOR>
      <GIVEN>dhf_dx</GIVEN>
      <TABLE>0.011424527348094227 0.04418157921342635 0.08967748458194318 0.06237994136083308 0.06965928621979578 0.09695682944090588 0.21888585582853098 0.22252552825801233 0.18430896774845817 0.06286990508096035 0.06286990508096035 0.10106085985482971 0.12719151312116136 0.05482970407593523 0.056839754327191516 0.21965382467895028 0.16739251814628697 0.14729201563372415 </TABLE>
    </DEFINITION>
    <DEFINITION>
      <FOR>d05_lft_protein_3</FOR>
      <GIVEN>dhf_dx</GIVEN>
      <GIVEN>fever_day</GIVEN>
      <TABLE>0.011183732752360204 0.0007262164124909223 0.0007262164124909223 0.03209876543209877 0.03209876543209877 0.021641249092229486 0.13667392883079157 0.1262164124909223 0.638634713144517 0.0005275931201857128 0.0005275931201857128 0.03091695684288277 0.03091695684288277 0.061306320565579824 0.09929302521895114 0.1904611163870423 0.16007175266434526 0.42597868523794447 0.00034787448688513185 0.01036665970917693 0.015376052320322828 0.06546997843178182 0.04543240798719822 0.07047937104292772 0.23077993459959645 0.19070479371042928 0.3710429277116816 0.01687620342054593 0.025031147355306378 0.0005663155510250311 0.10658058670291086 0.033186091290066826 0.09027069883338996 0.2859893532676407 0.09842564276815041 0.34307396081096386 0.01452556121486512 0.01452556121486512 0.0552725900773439 0.01452556121486512 0.028107904169024714 0.09601961893982268 0.21826070552725899 0.15034899075646105 0.40841350688549327 0.06729787431541817 0.03388099879327949 0.04724774900213497 0.11408150004641232 0.06061449921099044 0.14081500046412326 0.1274482502552678 0.18091525109068968 0.22769887682168383 0.11705504896994258 0.06842283012495778 0.11705504896994258 0.10246538331644714 0.04896994258696386 0.09273893954745017 0.14137115839243497 0.11705504896994258 0.19486659912191825 0.13215948188625784 0.11758753288807934 0.04472778789718681 0.07387168589354381 0.08844363489172233 0.059299736895365315 0.11758753288807934 0.04472778789718681 0.3215948188625784 </TABLE>
    </DEFINITION>
    <DEFINITION>
      <FOR>d05_lft_protein_d</FOR>
      <GIVEN>dhf_dx</GIVEN>
      <TABLE>0.025983217066019616 0.03872207056920433 0.19522798503690222 0.24982307147912242 0.04236174299868568 0.12789404509149732 0.029622889495500963 0.2643817611970478 0.025983217066019616 0.06286990508096037 0.05482970407593524 0.2236739251814629 0.21362367392518147 0.0588498045784478 0.0930206588498046 0.04276940256839755 0.1975432719151312 0.05281965382467896 </TABLE>
    </DEFINITION>
    <DEFINITION>
      <FOR>d05_lymp_2</FOR>
      <GIVEN>dhf_dx</GIVEN>
      <TABLE>0.035082398139722984 0.15155191588312605 0.05692043271661106 0.02416338085127894 0.08603781215246184 0.05874026893135174 0.229804873116975 0.13517338995046 0.22252552825801233 0.09905080960357343 0.26990508096035737 0.06487995533221665 0.05683975432719152 0.0588498045784478 0.07493020658849806 0.19151312116136238 0.05482970407593524 0.12920156337241764 </TABLE>
    </DEFINITION>
    <DEFINITION>
      <FOR>d05_lymp_3</FOR>
      <GIVEN>dhf_dx</GIVEN>
      <TABLE>0.03872207056920433 0.009604691133353554 0.03326256192498231 0.1024163380851279 0.020523708421797595 0.33535537357193407 0.08967748458194318 0.11879486401779395 0.2516429076938631 0.05281965382467896 0.05683975432719152 0.06689000558347293 0.11513121161362369 0.0588498045784478 0.28196538246789504 0.11111111111111112 0.05281965382467896 0.20357342266890008 </TABLE>
    </DEFINITION>
    <DEFINITION>
      <FOR>d05_lymp_d</FOR>
      <GIVEN>dhf_dx</GIVEN>
      <TABLE>0.08603781215246184 0.09331715701142453 0.1024163380851279 0.3699322616520069 0.040541906783945 0.08785764836720251 0.015064199777575575 0.10787584672934991 0.09695682944090588 0.06085985482970408 0.05482970407593524 0.05281965382467896 0.3804578447794528 0.0588498045784478 0.06487995533221665 0.05482970407593524 0.11111111111111112 0.16136236739251816 </TABLE>
    </DEFINITION>
    <DEFINITION>
      <FOR>d05_pmn_1</FOR>
      <GIVEN>dhf_dx</GIVEN>
      <TABLE>0.04600141542816702 0.07875846729349914 0.20978667475482762 0.04418157921342635 0.08967748458194318 0.32989586492771206 0.04600141542816702 0.09149732079668385 0.06419977757557375 0.05482970407593524 0.05281965382467896 0.18749302065884982 0.07694025683975433 0.0689000558347292 0.3643774427694026 0.07895030709101061 0.05482970407593524 0.06085985482970408 </TABLE>
    </DEFINITION>
    <DEFINITION>
      <FOR>d05_pmn_2</FOR>
      <GIVEN>dhf_dx</GIVEN>
      <GIVEN>fever_day</GIVEN>
      <TABLE>0.0007262164124909223 0.0007262164124909223 0.03209876543209877 0.1680464778503994 0.042556281771968046 0.07392883079157589 0.07392883079157589 0.2517066085693537 0.35628177196804645 0.023319615912208505 0.0461116387042313 0.07650100242692835 0.39558932151524745 0.07650100242692835 0.10689036614962541 0.0461116387042313 0.14487707080299672 0.08409834335760262 0.11556390454324075 0.07047937104292769 0.14562026021011615 0.3710429277116815 0.11556390454324075 0.050441800598344105 0.02038544493146872 0.0604605858206359 0.050441800598344105 0.11473553063767132 0.09842564276815043 0.10658058670291087 0.3512289047457243 0.04134103522482728 0.06580586702910862 0.03318609129006683 0.09027069883338998 0.09842564276815043 0.0009432182607055273 0.04169024712318431 0.0009432182607055273 0.13676664780230147 0.10960196189398227 0.04169024712318431 0.15034899075646105 0.20467836257309943 0.3133371062063761 0.013830873479996286 0.06729787431541816 0.0739812494198459 0.42820012995451584 0.14081500046412324 0.06729787431541816 0.0739812494198459 0.08066462452427363 0.05393112410656269 0.08787571766295167 0.08787571766295167 0.058696386355960806 0.4477541371158391 0.12678149273893952 0.058696386355960806 0.04410672070246537 0.07328605200945625 0.014927389395474498 0.08844363489172233 0.14673143088443635 0.04472778789718681 0.45274235984618494 0.10301558388990083 0.04472778789718681 0.04472778789718681 0.07387168589354381 0.0010119409026512851 </TABLE>
    </DEFINITION>
    <DEFINITION>
      <FOR>d05_pmn_3</FOR>
      <GIVEN>dhf_dx</GIVEN>
      <TABLE>0.0678394500050551 0.13517338995046 0.03690223435446365 0.0951369932261652 0.031442725710241634 0.13335355373571933 0.14063289859468203 0.03690223435446365 0.32261652006874936 0.07493020658849804 0.08498045784477945 0.060859854829704074 0.07292015633724176 0.06689000558347293 0.08900055834729202 0.1653824678950307 0.08096035734226689 0.3040759352317141 </TABLE>
    </DEFINITION>
    <DEFINITION>
      <FOR>dhf_dx</FOR>
      <TABLE>0.5248328557784145 0.47516714422158546 </TABLE>
    </DEFINITION>
    <DEFINITION>
      <FOR>fever_day</FOR>
      <GIVEN>dhf_dx</GIVEN>
      <TABLE>0.17402183803457688 0.23953594176524112 0.3632848043676069 0.22315741583257506 0.14798994974874372 0.3007537688442211 0.41331658291457285 0.13793969849246232 </TABLE>
    </DEFINITION>
  </NETWORK>
</BIF>
