<?xml version='1.0' encoding='ISO-8859-1'?>
<smile version="1.0" id="Network2" numsamples="10000" discsamples="10000">
    <nodes>
        <cpt id="dhf_dx">
            <state id="0" />
            <state id="1" />
            <probabilities>0.5370370370370371 0.46296296296296297 </probabilities>
        </cpt>
        <cpt id="fever_day">
            <state id="-inf-2-5-" />
            <state id="-2-5-3-5-" />
            <state id="-3-5-4-5-" />
            <state id="-4-5-5-5-" />
            <state id="-5-5-inf-" />
            <probabilities>0.10860012554927809 0.20527306967984935 0.38292529817953547 0.24356559949780288 0.05963590709353421 </probabilities>
        </cpt>
        
        <cpt id="d03_hct_avg_2">
            <state id="-inf-36-944-" />
            <state id="-36-944-37-75-" />
            <state id="-37-75-38-25-" />
            <state id="-38-25-40-25-" />
            <state id="-40-25-41-25-" />
            <state id="-41-25-42-25-" />
            <state id="-42-25-44-75-" />
            <state id="-44-75-46-25-" />
            <state id="-46-25-inf-" />
            <probabilities>0.30206588498045783 0.10106085985482968 0.11111111111111109 0.30206588498045783 0.040759352317141256 0.06085985482970407 0.07091010608598547 0.0005583472920156336 0.01060859854829704 0.37572649572649586 0.14188034188034193 0.11111111111111116 0.2157264957264958 0.08649572649572652 0.01880341880341881 0.043418803418803435 0.000341880341880342 0.006495726495726498 0.34701962902935357 0.08770034215739242 0.08770034215739242 0.23680893210877008 0.07473437781379437 0.06176841347019631 0.07797586889969388 0.013146047181703585 0.013146047181703585 0.4020112828059849 0.12386558744174642 0.08413048810399806 0.18126073092960515 0.08854549914152567 0.044395388766249703 0.062055432916360086 0.009075300466028944 0.0046602894285013505 0.49667616334282993 0.03513770180436846 0.137701804368471 0.06932573599240265 0.03513770180436846 0.06932573599240265 0.10351377018043682 0.03513770180436846 0.018043684710351372 0.3136810279667422 0.08238851095993951 0.02796674225245653 0.25925925925925924 0.13681027966742249 0.05517762660619802 0.06878306878306877 0.04157218442932727 0.014361300075585788 0.2252617359000338 0.09760216143194868 0.061127997298210064 0.18878757176629518 0.09152313407632556 0.10976021614319488 0.14015535292131037 0.04289091523134076 0.04289091523134076 0.23235673484429709 0.10300350101345129 0.05325225723235675 0.19255573981942145 0.09637000184263868 0.09305325225723238 0.1394877464529206 0.043302008476137833 0.04661875806154414 0.14895080839353286 0.09322325421396628 0.025111799105607156 0.24183006535947713 0.09941520467836258 0.07464740282077743 0.2665978672170623 0.03130374957000344 0.01891984864121087 0.24809741248097408 0.13850837138508368 0.028919330289193298 0.22070015220700148 0.0015220700152206999 0.16590563165905628 0.08371385083713849 0.05631659056316589 0.05631659056316589 </probabilities>
            <parents>dhf_dx fever_day</parents>
        </cpt>
        <cpt id="d03_hct_avg_d">
            <state id="-inf-3-25-" />
            <state id="-3-25-2-25-" />
            <state id="-2-25-1-625-" />
            <state id="-1-625-1-25-" />
            <state id="-1-25-0-297-" />
            <state id="-0-297-2-75-" />
            <state id="-2-75-3-25-" />
            <state id="-3-25-4-25-" />
            <state id="-4-25-inf-" />
            <probabilities>0.037729722709266826 0.07045912072212479 0.07981037729722706 0.06344567829079809 0.4035976362101434 0.29605818559646724 0.022533930774725628 0.01552048834339892 0.01084486005584778 0.06681732580037662 0.045122410546139344 0.042410546139359684 0.042410546139359684 0.3366478342749528 0.32037664783427483 0.05054613935969867 0.043766478342749514 0.0519020715630885 </probabilities>
            <parents>dhf_dx</parents>
        </cpt>
        <cpt id="d03_intake_diff_1">
            <state id="-inf-325-0-" />
            <state id="-325-0-385-0-" />
            <state id="-385-0-472-5-" />
            <state id="-472-5-552-5-" />
            <state id="-552-5-605-0-" />
            <state id="-605-0-807-5-" />
            <state id="-807-5-1010-0-" />
            <state id="-1010-0-1175-0-" />
            <state id="-1175-0-inf-" />
            <probabilities>0.5929605818559645 0.022533930774725628 0.0774725631534515 0.06344567829079809 0.02604065199038898 0.11370868238197282 0.05409442171569581 0.012013767127735565 0.037729722709266826 0.5780037664783426 0.041054613935969854 0.042410546139359684 0.05868173258003765 0.05054613935969867 0.07359698681732578 0.05596986817325799 0.036986817325800364 0.06274952919020714 </probabilities>
            <parents>dhf_dx</parents>
        </cpt>
        <cpt id="d03_intake_diff_2">
            <state id="-inf-16-5-" />
            <state id="-16-5-20-0-" />
            <state id="-20-0-297-5-" />
            <state id="-297-5-542-5-" />
            <state id="-542-5-605-0-" />
            <state id="-605-0-1525-0-" />
            <state id="-1525-0-1905-0-" />
            <state id="-1905-0-2275-0-" />
            <state id="-2275-0-inf-" />
            <probabilities>0.1148775894538606 0.2142346905643223 0.10435742580687055 0.1441002662510552 0.02604065199038898 0.33112539775310074 0.03539190856549126 0.01084486005584778 0.019027209559062272 0.06139359698681732 0.23495291902071558 0.07630885122410545 0.07224105461393596 0.03969868173258003 0.32444444444444437 0.06681732580037664 0.06274952919020715 0.06139359698681732 </probabilities>
            <parents>dhf_dx</parents>
        </cpt>
        <cpt id="d03_intake_diff_d">
            <state id="-inf-615-0-" />
            <state id="-615-0-667-5-" />
            <state id="-667-5-745-0-" />
            <state id="-745-0-910-0-" />
            <state id="-910-0-1060-0-" />
            <state id="-1060-0-1205-0-" />
            <state id="-1205-0-1570-0-" />
            <state id="-1570-0-1790-0-" />
            <state id="-1790-0-inf-" />
            <probabilities>0.09149944801610489 0.6969933112539772 0.01902720955906227 0.06578349243457364 0.03772972270926682 0.020196116630950053 0.04123644392493017 0.005000324696408855 0.02253393077472562 0.03969868173258002 0.6471563088512238 0.035630885122410534 0.04376647834274951 0.047834274952919 0.036986817325800364 0.04105461393596985 0.03834274952919019 0.06952919020715628 </probabilities>
            <parents>dhf_dx</parents>
        </cpt>
        <cpt id="d03_pulse_pre_min_1">
            <state id="-inf-40-5-" />
            <state id="-40-5-46-5-" />
            <state id="-46-5-inf-" />
            <probabilities>0.8788233002142996 0.05357490746152347 0.06760179232417689 0.879774011299435 0.06892655367231637 0.05129943502824858 </probabilities>
            <parents>dhf_dx</parents>
        </cpt>
        <cpt id="d03_pulse_pre_min_2">
            <state id="-inf-25-5-" />
            <state id="-25-5-35-5-" />
            <state id="-35-5-38-5-" />
            <state id="-38-5-inf-" />
            <probabilities>0.017095265926358856 0.6880479251899474 0.0919053185271771 0.20295149035651666 0.05508474576271186 0.6896610169491525 0.06593220338983051 0.1893220338983051 </probabilities>
            <parents>dhf_dx</parents>
        </cpt>
        <cpt id="d03_pulse_pre_min_d">
            <state id="-inf-15-5-" />
            <state id="-15-5-10-5-" />
            <state id="-10-5-6-5-" />
            <state id="-6-5-4-5-" />
            <state id="-4-5-2-5-" />
            <state id="-2-5-0-5-" />
            <state id="-0-5-1-5-" />
            <state id="-1-5-6-5-" />
            <state id="-6-5-inf-" />
            <probabilities>0.05058770050003247 0.02253393077472563 0.23761283200207806 0.04123644392493019 0.03772972270926683 0.06812130657834925 0.4035976362101435 0.06929021365023703 0.06929021365023703 0.03969868173258004 0.03698681732580038 0.2552919020715631 0.055969868173258004 0.057325800376647834 0.049190207156308854 0.4085122410546139 0.054613935969868174 0.0424105461393597 </probabilities>
            <parents>dhf_dx</parents>
        </cpt>
        <cpt id="d03_pulse_rate_range_1">
            <state id="-inf-5-0-" />
            <state id="-5-0-7-5-" />
            <state id="-7-5-13-0-" />
            <state id="-13-0-14-5-" />
            <state id="-14-5-17-5-" />
            <state id="-17-5-19-5-" />
            <state id="-19-5-24-5-" />
            <state id="-24-5-35-0-" />
            <state id="-35-0-inf-" />
            <probabilities>0.18968764205467886 0.03656081563737905 0.2352750178583025 0.06110786414702254 0.04941879342814469 0.04357425806870576 0.17799857133580102 0.14410026625105526 0.06227677121891032 0.18613935969868173 0.06817325800376647 0.215969868173258 0.04376647834274953 0.08715630885122409 0.046478342749529195 0.17122410546139358 0.11020715630885121 0.07088512241054613 </probabilities>
            <parents>dhf_dx</parents>
        </cpt>
        <cpt id="d03_pulse_rate_range_2">
            <state id="-inf-9-0-" />
            <state id="-9-0-12-5-" />
            <state id="-12-5-19-5-" />
            <state id="-19-5-21-5-" />
            <state id="-21-5-23-0-" />
            <state id="-23-0-25-0-" />
            <state id="-25-0-35-5-" />
            <state id="-35-5-39-0-" />
            <state id="-39-0-inf-" />
            <probabilities>0.05877005000324696 0.09968179751931942 0.24813299564906813 0.11370868238197285 0.0716280277940126 0.07981037729722709 0.2574842522241704 0.030716280277940128 0.04006753685304241 0.04105461393596987 0.09935969868173257 0.22410546139359697 0.09122410546139359 0.08851224105461393 0.06410546139359699 0.25122410546139357 0.07088512241054613 0.06952919020715631 </probabilities>
            <parents>dhf_dx</parents>
        </cpt>
        <cpt id="d03_temp_min_1">
            <state id="-inf-36-593-" />
            <state id="-36-593-36-85-" />
            <state id="-36-85-37-15-" />
            <state id="-37-15-37-45-" />
            <state id="-37-45-37-75-" />
            <state id="-37-75-37-85-" />
            <state id="-37-85-38-35-" />
            <state id="-38-35-38-55-" />
            <state id="-38-55-inf-" />
            <probabilities>0.0774725631534515 0.0996817975193194 0.16397168647314755 0.10318851873498276 0.15929605818559642 0.027209559062276765 0.1768296642639132 0.03889862978115461 0.15345152282615748 0.07088512241054613 0.06410546139359699 0.09529190207156309 0.11291902071563088 0.14817325800376646 0.04105461393596987 0.1847834274952919 0.08444444444444445 0.1983427495291902 </probabilities>
            <parents>dhf_dx</parents>
        </cpt>
        <cpt id="d03_temp_min_2">
            <state id="-inf-36-65-" />
            <state id="-36-65-36-75-" />
            <state id="-36-75-36-95-" />
            <state id="-36-95-37-15-" />
            <state id="-37-15-37-45-" />
            <state id="-37-45-37-55-" />
            <state id="-37-55-37-75-" />
            <state id="-37-75-38-15-" />
            <state id="-38-15-inf-" />
            <probabilities>0.4258068705760113 0.08214819144100263 0.12656666017273846 0.11838431066952396 0.09383726215988047 0.030716280277940117 0.03539190856549126 0.04708097928436911 0.040067536853042394 0.32986817325800366 0.042410546139359684 0.10885122410546136 0.1156308851224105 0.11020715630885118 0.047834274952919004 0.05732580037664782 0.11156308851224102 0.07630885122410544 </probabilities>
            <parents>dhf_dx</parents>
        </cpt>
        <cpt id="d03_temp_min_d">
            <state id="-inf-2-35-" />
            <state id="-2-35-1-95-" />
            <state id="-1-95-1-75-" />
            <state id="-1-75-1-45-" />
            <state id="-1-45-1-35-" />
            <state id="-1-35-0-85-" />
            <state id="-0-85-0-35-" />
            <state id="-0-35-0-95-" />
            <state id="-0-95-inf-" />
            <probabilities>0.07045912072212482 0.038898629781154624 0.038898629781154624 0.08799272680044158 0.020196116630950063 0.20722124813299564 0.2037145269173323 0.3182674199623352 0.014351581271511139 0.06410546139359699 0.054613935969868174 0.049190207156308854 0.06546139359698681 0.03969868173258004 0.1752919020715631 0.18613935969868173 0.3285122410546139 0.03698681732580038 </probabilities>
            <parents>dhf_dx</parents>
        </cpt>
        <cpt id="d04_ab_circum_1">
            <state id="-inf-46-25-" />
            <state id="-46-25-54-269-" />
            <state id="-54-269-57-576-" />
            <state id="-57-576-59-091-" />
            <state id="-59-091-59-865-" />
            <state id="-59-865-61-108-" />
            <state id="-61-108-65-75-" />
            <state id="-65-75-69-75-" />
            <state id="-69-75-inf-" />
            <probabilities>0.08916163387232934 0.3965841937788167 0.10669523995064611 0.09734398337554383 0.0014936034807455025 0.04240535099681796 0.0622767712189103 0.05175660757192024 0.1522826157542697 0.050546139359698684 0.3108851224105461 0.12105461393596986 0.060037664783427494 0.06681732580037665 0.060037664783427494 0.12241054613935969 0.06410546139359699 0.14410546139359698 </probabilities>
            <parents>dhf_dx</parents>
        </cpt>
        <cpt id="d04_ab_circum_d">
            <state id="-inf-0-132-" />
            <state id="-0-132-0-404-" />
            <state id="-0-404-0-786-" />
            <state id="-0-786-1-25-" />
            <state id="-1-25-2-369-" />
            <state id="-2-369-inf-" />
            <probabilities>0.14075589323982082 0.6235145139294761 0.02386518605104228 0.10802649522696282 0.05191895577634913 0.05191895577634913 0.07649717514124295 0.6500564971751414 0.08598870056497177 0.06971751412429379 0.050734463276836166 0.06700564971751413 </probabilities>
            <parents>dhf_dx</parents>
        </cpt>
        <cpt id="d04_abdominal_1">
            <state id="1" />
            <state id="2" />
            <probabilities>0.9673366834170855 0.032663316582914576 0.9246153846153846 0.07538461538461538 0.8695299837925445 0.13047001620745544 0.8311258278145696 0.16887417218543047 0.8418803418803419 0.1581196581196581 0.9965986394557823 0.003401360544217687 0.8951367781155015 0.10486322188449848 0.8366500829187397 0.16334991708126037 0.7198142414860681 0.2801857585139319 0.7191780821917808 0.2808219178082192 </probabilities>
            <parents>dhf_dx fever_day</parents>
        </cpt>
        <cpt id="d04_abdominal_2">
            <state id="1" />
            <state id="2" />
            <probabilities>0.8768844221105527 0.12311557788944724 0.7830769230769231 0.2169230769230769 0.7820097244732577 0.2179902755267423 0.760485651214128 0.23951434878587197 0.7222222222222222 0.2777777777777778 0.8333333333333334 0.16666666666666666 0.6884498480243161 0.31155015197568386 0.6044776119402985 0.39552238805970147 0.4040247678018576 0.5959752321981424 0.5 0.5 </probabilities>
            <parents>dhf_dx fever_day</parents>
        </cpt>
        <cpt id="d04_clear_1">
            <state id="1" />
            <state id="2" />
            <probabilities>0.9436002337814143 0.056399766218585626 0.9888135593220339 0.011186440677966102 </probabilities>
            <parents>dhf_dx</parents>
        </cpt>
        <cpt id="d04_diarrhea_1">
            <state id="1" />
            <state id="2" />
            <probabilities>0.9342489772063121 0.0657510227936879 0.8884745762711864 0.11152542372881356 </probabilities>
            <parents>dhf_dx</parents>
        </cpt>
        <cpt id="d04_injected_1">
            <state id="1" />
            <state id="2" />
            <probabilities>0.9450867052023122 0.05491329479768786 0.9036697247706422 0.0963302752293578 0.8926229508196721 0.10737704918032787 0.8621134020618557 0.13788659793814434 0.8473684210526315 0.15263157894736842 </probabilities>
            <parents>fever_day</parents>
        </cpt>
        <cpt id="d04_injected_2">
            <state id="1" />
            <state id="2" />
            <probabilities>0.8886616014026885 0.11133839859731151 0.8179661016949152 0.18203389830508473 </probabilities>
            <parents>dhf_dx</parents>
        </cpt>
        <cpt id="d05_ast_alt_1">
            <state id="-inf-0-974-" />
            <state id="-0-974-1-123-" />
            <state id="-1-123-1-248-" />
            <state id="-1-248-1-343-" />
            <state id="-1-343-1-392-" />
            <state id="-1-392-1-63-" />
            <state id="-1-63-1-717-" />
            <state id="-1-717-1-771-" />
            <state id="-1-771-inf-" />
            <probabilities>0.09734398337554385 0.05877005000324696 0.09149944801610493 0.07045912072212482 0.013182674199623353 0.1265666601727385 0.05058770050003247 0.01785830248717449 0.4737320605234106 0.03563088512241055 0.051902071563088514 0.061393596986817324 0.03698681732580038 0.03698681732580038 0.12241054613935969 0.03563088512241055 0.0424105461393597 0.5766478342749529 </probabilities>
            <parents>dhf_dx</parents>
        </cpt>
        <cpt id="d05_ast_alt_d">
            <state id="-inf-3-5-" />
            <state id="-3-5-12-5-" />
            <state id="-12-5-28-5-" />
            <state id="-28-5-40-5-" />
            <state id="-40-5-47-5-" />
            <state id="-47-5-63-5-" />
            <state id="-63-5-94-5-" />
            <state id="-94-5-279-0-" />
            <state id="-279-0-inf-" />
            <probabilities>0.18561335902376364 0.15671162491971738 0.34746307000642257 0.11624919717405265 0.041104688503532424 0.05844572896596017 0.02954399486191393 0.05266538214515092 0.01220295439948619 0.14712878015630312 0.12266394835202178 0.2572205232755692 0.15936119605844382 0.06455997281685356 0.09819911654774043 0.06455997281685356 0.07373428474345907 0.012572205232755693 0.0690346083788707 0.07887067395264119 0.20510018214936251 0.12805100182149365 0.07559198542805103 0.12805100182149365 0.12149362477231332 0.1591985428051002 0.03460837887067396 0.0982245131729668 0.0827605956471936 0.1497709049255441 0.10853379152348225 0.04667812142038946 0.14719358533791524 0.12142038946162659 0.17812142038946163 0.06729667812142039 0.1485380116959064 0.11695906432748536 0.23274853801169587 0.095906432748538 0.05380116959064326 0.04327485380116958 0.06432748538011694 0.1590643274853801 0.0853801169590643 </probabilities>
            <parents>fever_day</parents>
        </cpt>
        <cpt id="d05_atyp_2">
            <state id="-inf-0-0912-" />
            <state id="-0-0912-0-974-" />
            <state id="-0-974-1-374-" />
            <state id="-1-374-1-705-" />
            <state id="-1-705-3-364-" />
            <state id="-3-364-3-735-" />
            <state id="-3-735-3-954-" />
            <state id="-3-954-4-473-" />
            <state id="-4-473-inf-" />
            <probabilities>0.42113124228846016 0.020196116630950056 0.03305409442171569 0.04824988635625689 0.3124228846028962 0.07162802779401257 0.022533930774725628 0.05292551464380803 0.017858302487174488 0.3217325800376647 0.05054613935969867 0.035630885122410534 0.039698681732580024 0.3813935969868172 0.05868173258003765 0.041054613935969854 0.035630885122410534 0.035630885122410534 </probabilities>
            <parents>dhf_dx</parents>
        </cpt>
        <cpt id="d05_band_1">
            <state id="-inf-1-321-" />
            <state id="-1-321-2-008-" />
            <state id="-2-008-3-443-" />
            <state id="-3-443-inf-" />
            <probabilities>0.8926066627703098 0.02060198714202221 0.07203389830508475 0.014757451782583284 0.8455932203389831 0.05508474576271186 0.06186440677966102 0.03745762711864407 </probabilities>
            <parents>dhf_dx</parents>
        </cpt>
        <cpt id="d05_eosin_1">
            <state id="-inf-0-644-" />
            <state id="-0-644-0-25-" />
            <state id="-0-25-0-768-" />
            <state id="-0-768-1-447-" />
            <state id="-1-447-1-864-" />
            <state id="-1-864-inf-" />
            <probabilities>0.01918955776349114 0.8000194817845316 0.01918955776349114 0.06243911942333919 0.027371907266705638 0.07179037599844147 0.038531073446327696 0.7775141242937855 0.04259887005649719 0.05887005649717516 0.035819209039548036 0.046666666666666676 </probabilities>
            <parents>dhf_dx</parents>
        </cpt>
        <cpt id="d05_eosin_2">
            <state id="-inf-0-574-" />
            <state id="-0-574-0-886-" />
            <state id="-0-886-1-558-" />
            <state id="-1-558-2-24-" />
            <state id="-2-24-inf-" />
            <probabilities>0.7147866744593805 0.03565166569257744 0.09877264757451783 0.07071887784921099 0.08007013442431327 0.8074576271186441 0.03728813559322034 0.0576271186440678 0.06169491525423729 0.03593220338983051 </probabilities>
            <parents>dhf_dx</parents>
        </cpt>
        <cpt id="d05_lft_alt_1">
            <state id="-inf-18-5-" />
            <state id="-18-5-21-5-" />
            <state id="-21-5-32-5-" />
            <state id="-32-5-34-5-" />
            <state id="-34-5-37-5-" />
            <state id="-37-5-45-5-" />
            <state id="-45-5-47-5-" />
            <state id="-47-5-245-0-" />
            <state id="-245-0-inf-" />
            <probabilities>0.15111370868238197 0.038898629781154624 0.23644392493019026 0.04591207221248133 0.08448600558477823 0.1405935450353919 0.021365023702837847 0.2726800441587116 0.008507045912072212 0.051902071563088514 0.03698681732580038 0.12376647834274952 0.04512241054613936 0.053258003766478344 0.13868173258003766 0.051902071563088514 0.45461393596986815 0.04376647834274953 </probabilities>
            <parents>dhf_dx</parents>
        </cpt>
        <cpt id="d05_lft_alt_d">
            <state id="-inf-14-5-" />
            <state id="-14-5-3-5-" />
            <state id="-3-5-0-5-" />
            <state id="-0-5-0-5-" />
            <state id="-0-5-2-5-" />
            <state id="-2-5-8-5-" />
            <state id="-8-5-29-5-" />
            <state id="-29-5-63-5-" />
            <state id="-63-5-inf-" />
            <probabilities>0.016689395415286704 0.06578349243457365 0.11721540359763617 0.5123059938957074 0.07864147022533928 0.1008507045912072 0.06812130657834922 0.020196116630950056 0.020196116630950056 0.047834274952919004 0.05325800376647833 0.036986817325800364 0.5780037664783426 0.043766478342749514 0.07630885122410544 0.08580037664783426 0.042410546139359684 0.035630885122410534 </probabilities>
            <parents>dhf_dx</parents>
        </cpt>
        <cpt id="d05_lft_ast_1">
            <state id="-inf-34-5-" />
            <state id="-34-5-40-5-" />
            <state id="-40-5-46-5-" />
            <state id="-46-5-52-5-" />
            <state id="-52-5-61-5-" />
            <state id="-61-5-75-5-" />
            <state id="-75-5-134-5-" />
            <state id="-134-5-407-0-" />
            <state id="-407-0-inf-" />
            <probabilities>0.39251814628699044 0.09101060859854829 0.17141261864879956 0.06085985482970407 0.06085985482970407 0.10106085985482968 0.09101060859854829 0.030709101060859847 0.0005583472920156336 0.2095726495726496 0.12341880341880343 0.14803418803418805 0.10495726495726497 0.10495726495726497 0.11726495726495728 0.12341880341880343 0.06188034188034188 0.006495726495726496 0.12335674410228709 0.06176841347019631 0.11687376193048805 0.10066630650099048 0.10066630650099048 0.1687376193048803 0.23356744102287058 0.08121735998559339 0.013146047181703585 0.05322541084130488 0.048810399803777285 0.10620554329163602 0.062055432916360065 0.11062055432916361 0.1856757419671327 0.2651459406426294 0.15918567574196715 0.009075300466028943 0.1547958214624881 0.08641975308641973 0.06932573599240265 0.06932573599240265 0.10351377018043684 0.08641975308641973 0.1718898385565052 0.25735992402659064 0.0009496676163342828 0.12320483749055178 0.10959939531368103 0.08238851095993953 0.08238851095993953 0.164021164021164 0.10959939531368103 0.164021164021164 0.10959939531368103 0.05517762660619803 0.03681188787571766 0.09760216143194868 0.09152313407632556 0.061127997298210064 0.09760216143194868 0.15231340763255657 0.3164471462343803 0.12191827085444108 0.02465383316447146 0.036668509305325225 0.02340151096370002 0.033351759719918925 0.06983600515938825 0.12622074811129538 0.10300350101345127 0.29537497696701676 0.2622074811129538 0.049935507646950435 0.012727898176814583 0.012727898176814583 0.0003439972480220158 0.037495700034399726 0.043687650498796006 0.09322325421396628 0.28517371861025115 0.40901272789817683 0.10560715514275887 0.028919330289193305 0.0015220700152207 0.0015220700152207 0.028919330289193305 0.028919330289193305 0.0015220700152207 0.3576864535768645 0.3850837138508371 0.1659056316590563 </probabilities>
            <parents>dhf_dx fever_day</parents>
        </cpt>
        <cpt id="d05_lft_protein_1">
            <state id="-inf-5-45-" />
            <state id="-5-45-5-918-" />
            <state id="-5-918-6-05-" />
            <state id="-6-05-6-15-" />
            <state id="-6-15-6-25-" />
            <state id="-6-25-6-95-" />
            <state id="-6-95-7-15-" />
            <state id="-7-15-7-55-" />
            <state id="-7-55-inf-" />
            <probabilities>0.009675952983959998 0.05058770050003247 0.02253393077472563 0.02253393077472563 0.04006753685304241 0.45502954737320606 0.11955321774141177 0.16514059354503538 0.11487758945386063 0.06410546139359699 0.07766478342749529 0.04512241054613936 0.049190207156308854 0.049190207156308854 0.3976647834274953 0.12783427495291902 0.12241054613935969 0.06681732580037665 </probabilities>
            <parents>dhf_dx</parents>
        </cpt>
        <cpt id="d05_lft_protein_2">
            <state id="-inf-4-95-" />
            <state id="-4-95-5-35-" />
            <state id="-5-35-5-55-" />
            <state id="-5-55-5-865-" />
            <state id="-5-865-6-15-" />
            <state id="-6-15-6-25-" />
            <state id="-6-25-6-45-" />
            <state id="-6-45-7-15-" />
            <state id="-7-15-inf-" />
            <probabilities>0.002662510552633288 0.008507045912072212 0.013182674199623353 0.05058770050003247 0.10552633287875836 0.047080979284369114 0.1557893369699331 0.45502954737320606 0.16163387232937204 0.04376647834274953 0.061393596986817324 0.03969868173258004 0.08173258003766479 0.13461393596986818 0.07766478342749529 0.09935969868173257 0.37054613935969866 0.09122410546139359 </probabilities>
            <parents>dhf_dx</parents>
        </cpt>
        <cpt id="d05_lft_protein_d">
            <state id="-inf-1-45-" />
            <state id="-1-45-1-15-" />
            <state id="-1-15-0-95-" />
            <state id="-0-95-0-75-" />
            <state id="-0-75-0-625-" />
            <state id="-0-625-0-45-" />
            <state id="-0-45-0-25-" />
            <state id="-0-25-0-0616-" />
            <state id="-0-0616-inf-" />
            <probabilities>0.0005583472920156337 0.010608598548297042 0.030709101060859854 0.020658849804578445 0.0005583472920156337 0.030709101060859854 0.060859854829704074 0.010608598548297042 0.8347292015633724 0.012649572649572649 0.0003418803418803419 0.018803418803418803 0.043418803418803414 0.024957264957264955 0.043418803418803414 0.12957264957264958 0.07418803418803419 0.6526495726495727 0.00990455609580407 0.006663065009904556 0.03583648478300018 0.04556095804069872 0.022870520439402124 0.09418332432919144 0.07473437781379436 0.0877003421573924 0.6225463713308121 0.009075300466028943 0.022320333578611722 0.048810399803777285 0.10179053225410842 0.022320333578611722 0.09296051017905323 0.1150355653666912 0.08413048810399805 0.5035565366691195 0.0009496676163342829 0.03513770180436847 0.052231718898385564 0.018043684710351376 0.018043684710351376 0.052231718898385564 0.2060778727445394 0.08641975308641975 0.5308641975308642 0.0007558578987150415 0.0007558578987150415 0.0007558578987150415 0.0007558578987150415 0.01436130007558579 0.06878306878306878 0.01436130007558579 0.01436130007558579 0.8851095993953138 0.03681188787571766 0.04289091523134076 0.01249577845322526 0.01857480580884836 0.01857480580884836 0.04896994258696386 0.02465383316447146 0.05504896994258696 0.7419790611279973 0.013451262207481112 0.05656900681776304 0.05656900681776304 0.039985258890731526 0.04330200847613783 0.04330200847613783 0.049935507646950435 0.039985258890731526 0.6569006817763037 0.09941520467836258 0.08083935328517372 0.03130374957000344 0.05607155142758858 0.04987960096319229 0.08703130374957001 0.037495700034399726 0.043687650498796006 0.5142758857929136 0.1659056316590563 0.028919330289193305 0.0563165905631659 0.0563165905631659 0.0563165905631659 0.0563165905631659 0.0015220700152207 0.028919330289193305 0.5494672754946728 </probabilities>
            <parents>dhf_dx fever_day</parents>
        </cpt>
        <cpt id="d05_lymp_1">
            <state id="-inf-3-547-" />
            <state id="-3-547-3-78-" />
            <state id="-3-78-3-903-" />
            <state id="-3-903-4-353-" />
            <state id="-4-353-4-401-" />
            <state id="-4-401-4-573-" />
            <state id="-4-573-4-833-" />
            <state id="-4-833-5-238-" />
            <state id="-5-238-inf-" />
            <probabilities>0.01902720955906228 0.038898629781154624 0.021365023702837847 0.23761283200207806 0.027209559062276772 0.14526917332294303 0.20488343398922007 0.19436327034223 0.11137086823819728 0.046478342749529195 0.053258003766478344 0.047834274952919024 0.28376647834274954 0.04376647834274953 0.15630885122410546 0.14817325800376646 0.17122410546139358 0.049190207156308854 </probabilities>
            <parents>dhf_dx</parents>
        </cpt>
        <cpt id="d05_lymp_2">
            <state id="-inf-3-674-" />
            <state id="-3-674-3-855-" />
            <state id="-3-855-4-374-" />
            <state id="-4-374-4-427-" />
            <state id="-4-427-4-461-" />
            <state id="-4-461-4-772-" />
            <state id="-4-772-4-82-" />
            <state id="-4-82-5-615-" />
            <state id="-5-615-inf-" />
            <probabilities>0.015520488343398923 0.009675952983959998 0.1253977531008507 0.028378466134164556 0.01785830248717449 0.23176829664263912 0.01902720955906228 0.48074550295473734 0.0716280277940126 0.03563088512241055 0.03834274952919021 0.2430885122410546 0.03563088512241055 0.04376647834274953 0.20512241054613936 0.04512241054613936 0.2946139359698682 0.058681732580037664 </probabilities>
            <parents>dhf_dx</parents>
        </cpt>
        <cpt id="d05_lymp_d">
            <state id="-inf-0-388-" />
            <state id="-0-388-0-294-" />
            <state id="-0-294-0-196-" />
            <state id="-0-196-0-139-" />
            <state id="-0-139-0-0904-" />
            <state id="-0-0904-0-509-" />
            <state id="-0-509-0-762-" />
            <state id="-0-762-0-844-" />
            <state id="-0-844-inf-" />
            <probabilities>0.08448600558477823 0.016689395415286707 0.04123644392493019 0.015520488343398923 0.016689395415286707 0.5064614585362686 0.16630950061692318 0.021365023702837847 0.13124228846028962 0.11020715630885121 0.03698681732580038 0.03563088512241055 0.04105461393596987 0.03563088512241055 0.455969868173258 0.10613935969868173 0.03969868173258004 0.13868173258003766 </probabilities>
            <parents>dhf_dx</parents>
        </cpt>
        <cpt id="d05_pmn_1">
            <state id="-inf-3-938-" />
            <state id="-3-938-4-388-" />
            <state id="-4-388-4-727-" />
            <state id="-4-727-4-96-" />
            <state id="-4-96-4-997-" />
            <state id="-4-997-5-98-" />
            <state id="-5-98-6-106-" />
            <state id="-6-106-6-446-" />
            <state id="-6-446-inf-" />
            <probabilities>0.021365023702837844 0.09033054094421714 0.10786414702253391 0.13474900967595296 0.014351581271511137 0.4842522241704006 0.028378466134164552 0.06461458536268588 0.05409442171569582 0.04376647834274952 0.0383427495291902 0.11969868173258001 0.09935969868173256 0.0383427495291902 0.5332580037664783 0.04783427495291902 0.0383427495291902 0.04105461393596986 </probabilities>
            <parents>dhf_dx</parents>
        </cpt>
        <cpt id="d05_pmn_2">
            <state id="-inf-3-418-" />
            <state id="-3-418-3-862-" />
            <state id="-3-862-4-162-" />
            <state id="-4-162-4-298-" />
            <state id="-4-298-4-862-" />
            <state id="-4-862-5-35-" />
            <state id="-5-35-5-567-" />
            <state id="-5-567-5-862-" />
            <state id="-5-862-inf-" />
            <probabilities>0.0005583472920156336 0.0005583472920156336 0.0005583472920156336 0.030709101060859847 0.1312116136236739 0.22166387493020656 0.19151312116136235 0.19151312116136235 0.23171412618648798 0.01880341880341881 0.024957264957264965 0.07418803418803421 0.0618803418803419 0.35111111111111126 0.26495726495726507 0.104957264957265 0.043418803418803435 0.055726495726495746 0.029353502611201156 0.10390779758688999 0.12659823518818658 0.10714928867278951 0.3275706825139565 0.19791103907797591 0.04556095804069873 0.026112011525301643 0.03583648478300019 0.06647044395388768 0.07971547706647047 0.1415256315918568 0.07088545499141528 0.34020112828059856 0.16801569781702236 0.0488103998037773 0.017905322541084134 0.06647044395388768 0.06932573599240265 0.05223171889838556 0.12060778727445393 0.10351377018043684 0.25735992402659064 0.1547958214624881 0.12060778727445393 0.06932573599240265 0.05223171889838556 0.0007558578987150415 0.0007558578987150415 0.04157218442932729 0.0007558578987150415 0.10959939531368103 0.327286470143613 0.164021164021164 0.12320483749055178 0.23204837490551777 0.012495778453225265 0.006416751097602163 0.10976021614319491 0.055048969942586984 0.3590003377237421 0.3346842283012497 0.055048969942586984 0.042890915231340775 0.02465383316447147 0.04661875806154414 0.04993550764695044 0.1129537497696702 0.04993550764695044 0.37829371660217437 0.2688409802837664 0.05325225723235675 0.03666850930532523 0.003501013451262208 0.062263501891984874 0.05607155142758859 0.11799105607155146 0.04368765049879601 0.3780529755761955 0.2232542139662883 0.0498796009631923 0.0498796009631923 0.018919848641210872 0.028919330289193298 0.13850837138508368 0.13850837138508368 0.028919330289193298 0.24809741248097408 0.22070015220700148 0.08371385083713849 0.08371385083713849 0.028919330289193298 </probabilities>
            <parents>dhf_dx fever_day</parents>
        </cpt>
        <cpt id="d05_pmn_d">
            <state id="-inf-1-289-" />
            <state id="-1-289-1-122-" />
            <state id="-1-122-0-976-" />
            <state id="-0-976-0-886-" />
            <state id="-0-886-0-848-" />
            <state id="-0-848-0-415-" />
            <state id="-0-415-0-118-" />
            <state id="-0-118-0-298-" />
            <state id="-0-298-inf-" />
            <probabilities>0.06085985482970407 0.020658849804578442 0.040759352317141256 0.08096035734226688 0.020658849804578442 0.4829704075935231 0.281965382467895 0.0005583472920156336 0.01060859854829704 0.09880341880341881 0.06188034188034188 0.06803418803418804 0.09880341880341881 0.018803418803418803 0.3141880341880342 0.29572649572649573 0.006495726495726496 0.037264957264957266 0.07149288672789483 0.07473437781379436 0.06176841347019629 0.06825139564199532 0.019629029353502612 0.2465334053664686 0.35998559337295155 0.039077975868899696 0.058526922384296784 0.08854549914152564 0.04439538876624969 0.022320333578611722 0.035565366691194505 0.01790532254108413 0.269560951680157 0.37993622761834683 0.04439538876624969 0.09737552121658083 0.03513770180436847 0.018043684710351376 0.03513770180436847 0.052231718898385564 0.018043684710351376 0.15479582146248813 0.4453941120607788 0.08641975308641975 0.15479582146248813 0.1368102796674225 0.08238851095993953 0.10959939531368103 0.05517762660619803 0.027966742252456534 0.381708238851096 0.20483749055177627 0.0007558578987150415 0.0007558578987150415 0.10976021614319488 0.04289091523134076 0.07936507936507936 0.05504896994258696 0.08544410672070246 0.2921310368118879 0.2678149273893955 0.02465383316447146 0.04289091523134076 0.06983600515938825 0.02671826054910632 0.049935507646950435 0.020084761378293715 0.016768011792887415 0.38492721577298694 0.3451262207481113 0.04661875806154413 0.039985258890731526 0.04987960096319229 0.025111799105607156 0.04987960096319229 0.037495700034399726 0.037495700034399726 0.24183006535947713 0.39662882696938423 0.11799105607155144 0.043687650498796006 0.1385083713850837 0.028919330289193305 0.0015220700152207 0.0837138508371385 0.0015220700152207 0.0563165905631659 0.3576864535768645 0.1385083713850837 0.1933028919330289 </probabilities>
            <parents>dhf_dx fever_day</parents>
        </cpt>

    </nodes>
    <extensions>
        <genie version="1.0" app="GeNIe 3.0.6518.0 ACADEMIC" name="DHF" />
        <node id="d03_hct_avg_2">
            <name>d03_hct_avg_2</name>
            <interior color="C0E8D5" />
            <outline color="000000" width="3" />
            <font color="000000" name="Arial" size="14" />
            <position>1524 428 1564 453</position>
            <barchart active="true" width="100" height="120" />
        </node>
        <node id="d03_hct_avg_d">
            <name>d03_hct_avg_d</name>
            <interior color="915C83" />
            <outline color="000000" width="3" />
            <font color="000000" name="Arial" size="14" />
            <position>1524 428 1564 453</position>
            <barchart active="true" width="100" height="120" />
        </node>
        <node id="d03_intake_diff_1">
            <name>d03_intake_diff_1</name>
            <interior color="915C83" />
            <outline color="000000" width="3" />
            <font color="000000" name="Arial" size="14" />
            <position>1524 428 1564 453</position>
            <barchart active="true" width="100" height="120" />
        </node>
        <node id="d03_intake_diff_2">
            <name>d03_intake_diff_2</name>
            <interior color="e6ffe6" />
            <outline color="000000" width="3" />
            <font color="000000" name="Arial" size="14" />
            <position>1524 428 1564 453</position>
            <barchart active="true" width="100" height="120" />
        </node>
        <node id="d03_intake_diff_d">
            <name>d03_intake_diff_d</name>
            <interior color="3B7A57" />
            <outline color="000000" width="3" />
            <font color="000000" name="Arial" size="14" />
            <position>1524 428 1564 453</position>
            <barchart active="true" width="100" height="120" />
        </node>
        <node id="d03_pulse_pre_min_1">
            <name>d03_pulse_pre_min_1</name>
            <interior color="FFBF00" />
            <outline color="000000" width="3" />
            <font color="000000" name="Arial" size="14" />
            <position>1524 428 1564 453</position>
            <barchart active="true" width="100" height="120" />
        </node>
        <node id="d03_pulse_pre_min_2">
            <name>d03_pulse_pre_min_2</name>
            <interior color="C46210" />
            <outline color="000000" width="3" />
            <font color="000000" name="Arial" size="14" />
            <position>1524 428 1564 453</position>
            <barchart active="true" width="100" height="120" />
        </node>
        <node id="d03_pulse_pre_min_d">
            <name>d03_pulse_pre_min_d</name>
            <interior color="C46210" />
            <outline color="000000" width="3" />
            <font color="000000" name="Arial" size="14" />
            <position>1524 428 1564 453</position>
            <barchart active="true" width="100" height="120" />
        </node>
        <node id="d03_pulse_rate_range_1">
            <name>d03_pulse_rate_range_1</name>
            <interior color="C46210" />
            <outline color="000000" width="3" />
            <font color="000000" name="Arial" size="14" />
            <position>1524 428 1564 453</position>
            <barchart active="true" width="100" height="120" />
        </node>
        <node id="d03_pulse_rate_range_2">
            <name>d03_pulse_rate_range_2</name>
            <interior color="e6ffe6" />
            <outline color="000000" width="3" />
            <font color="000000" name="Arial" size="14" />
            <position>1524 428 1564 453</position>
            <barchart active="true" width="100" height="120" />
        </node>
        <node id="d03_temp_min_1">
            <name>d03_temp_min_1</name>
            <interior color="FFBF00" />
            <outline color="000000" width="3" />
            <font color="000000" name="Arial" size="14" />
            <position>1524 428 1564 453</position>
            <barchart active="true" width="100" height="120" />
        </node>
        <node id="d03_temp_min_2">
            <name>d03_temp_min_2</name>
            <interior color="915C83" />
            <outline color="000000" width="3" />
            <font color="000000" name="Arial" size="14" />
            <position>1524 428 1564 453</position>
            <barchart active="true" width="100" height="120" />
        </node>
        <node id="d03_temp_min_d">
            <name>d03_temp_min_d</name>
            <interior color="C46210" />
            <outline color="000000" width="3" />
            <font color="000000" name="Arial" size="14" />
            <position>1524 428 1564 453</position>
            <barchart active="true" width="100" height="120" />
        </node>
        <node id="d04_ab_circum_1">
            <name>d04_ab_circum_1</name>
            <interior color="C0E8D5" />
            <outline color="000000" width="3" />
            <font color="000000" name="Arial" size="14" />
            <position>1524 428 1564 453</position>
            <barchart active="true" width="100" height="120" />
        </node>
        <node id="d04_ab_circum_d">
            <name>d04_ab_circum_d</name>
            <interior color="0048BA" />
            <outline color="000000" width="3" />
            <font color="000000" name="Arial" size="14" />
            <position>1524 428 1564 453</position>
            <barchart active="true" width="100" height="120" />
        </node>
        <node id="d04_abdominal_1">
            <name>d04_abdominal_1</name>
            <interior color="C0E8D5" />
            <outline color="000000" width="3" />
            <font color="000000" name="Arial" size="14" />
            <position>1524 428 1564 453</position>
            <barchart active="true" width="100" height="120" />
        </node>
        <node id="d04_abdominal_2">
            <name>d04_abdominal_2</name>
            <interior color="C46210" />
            <outline color="000000" width="3" />
            <font color="000000" name="Arial" size="14" />
            <position>1524 428 1564 453</position>
            <barchart active="true" width="100" height="120" />
        </node>
        <node id="d04_clear_1">
            <name>d04_clear_1</name>
            <interior color="3B7A57" />
            <outline color="000000" width="3" />
            <font color="000000" name="Arial" size="14" />
            <position>1524 428 1564 453</position>
            <barchart active="true" width="100" height="120" />
        </node>
        <node id="d04_diarrhea_1">
            <name>d04_diarrhea_1</name>
            <interior color="FFBF00" />
            <outline color="000000" width="3" />
            <font color="000000" name="Arial" size="14" />
            <position>1524 428 1564 453</position>
            <barchart active="true" width="100" height="120" />
        </node>
        <node id="d04_injected_1">
            <name>d04_injected_1</name>
            <interior color="3B7A57" />
            <outline color="000000" width="3" />
            <font color="000000" name="Arial" size="14" />
            <position>1524 428 1564 453</position>
            <barchart active="true" width="100" height="120" />
        </node>
        <node id="d04_injected_2">
            <name>d04_injected_2</name>
            <interior color="C0E8D5" />
            <outline color="000000" width="3" />
            <font color="000000" name="Arial" size="14" />
            <position>1524 428 1564 453</position>
            <barchart active="true" width="100" height="120" />
        </node>
        <node id="d05_ast_alt_1">
            <name>d05_ast_alt_1</name>
            <interior color="C0E8D5" />
            <outline color="000000" width="3" />
            <font color="000000" name="Arial" size="14" />
            <position>1524 428 1564 453</position>
            <barchart active="true" width="100" height="120" />
        </node>
        <node id="d05_ast_alt_d">
            <name>d05_ast_alt_d</name>
            <interior color="e6ffe6" />
            <outline color="000000" width="3" />
            <font color="000000" name="Arial" size="14" />
            <position>1524 428 1564 453</position>
            <barchart active="true" width="100" height="120" />
        </node>
        <node id="d05_atyp_2">
            <name>d05_atyp_2</name>
            <interior color="C0E8D5" />
            <outline color="000000" width="3" />
            <font color="000000" name="Arial" size="14" />
            <position>1524 428 1564 453</position>
            <barchart active="true" width="100" height="120" />
        </node>
        <node id="d05_band_1">
            <name>d05_band_1</name>
            <interior color="3DDC84" />
            <outline color="000000" width="3" />
            <font color="000000" name="Arial" size="14" />
            <position>1524 428 1564 453</position>
            <barchart active="true" width="100" height="120" />
        </node>
        <node id="d05_eosin_1">
            <name>d05_eosin_1</name>
            <interior color="3B7A57" />
            <outline color="000000" width="3" />
            <font color="000000" name="Arial" size="14" />
            <position>1524 428 1564 453</position>
            <barchart active="true" width="100" height="120" />
        </node>
        <node id="d05_eosin_2">
            <name>d05_eosin_2</name>
            <interior color="FFBF00" />
            <outline color="000000" width="3" />
            <font color="000000" name="Arial" size="14" />
            <position>1524 428 1564 453</position>
            <barchart active="true" width="100" height="120" />
        </node>
        <node id="d05_lft_alt_1">
            <name>d05_lft_alt_1</name>
            <interior color="e6ffe6" />
            <outline color="000000" width="3" />
            <font color="000000" name="Arial" size="14" />
            <position>1524 428 1564 453</position>
            <barchart active="true" width="100" height="120" />
        </node>
        <node id="d05_lft_alt_d">
            <name>d05_lft_alt_d</name>
            <interior color="C0E8D5" />
            <outline color="000000" width="3" />
            <font color="000000" name="Arial" size="14" />
            <position>1524 428 1564 453</position>
            <barchart active="true" width="100" height="120" />
        </node>
        <node id="d05_lft_ast_1">
            <name>d05_lft_ast_1</name>
            <interior color="0048BA" />
            <outline color="000000" width="3" />
            <font color="000000" name="Arial" size="14" />
            <position>1524 428 1564 453</position>
            <barchart active="true" width="100" height="120" />
        </node>
        <node id="d05_lft_protein_1">
            <name>d05_lft_protein_1</name>
            <interior color="3DDC84" />
            <outline color="000000" width="3" />
            <font color="000000" name="Arial" size="14" />
            <position>1524 428 1564 453</position>
            <barchart active="true" width="100" height="120" />
        </node>
        <node id="d05_lft_protein_2">
            <name>d05_lft_protein_2</name>
            <interior color="C0E8D5" />
            <outline color="000000" width="3" />
            <font color="000000" name="Arial" size="14" />
            <position>1524 428 1564 453</position>
            <barchart active="true" width="100" height="120" />
        </node>
        <node id="d05_lft_protein_d">
            <name>d05_lft_protein_d</name>
            <interior color="915C83" />
            <outline color="000000" width="3" />
            <font color="000000" name="Arial" size="14" />
            <position>1524 428 1564 453</position>
            <barchart active="true" width="100" height="120" />
        </node>
        <node id="d05_lymp_1">
            <name>d05_lymp_1</name>
            <interior color="C46210" />
            <outline color="000000" width="3" />
            <font color="000000" name="Arial" size="14" />
            <position>1524 428 1564 453</position>
            <barchart active="true" width="100" height="120" />
        </node>
        <node id="d05_lymp_2">
            <name>d05_lymp_2</name>
            <interior color="915C83" />
            <outline color="000000" width="3" />
            <font color="000000" name="Arial" size="14" />
            <position>1524 428 1564 453</position>
            <barchart active="true" width="100" height="120" />
        </node>
        <node id="d05_lymp_d">
            <name>d05_lymp_d</name>
            <interior color="C0E8D5" />
            <outline color="000000" width="3" />
            <font color="000000" name="Arial" size="14" />
            <position>1524 428 1564 453</position>
            <barchart active="true" width="100" height="120" />
        </node>
        <node id="d05_pmn_1">
            <name>d05_pmn_1</name>
            <interior color="915C83" />
            <outline color="000000" width="3" />
            <font color="000000" name="Arial" size="14" />
            <position>1524 428 1564 453</position>
            <barchart active="true" width="100" height="120" />
        </node>
        <node id="d05_pmn_2">
            <name>d05_pmn_2</name>
            <interior color="C0E8D5" />
            <outline color="000000" width="3" />
            <font color="000000" name="Arial" size="14" />
            <position>1524 428 1564 453</position>
            <barchart active="true" width="100" height="120" />
        </node>
        <node id="d05_pmn_d">
            <name>d05_pmn_d</name>
            <interior color="3DDC84" />
            <outline color="000000" width="3" />
            <font color="000000" name="Arial" size="14" />
            <position>1524 428 1564 453</position>
            <barchart active="true" width="100" height="120" />
        </node>
        <node id="dhf_dx">
            <name>dhf_dx</name>
            <interior color="0048BA" />
            <outline color="000000" width="3" />
            <font color="000000" name="Arial" size="14" />
            <position>1524 428 1564 453</position>
            <barchart active="true" width="100" height="120" />
        </node>
        <node id="fever_day">
            <name>fever_day</name>
            <interior color="FFBF00" />
            <outline color="000000" width="3" />
            <font color="000000" name="Arial" size="14" />
            <position>1524 428 1564 453</position>
            <barchart active="true" width="100" height="120" />
        </node>
    </extensions>
</smile>