<?xml version='1.0' encoding='ISO-8859-1'?>
<smile version="1.0" id="Network2" numsamples="10000" discsamples="10000">
    <nodes>

        <cpt id="dhf_dx">
            <state id="0" />
            <state id="1" />
            <probabilities>0.5284810126582279 0.47151898734177217 </probabilities>
        </cpt>
        <cpt id="fever_day">
            <state id="-inf-1-5-" />
            <state id="-1-5-2-5-" />
            <state id="-2-5-3-5-" />
            <state id="-3-5-4-5-" />
            <state id="-4-5-inf-" />
            <probabilities>0.10832879695155144 0.18454001088731628 0.35220468154599893 0.2749047359825803 0.08002177463255307 0.0896888346552776 0.20073215375228798 0.3849908480780964 0.25808419768151314 0.06650396583282489 </probabilities>
            <parents>dhf_dx</parents>
        </cpt>
        
        <cpt id="d01_myalgia_day">
            <state id="-inf-0-5-" />
            <state id="-0-5-1-5-" />
            <state id="-1-5-2-5-" />
            <state id="-2-5-3-5-" />
            <state id="-3-5-4-5-" />
            <state id="-4-5-inf-" />
            <probabilities>0.5709490110687716 0.06033387769914717 0.09952821629468339 0.12456904373072042 0.09517328978406825 0.049446561422609336 0.5044742729306488 0.03345535895871467 0.10178970917225953 0.16402277811673785 0.15792149684767134 0.03833638397396787 </probabilities>
            <parents>dhf_dx</parents>
        </cpt>
        <cpt id="d03_hct_avg">
            <state id="-inf-35-5-" />
            <state id="-35-5-36-5-" />
            <state id="-36-5-37-85-" />
            <state id="-37-85-39-583-" />
            <state id="-39-583-40-253-" />
            <state id="-40-253-43-5-" />
            <state id="-43-5-46-5-" />
            <state id="-46-5-48-5-" />
            <state id="-48-5-inf-" />
            <probabilities>0.16578963285550108 0.080868565898506 0.10264319845158165 0.2224036774934978 0.15599104820661702 0.17776568075969268 0.07760237101554464 0.013367204983971448 0.0035686203350874 0.11992407294420716 0.05036946647684903 0.04060741644634262 0.176055860619619 0.14066842925903328 0.23096739204121755 0.1479899667819131 0.05647074774591553 0.03694664768490272 </probabilities>
            <parents>dhf_dx</parents>
        </cpt>
        <cpt id="d03_intake_diff">
            <state id="-inf-37-5-" />
            <state id="-37-5-325-0-" />
            <state id="-325-0-375-0-" />
            <state id="-375-0-472-5-" />
            <state id="-472-5-605-0-" />
            <state id="-605-0-1010-0-" />
            <state id="-1010-0-1175-0-" />
            <state id="-1175-0-1575-0-" />
            <state id="-1575-0-inf-" />
            <probabilities>0.41184298070525605 0.17885441238734648 0.019899594749894146 0.080868565898506 0.08848968729208247 0.17123329099377 0.012278473356317666 0.02860944777112441 0.007923546845702532 0.41888685512846574 0.14676971052809973 0.03694664768490271 0.04304792895396921 0.09795946037556773 0.13090637922852683 0.04304792895396921 0.04304792895396921 0.03938716019252931 </probabilities>
            <parents>dhf_dx</parents>
        </cpt>
        <cpt id="d03_pulse_rate_max">
            <state id="-inf-89-0-" />
            <state id="-89-0-91-0-" />
            <state id="-91-0-95-0-" />
            <state id="-95-0-97-0-" />
            <state id="-97-0-99-0-" />
            <state id="-99-0-105-5-" />
            <state id="-105-5-109-5-" />
            <state id="-109-5-135-0-" />
            <state id="-135-0-inf-" />
            <probabilities>0.05038408032420009 0.029698179398778203 0.04494042218593117 0.03949676404766225 0.03840803242000847 0.186475533780923 0.06562632311135305 0.5207161434706344 0.024254521260509285 0.05525049149210223 0.04060741644634262 0.04182767270015592 0.05525049149210223 0.04426818520778252 0.1748356043658057 0.07233407904548844 0.4786794115653176 0.03694664768490272 </probabilities>
            <parents>dhf_dx</parents>
        </cpt>
        <cpt id="d03_temp_min">
            <state id="-inf-36-25-" />
            <state id="-36-25-36-593-" />
            <state id="-36-593-36-75-" />
            <state id="-36-75-36-85-" />
            <state id="-36-85-37-15-" />
            <state id="-37-15-37-25-" />
            <state id="-37-25-38-35-" />
            <state id="-38-35-38-55-" />
            <state id="-38-55-inf-" />
            <probabilities>0.03840803242000847 0.05800520171777657 0.05800520171777657 0.055827738462469 0.16796709611080868 0.03187564265408577 0.40966551744994856 0.03731930079235469 0.14292626867477165 0.04548844146159582 0.05403023523828893 0.04792895396922243 0.03328587892346282 0.10284048539082095 0.04182767270015592 0.41644634262083924 0.07721510406074164 0.1809368856348722 </probabilities>
            <parents>dhf_dx</parents>
        </cpt>
        <cpt id="d04_ab_circum">
            <state id="-inf-45-25-" />
            <state id="-45-25-49-75-" />
            <state id="-49-75-54-922-" />
            <state id="-54-922-58-25-" />
            <state id="-58-25-59-091-" />
            <state id="-59-091-59-865-" />
            <state id="-59-865-60-75-" />
            <state id="-60-75-69-75-" />
            <state id="-69-75-inf-" />
            <probabilities>0.06344885985604547 0.17123329099377 0.2474445049295348 0.1385713421641565 0.07215871287727572 0.0013911570797798339 0.025343252888163064 0.13530514728119514 0.1451037319300792 0.03450613517727612 0.12236458545183376 0.2029014982035116 0.14066842925903328 0.03450613517727612 0.07965561656836824 0.05036946647684903 0.1931394481730052 0.14188868551284659 </probabilities>
            <parents>dhf_dx</parents>
        </cpt>
        <cpt id="d04_abdominal">
            <state id="1" />
            <state id="2" />
            <probabilities>0.9673366834170855 0.032663316582914576 0.9277286135693216 0.07227138643067847 0.857032457496136 0.14296754250386398 0.8326732673267326 0.16732673267326734 0.8197278911564626 0.18027210884353742 0.9965986394557823 0.003401360544217687 0.8951367781155015 0.10486322188449848 0.8153724247226625 0.18462757527733756 0.6678486997635934 0.3321513002364066 0.6284403669724771 0.37155963302752293 </probabilities>
            <parents>dhf_dx fever_day</parents>
        </cpt>
        <cpt id="d04_clear">
            <state id="1" />
            <state id="2" />
            <probabilities>0.9409363091997822 0.05906369080021775 0.9874923733984137 0.012507626601586334 </probabilities>
            <parents>dhf_dx</parents>
        </cpt>
        <cpt id="d04_diarrhea">
            <state id="1" />
            <state id="2" />
            <probabilities>0.9278715296679368 0.07212847033206314 0.8825503355704698 0.1174496644295302 </probabilities>
            <parents>dhf_dx</parents>
        </cpt>
        <cpt id="d04_injected">
            <state id="1" />
            <state id="2" />
            <probabilities>0.9371859296482412 0.06281407035175879 0.8746312684365781 0.12536873156342182 0.8910355486862442 0.10896445131375579 0.8683168316831683 0.1316831683168317 0.8061224489795918 0.19387755102040816 0.95578231292517 0.04421768707482993 0.9316109422492401 0.06838905775075987 0.8946117274167987 0.10538827258320127 0.8664302600472813 0.13356973995271867 0.8669724770642202 0.13302752293577982 </probabilities>
            <parents>dhf_dx fever_day</parents>
        </cpt>
        <cpt id="d04_itching">
            <state id="1" />
            <state id="2" />
            <probabilities>0.9974874371859297 0.002512562814070352 0.9985250737463127 0.0014749262536873156 0.999227202472952 0.0007727975270479134 0.9712871287128713 0.028712871287128714 0.9149659863945578 0.08503401360544217 0.9965986394557823 0.003401360544217687 0.9984802431610942 0.001519756838905775 0.9960380348652932 0.003961965134706815 0.9846335697399528 0.015366430260047281 0.9770642201834863 0.022935779816513763 </probabilities>
            <parents>dhf_dx fever_day</parents>
        </cpt>
        <cpt id="d05_ast_alt">
            <state id="-inf-0-974-" />
            <state id="-0-974-1-185-" />
            <state id="-1-185-1-251-" />
            <state id="-1-251-1-343-" />
            <state id="-1-343-1-392-" />
            <state id="-1-392-1-631-" />
            <state id="-1-631-1-717-" />
            <state id="-1-717-1-941-" />
            <state id="-1-941-inf-" />
            <probabilities>0.10373193007923547 0.09937700356862032 0.05365027520716144 0.06671505473900684 0.013367204983971452 0.12224036774934978 0.05147281195185387 0.07324744450492952 0.4161979072158713 0.03206562266964952 0.06501254152260864 0.04548844146159582 0.03206562266964952 0.03450613517727612 0.11870381669039387 0.03206562266964952 0.12968612297471357 0.5104060741644634 </probabilities>
            <parents>dhf_dx</parents>
        </cpt>
        <cpt id="d05_atyp">
            <state id="-inf-0-974-" />
            <state id="-0-974-1-423-" />
            <state id="-1-423-1-732-" />
            <state id="-1-732-2-041-" />
            <state id="-2-041-2-493-" />
            <state id="-2-493-2-728-" />
            <state id="-2-728-2-991-" />
            <state id="-2-991-3-568-" />
            <state id="-3-568-inf-" />
            <probabilities>0.6448315490231655 0.049295348696546275 0.029698179398778186 0.04385169055827736 0.062360128228391674 0.044940422185931146 0.03078691102643197 0.07106998124962192 0.02316578963285549 0.6238899057691002 0.03450613517727611 0.03938716019252931 0.03938716019252931 0.09551894786794113 0.03694664768490271 0.03572639143108941 0.049149210223035714 0.045488441461595815 </probabilities>
            <parents>dhf_dx</parents>
        </cpt>
        <cpt id="d05_band">
            <state id="-inf-1-295-" />
            <state id="-1-295-2-008-" />
            <state id="-2-008-2-643-" />
            <state id="-2-643-3-435-" />
            <state id="-3-435-inf-" />
            <probabilities>0.8856831790963527 0.01905280348394121 0.03647250952640174 0.04300489929232444 0.015786608600979857 0.8340451494813911 0.056741915802318486 0.03843807199511898 0.03233679072605247 0.03843807199511898 </probabilities>
            <parents>dhf_dx</parents>
        </cpt>
        <cpt id="d05_eosin">
            <state id="-inf-0-644-" />
            <state id="-0-644-0-25-" />
            <state id="-0-25-0-768-" />
            <state id="-0-768-1-209-" />
            <state id="-1-209-1-816-" />
            <state id="-1-816-inf-" />
            <probabilities>0.017873344220649616 0.7963164579931049 0.017873344220649616 0.040736708401379065 0.0450916349119942 0.08210851025222285 0.034675615212527974 0.7814724425462682 0.04443766524303438 0.03711612772015458 0.05175920276591418 0.050538946512100884 </probabilities>
            <parents>dhf_dx</parents>
        </cpt>
        <cpt id="d05_lft_protein">
            <state id="-inf-5-05-" />
            <state id="-5-05-5-55-" />
            <state id="-5-55-5-918-" />
            <state id="-5-918-6-15-" />
            <state id="-6-15-6-25-" />
            <state id="-6-25-6-95-" />
            <state id="-6-95-7-15-" />
            <state id="-7-15-7-55-" />
            <state id="-7-55-inf-" />
            <probabilities>0.001391157079779834 0.010101010101010102 0.04820661706889252 0.04602915381358495 0.03840803242000847 0.45539224581140747 0.11788544123873465 0.16905582773846245 0.11353051472811951 0.04304792895396922 0.04792895396922243 0.07477459155311504 0.09063792285268794 0.04914921022303573 0.38960070503694666 0.12236458545183376 0.11748356043658056 0.06501254152260864 </probabilities>
            <parents>dhf_dx</parents>
        </cpt>
        <cpt id="d05_lymp">
            <state id="-inf-3-445-" />
            <state id="-3-445-3-716-" />
            <state id="-3-716-3-903-" />
            <state id="-3-903-4-401-" />
            <state id="-4-401-4-573-" />
            <state id="-4-573-4-833-" />
            <state id="-4-833-5-039-" />
            <state id="-5-039-5-19-" />
            <state id="-5-19-inf-" />
            <probabilities>0.014455936611625236 0.03187564265408577 0.029698179398778203 0.2594205528337265 0.14401500030242545 0.2006290449404222 0.11897417286638842 0.06998124962196818 0.13095022077058005 0.03450613517727612 0.04060741644634262 0.06745305403023524 0.3163853298081486 0.1492102230357264 0.1492102230357264 0.11626330418276726 0.03694664768490272 0.08941766659887465 </probabilities>
            <parents>dhf_dx</parents>
        </cpt>
        <cpt id="d05_pmn">
            <state id="-inf-3-938-" />
            <state id="-3-938-4-463-" />
            <state id="-4-463-4-718-" />
            <state id="-4-718-4-96-" />
            <state id="-4-96-4-997-" />
            <state id="-4-997-5-98-" />
            <state id="-5-98-6-106-" />
            <state id="-6-106-6-446-" />
            <state id="-6-446-inf-" />
            <probabilities>0.02643198451581685 0.11679670961108085 0.0874009556644287 0.14401500030242542 0.014455936611625234 0.47172322022621416 0.02643198451581685 0.06127139660073791 0.05147281195185386 0.04548844146159582 0.060131516507355424 0.10650125415226085 0.10772151040607414 0.040607416446342616 0.5189478679411564 0.04670869771540912 0.03450613517727611 0.039387160192529316 </probabilities>
            <parents>dhf_dx</parents>
        </cpt>
        <cpt id="d05_sgot_platelet_ratio">
            <state id="-inf-0-195-" />
            <state id="-0-195-0-285-" />
            <state id="-0-285-0-431-" />
            <state id="-0-431-0-729-" />
            <state id="-0-729-0-983-" />
            <state id="-0-983-1-689-" />
            <state id="-1-689-2-768-" />
            <state id="-2-768-12-064-" />
            <state id="-12-064-inf-" />
            <probabilities>0.503070910106086 0.20156337241764377 0.19151312116136235 0.08096035734226688 0.0005583472920156336 0.01060859854829704 0.01060859854829704 0.0005583472920156336 0.0005583472920156336 0.30711242215667006 0.18911832186168476 0.22451655195018036 0.14192068174369066 0.04162569649295314 0.029826286463454615 0.04162569649295314 0.02392658144870535 0.0003277613897082925 0.14236647776060454 0.16709599862613778 0.23201099089816252 0.19491670959986265 0.11454576678687964 0.07126910527219647 0.04653958440666324 0.027992443757513315 0.0032629228919800798 0.10319031903190322 0.11507150715071511 0.1546754675467547 0.2378437843784379 0.11111111111111115 0.13487348734873492 0.09922992299229925 0.043784378437843795 0.00022002200220022007 0.12320483749055178 0.08238851095993953 0.164021164021164 0.15041572184429328 0.15041572184429328 0.06878306878306878 0.12320483749055178 0.1368102796674225 0.0007558578987150415 0.23204837490551775 0.24565381708238848 0.20483749055177622 0.16402116402116398 0.05517762660619802 0.05517762660619802 0.0007558578987150414 0.04157218442932727 0.0007558578987150414 0.04896994258696387 0.1097602161431949 0.25565687267814935 0.27997298210064175 0.07328605200945627 0.1219182708544411 0.04896994258696387 0.06112799729821007 0.00033772374197906115 0.0001760873393203029 0.057228385279098445 0.13646768797323475 0.24423313963726012 0.09209367846451842 0.21570699066737106 0.08575453424898752 0.15231554851206203 0.016023947878147562 0.014447071184659837 0.004990806409246125 0.01917520357236669 0.11846598371421067 0.047543997898607825 0.2224848962437615 0.13265038087733125 0.3548726030995535 0.08536905700026268 0.019367991845056064 0.001019367991845056 0.001019367991845056 0.07441386340468908 0.03771661569826707 0.23955147808358818 0.0927624872579001 0.4230377166156983 0.1111111111111111 </probabilities>
            <parents>dhf_dx fever_day</parents>
        </cpt>

    </nodes>
    <extensions>
        <genie version="1.0" app="GeNIe 3.0.6518.0 ACADEMIC" name="DHF" />
        <node id="d01_myalgia_day">
            <name>d01_myalgia_day</name>
            <interior color="3DDC84" />
            <outline color="000000" width="3" />
            <font color="000000" name="Arial" size="14" />
            <position>1524 428 1564 453</position>
            <barchart active="true" width="100" height="120" />
        </node>
        <node id="d03_hct_avg">
            <name>d03_hct_avg</name>
            <interior color="FFBF00" />
            <outline color="000000" width="3" />
            <font color="000000" name="Arial" size="14" />
            <position>1524 428 1564 453</position>
            <barchart active="true" width="100" height="120" />
        </node>
        <node id="d03_intake_diff">
            <name>d03_intake_diff</name>
            <interior color="FFBF00" />
            <outline color="000000" width="3" />
            <font color="000000" name="Arial" size="14" />
            <position>1524 428 1564 453</position>
            <barchart active="true" width="100" height="120" />
        </node>
        <node id="d03_pulse_rate_max">
            <name>d03_pulse_rate_max</name>
            <interior color="C46210" />
            <outline color="000000" width="3" />
            <font color="000000" name="Arial" size="14" />
            <position>1524 428 1564 453</position>
            <barchart active="true" width="100" height="120" />
        </node>
        <node id="d03_temp_min">
            <name>d03_temp_min</name>
            <interior color="3DDC84" />
            <outline color="000000" width="3" />
            <font color="000000" name="Arial" size="14" />
            <position>1524 428 1564 453</position>
            <barchart active="true" width="100" height="120" />
        </node>
        <node id="d04_ab_circum">
            <name>d04_ab_circum</name>
            <interior color="3B7A57" />
            <outline color="000000" width="3" />
            <font color="000000" name="Arial" size="14" />
            <position>1524 428 1564 453</position>
            <barchart active="true" width="100" height="120" />
        </node>
        <node id="d04_abdominal">
            <name>d04_abdominal</name>
            <interior color="3B7A57" />
            <outline color="000000" width="3" />
            <font color="000000" name="Arial" size="14" />
            <position>1524 428 1564 453</position>
            <barchart active="true" width="100" height="120" />
        </node>
        <node id="d04_clear">
            <name>d04_clear</name>
            <interior color="3DDC84" />
            <outline color="000000" width="3" />
            <font color="000000" name="Arial" size="14" />
            <position>1524 428 1564 453</position>
            <barchart active="true" width="100" height="120" />
        </node>
        <node id="d04_diarrhea">
            <name>d04_diarrhea</name>
            <interior color="915C83" />
            <outline color="000000" width="3" />
            <font color="000000" name="Arial" size="14" />
            <position>1524 428 1564 453</position>
            <barchart active="true" width="100" height="120" />
        </node>
        <node id="d04_injected">
            <name>d04_injected</name>
            <interior color="e6ffe6" />
            <outline color="000000" width="3" />
            <font color="000000" name="Arial" size="14" />
            <position>1524 428 1564 453</position>
            <barchart active="true" width="100" height="120" />
        </node>
        <node id="d04_itching">
            <name>d04_itching</name>
            <interior color="e6ffe6" />
            <outline color="000000" width="3" />
            <font color="000000" name="Arial" size="14" />
            <position>1524 428 1564 453</position>
            <barchart active="true" width="100" height="120" />
        </node>
        <node id="d05_ast_alt">
            <name>d05_ast_alt</name>
            <interior color="FFBF00" />
            <outline color="000000" width="3" />
            <font color="000000" name="Arial" size="14" />
            <position>1524 428 1564 453</position>
            <barchart active="true" width="100" height="120" />
        </node>
        <node id="d05_atyp">
            <name>d05_atyp</name>
            <interior color="0048BA" />
            <outline color="000000" width="3" />
            <font color="000000" name="Arial" size="14" />
            <position>1524 428 1564 453</position>
            <barchart active="true" width="100" height="120" />
        </node>
        <node id="d05_band">
            <name>d05_band</name>
            <interior color="0048BA" />
            <outline color="000000" width="3" />
            <font color="000000" name="Arial" size="14" />
            <position>1524 428 1564 453</position>
            <barchart active="true" width="100" height="120" />
        </node>
        <node id="d05_eosin">
            <name>d05_eosin</name>
            <interior color="3B7A57" />
            <outline color="000000" width="3" />
            <font color="000000" name="Arial" size="14" />
            <position>1524 428 1564 453</position>
            <barchart active="true" width="100" height="120" />
        </node>
        <node id="d05_lft_protein">
            <name>d05_lft_protein</name>
            <interior color="3DDC84" />
            <outline color="000000" width="3" />
            <font color="000000" name="Arial" size="14" />
            <position>1524 428 1564 453</position>
            <barchart active="true" width="100" height="120" />
        </node>
        <node id="d05_lymp">
            <name>d05_lymp</name>
            <interior color="3B7A57" />
            <outline color="000000" width="3" />
            <font color="000000" name="Arial" size="14" />
            <position>1524 428 1564 453</position>
            <barchart active="true" width="100" height="120" />
        </node>
        <node id="d05_pmn">
            <name>d05_pmn</name>
            <interior color="0048BA" />
            <outline color="000000" width="3" />
            <font color="000000" name="Arial" size="14" />
            <position>1524 428 1564 453</position>
            <barchart active="true" width="100" height="120" />
        </node>
        <node id="d05_sgot_platelet_ratio">
            <name>d05_sgot_platelet_ratio</name>
            <interior color="915C83" />
            <outline color="000000" width="3" />
            <font color="000000" name="Arial" size="14" />
            <position>1524 428 1564 453</position>
            <barchart active="true" width="100" height="120" />
        </node>
        <node id="dhf_dx">
            <name>dhf_dx</name>
            <interior color="e6ffe6" />
            <outline color="000000" width="3" />
            <font color="000000" name="Arial" size="14" />
            <position>1524 428 1564 453</position>
            <barchart active="true" width="100" height="120" />
        </node>
        <node id="fever_day">
            <name>fever_day</name>
            <interior color="915C83" />
            <outline color="000000" width="3" />
            <font color="000000" name="Arial" size="14" />
            <position>1524 428 1564 453</position>
            <barchart active="true" width="100" height="120" />
        </node>
    </extensions>
</smile>